{"learner":{"attributes":{"best_iteration":"94","best_score":"0.8818115005754582","scikit_learn":"{\"_estimator_type\": \"classifier\"}"},"feature_names":["publish_year","publish_month","publish_quarter","deadline_days","contract_duration_days","buyer_country","tender_proceduretype","tender_supplytype","tender_selectionmethod","tender_lotscount","tender_recordedbidscount","lot_bidscount","tender_awardcriteria_count","tender_description_length","lot_description_length","tender_personalrequirements_length","tender_technicalrequirements_length","tender_economicrequirements_length","tender_corrections_count","bid_priceUsd","tender_digiwhist_price","bid_digiwhist_price","tender_estimatedpriceUsd","tender_finalpriceUsd","submission_period","corr_singleb","corr_proc","corr_subm","cri","corr_buyer_concentration","lot_status","buyer_buyertype","filter_ok","filter_losingbids","pit_total_entries","pit_total_wins","pit_win_rate_overall","pit_win_rate_country","pit_avg_contract_value","pit_last_win_years_ago","pit_experience_score","pit_recency_score","pit_is_incumbent","pit_country_count","pit_is_international","pit_buyer_win_count","pit_buyer_entry_count","pit_win_rate_buyer","buyer_loyalty_score","category_hhi","tender_size_ratio","source","actual_num_competitors","competition_baseline","buyer_total_past_awards","buyer_avg_contract_value","buyer_avg_competitors","buyer_specialisation"],"feature_types":["float","float","float","float","float","float","float","float","float","float","float","float","float","float","float","float","float","float","float","float","float","float","float","float","float","float","float","float","float","float","float","float","float","float","float","float","float","float","float","float","float","float","float","float","float","float","float","float","float","float","float","float","float","float","float","float","float","float"],"gradient_booster":{"model":{"gbtree_model_param":{"num_parallel_tree":"1","num_trees":"145"},"iteration_indptr":[0,1,2,3,4,5,6,7,8,9,10,11,12,13,14,15,16,17,18,19,20,21,22,23,24,25,26,27,28,29,30,31,32,33,34,35,36,37,38,39,40,41,42,43,44,45,46,47,48,49,50,51,52,53,54,55,56,57,58,59,60,61,62,63,64,65,66,67,68,69,70,71,72,73,74,75,76,77,78,79,80,81,82,83,84,85,86,87,88,89,90,91,92,93,94,95,96,97,98,99,100,101,102,103,104,105,106,107,108,109,110,111,112,113,114,115,116,117,118,119,120,121,122,123,124,125,126,127,128,129,130,131,132,133,134,135,136,137,138,139,140,141,142,143,144,145],"tree_info":[0,0,0,0,0,0,0,0,0,0,0,0,0,0,0,0,0,0,0,0,0,0,0,0,0,0,0,0,0,0,0,0,0,0,0,0,0,0,0,0,0,0,0,0,0,0,0,0,0,0,0,0,0,0,0,0,0,0,0,0,0,0,0,0,0,0,0,0,0,0,0,0,0,0,0,0,0,0,0,0,0,0,0,0,0,0,0,0,0,0,0,0,0,0,0,0,0,0,0,0,0,0,0,0,0,0,0,0,0,0,0,0,0,0,0,0,0,0,0,0,0,0,0,0,0,0,0,0,0,0,0,0,0,0,0,0,0,0,0,0,0,0,0,0,0],"trees":[{"base_weights":[1.0115553E-3,-8.435829E-1,4.571787E-1,-3.242132E-1,-1.7945807E0,9.9840504E-1,1.8496196E-1,-7.558774E-1,-3.007189E-2,-4.0429458E-1,-1.9221548E0,1.8816749E0,8.028961E-1,-1.6363122E-1,2.8234023E-1,-1.0802349E0,-2.52883E-1,4.6063177E-3,-1.4076607E0,-1.2791508E0,-1.1370365E-2,-1.936061E0,-1.0057594E0,1.9396447E0,1.3146542E0,8.524096E-1,-1.7563686E-1,-2.0330252E-1,3.997338E-1,8.1594324E-1,2.2911412E-1,-1.0464453E0,-1.863879E0,-5.717021E-3,-5.124978E-1,-2.4066947E-1,2.0593105E-1,-1.4870803E-1,-1.5509685E0,9.6670404E-2,-1.3152027E0,-2.1889293E-1,9.549823E-1,-1.4756702E0,-1.9455302E0,6.466836E-1,-1.386722E0,1.974219E0,1.7852467E0,1.4372805E0,6.000637E-1,1.4754875E0,7.2161746E-1,-5.847067E-1,-1.4729777E-1,5.28019E-1,-8.270794E-1,8.829849E-1,-1.9746333E0,1.9510065E0,2.165617E-1,-9.4426167E-1,-1.1656004E0,-1.7383391E0,-1.7567551E-1,6.4421934E-1,-1.01188384E-1,-4.286909E-1,-1.253574E0,-1.8554333E0,-1.8446903E-1,1.8710522E-1,1.2472963E0,2.2073707E-1,-1.668148E-1,-1.7524371E0,-7.6292336E-1,-1.4651428E0,-9.5445025E-1,9.070782E-2,-2.5794482E-1,1.8126994E-1,1.5657024E0,-1.161863E0,-1.8137718E0,-1.8611032E0,-1.9808463E0,-1.4949055E-1,1.5956984E-1,-3.2404625E-1,-1.5964407E0,1.742389E-1,1.9217676E0,1.6423417E0,1.8614799E0,1.0328895E0,1.6264877E0,2.0743614E-1,9.5760435E-1,1.5177124E0,-1.7825129E0,4.808231E-1,1.0356119E0,-5.002856E-1,-7.428332E-1,1.7518613E0,-1.5557434E-1,3.6954856E-1,1.8711295E0,-1.7431283E-1,9.4788504E-1,1.2412043E0,6.3844013E-1,-1.5295452E-1,-1.7500511E-1,1.9755187E0,1.487024E0,-9.275893E-2,2.8410465E-1,-8.363695E-1,-1.051834E0,-1.0966047E0,-1.2816385E0,-1.4503841E0,-1.8973256E0,-4.0414444E-1,1.5651287E-1,-7.985184E-2,-6.998054E-1,1.4180838E-1,-5.009105E-1,-3.512804E-1,-1.5151968E0,-1.2979258E0,-1.8846838E0,-1.7159267E-1,-1.5544255E0,7.8050576E-2,3.1444606E-1,-1.3611426E0,1.4150987E0,-1.3388893E-1,5.1093286E-1,-3.2328287E-1,-1.925798E0,-1.6835983E0,-2.6702273E-1,-1.5432855E0,-7.777561E-1,-1.0187656E0,9.632831E-2,-9.107477E-2,9.418274E-1,-8.9514565E-1,-2.2748414E-1,2.346106E-1,-5.7620198E-2,1.7124625E0,7.451823E-1,-1.6020993E0,-9.0335006E-1,-1.9156786E0,-7.129492E-1,-1.7968085E0,-1.9465313E0,-1.9572479E0,-1.7541209E-1,1.238454E0,-1.1847376E0,-6.69219E-1,5.8259904E-1,-1.1241301E0,-1.798004E0,1.8270594E0,1.9535029E0,1.5430372E0,1.7299526E0,1.6804358E0,1.9085736E0,1.524811E0,8.8692594E-1,1.209073E0,1.7733108E0,7.235677E-2,6.856651E-2,3.1226E-1,1.2747844E0,1.6650213E0,1.1946114E0,-1.9112039E0,-1.7633185E-2,1.3739593E-1,5.215723E-1,1.5316571E0,9.1288376E-1,-3.305733E-1,-1.5048012E0,-1.8993391E0,-2.7290523E-1,1.6785638E-1,1.1925981E0,-4.041788E-1,-1.0110373E-1,7.9313296E-1,1.2296169E-1,1.9182796E0,7.967448E-2,-1.6089672E-1,1.4463567E0,1.4272591E0,4.8974317E-1,-1.2571343E0,1.0890211E0,1.746346E-1,1.6297184E-1,9.40308E-2,1.60191E-1,3.255985E-1,-1.4447831E0,-4.1203535E-1,3.1842896E-1,-6.1156448E-2,-7.819774E-2,-7.635185E-2,-9.901444E-2,-9.928404E-2,-6.3275605E-2,-1.3553287E-1,-1.0802371E-1,-1.4681612E-1,-7.750862E-2,-1.72636E-1,-1.5305609E-1,3.899235E-2,-1.2261743E-1,-8.595105E-3,8.448926E-2,-3.03881E-3,-1.1608428E-1,7.048357E-2,-2.8456459E-2,-3.5383515E-2,-6.0454227E-2,3.7008617E-3,-1.2725945E-1,-1.6058435E-1,-8.640169E-2,-6.659874E-2,-1.5243834E-1,-1.6863619E-1,-1.3015725E-1,-2.149862E-5,-1.7033188E-2,-9.0370215E-2,-1.5834445E-1,3.5763646E-3,5.413983E-2,7.363149E-2,2.5276031E-2,-3.5085496E-2,-1.7271142E-1,8.481191E-2,1.3678952E-1,8.534601E-2,1.4294276E-2,2.1121433E-2,-1.7355542E-1,-1.7238042E-1,-2.3847945E-2,-1.6343278E-1,-1.3156724E-1,-4.6332788E-2,2.6713626E-2,-1.3963749E-1,-1.1899316E-1,-7.972483E-3,-8.146353E-2,-7.303351E-2,-1.1481473E-1,3.0217288E-4,-3.2576744E-2,9.7235285E-2,6.227494E-2,-1.0880495E-1,-2.0453036E-2,-8.4944665E-2,-1.8325087E-2,2.6310988E-2,-2.8102197E-2,1.1993201E-1,1.5649739E-1,9.361044E-3,1.1627349E-1,-9.396468E-2,-1.5128352E-1,-1.2625568E-1,-5.394774E-2,-1.564535E-1,-1.7495932E-1,5.1565982E-2,-1.7271142E-1,-1.1772881E-1,-1.5922536E-1,-1.3964193E-1,-1.7167962E-1,-1.6988273E-1,-1.7417087E-1,6.360601E-2,1.5082553E-1,-1.5409777E-1,-7.168559E-2,-2.834675E-2,-1.0113186E-1,3.6170052E-3,1.0005948E-1,-1.3022858E-2,-1.2364498E-1,-1.640341E-1,-1.1703502E-1,1.6616823E-1,1.5361151E-1,1.670949E-1,1.7329724E-1,1.4651793E-1,1.2595925E-1,1.5935603E-1,1.406514E-1,1.5732186E-1,1.2870915E-1,1.6161907E-1,1.694727E-1,9.86884E-2,1.4574638E-1,3.5208568E-2,8.942638E-2,1.2377673E-1,6.901832E-2,1.4169626E-1,1.6080877E-1,6.6532835E-2,-8.982556E-3,7.9110205E-2,-2.8652322E-2,9.035692E-2,1.3338748E-1,1.583127E-1,1.3561594E-1,-7.074408E-2,1.3383344E-1,-1.2237088E-1,-1.7532805E-1,1.1005018E-2,1.5794381E-1,4.493529E-2,1.5740873E-1,1.4867514E-1,1.03701204E-1,-6.5093845E-2,1.0016655E-1,-1.5211988E-2,-4.2880107E-2,-2.1981513E-2,-1.5937132E-1,-1.747362E-1,-1.4217241E-1,1.5863651E-2,-1.4449538E-1,4.918604E-2,1.3800147E-1,-5.108901E-3,-1.3707724E-1,-6.4234175E-2,-5.759218E-3,2.6360797E-2,1.0410054E-1,-3.901835E-2,2.5961617E-2,1.4355172E-1,1.7157145E-1,1.3653785E-1,1.02618694E-1,1.7319684E-1,1.1952728E-1,1.2063551E-1,-2.7467346E-2,1.2212724E-1,-1.4644288E-1,3.0759271E-2,1.0939619E-1,4.672521E-2,-1.4627239E-1,6.1400022E-2,-1.398274E-1,6.553023E-2,-1.4399369E-1,2.301366E-2,5.648676E-2],"categories":[],"categories_nodes":[],"categories_segments":[],"categories_sizes":[],"default_left":[0,0,0,0,0,0,0,0,0,0,0,0,0,0,0,0,0,0,0,0,0,0,0,0,0,0,0,0,0,0,0,0,0,0,0,0,0,0,0,0,0,0,0,0,0,0,0,0,0,0,0,0,0,0,0,0,0,0,0,0,0,0,0,0,0,0,0,0,0,0,0,0,0,0,0,0,0,0,0,0,0,0,0,0,0,0,0,0,0,0,0,0,0,0,0,0,0,0,0,0,0,0,0,0,0,0,0,0,0,0,0,0,0,0,0,0,0,0,0,0,0,0,0,0,0,0,0,0,0,0,0,0,0,0,0,0,0,0,0,0,0,0,0,0,0,0,0,0,0,0,0,0,0,0,0,0,0,0,0,0,0,0,0,0,0,0,0,0,0,0,0,0,0,0,0,0,0,0,0,0,0,0,0,0,0,0,0,0,0,0,0,0,0,0,0,0,0,0,0,0,0,0,0,0,0,0,0,0,0,0,0,0,0,0,0,0,0,0,0,0,0,0,0,0,0,0,0,0,0,0,0,0,0,0,0,0,0,0,0,0,0,0,0,0,0,0,0,0,0,0,0,0,0,0,0,0,0,0,0,0,0,0,0,0,0,0,0,0,0,0,0,0,0,0,0,0,0,0,0,0,0,0,0,0,0,0,0,0,0,0,0,0,0,0,0,0,0,0,0,0,0,0,0,0,0,0,0,0,0,0,0,0,0,0,0,0,0,0,0,0,0,0,0,0,0,0,0,0,0,0,0,0,0,0,0,0,0,0,0,0,0,0,0,0,0,0,0,0,0,0,0,0,0,0,0,0,0,0,0,0,0,0,0,0,0,0,0,0,0,0,0,0,0,0,0,0,0,0,0,0,0,0,0,0,0,0,0,0,0,0,0,0,0,0,0,0,0],"id":0,"left_children":[1,3,5,7,9,11,13,15,17,19,21,23,25,27,29,31,33,35,37,39,41,43,45,47,49,51,-1,53,55,57,59,61,63,65,67,69,71,73,75,-1,77,79,81,83,85,87,89,91,93,95,97,99,101,103,105,107,109,111,113,115,117,119,121,123,-1,125,127,129,131,133,135,137,139,141,-1,143,145,147,149,151,153,155,157,159,161,163,165,167,-1,169,171,-1,173,175,177,179,181,183,185,187,189,191,193,195,197,199,201,203,205,-1,207,209,211,-1,-1,213,215,217,219,221,223,225,227,229,231,233,-1,235,237,239,241,243,245,247,249,251,253,255,257,259,261,-1,263,265,267,269,271,273,275,277,-1,279,281,283,285,287,-1,289,291,293,295,297,299,301,303,305,-1,307,309,311,313,315,317,319,321,323,325,327,329,331,333,335,337,-1,339,341,343,345,347,349,-1,351,353,355,357,359,361,363,365,-1,367,369,371,373,375,377,-1,-1,379,381,383,385,387,-1,-1,-1,-1,389,391,393,395,-1,-1,-1,-1,-1,-1,-1,-1,-1,-1,-1,-1,-1,-1,-1,-1,-1,-1,-1,-1,-1,-1,-1,-1,-1,-1,-1,-1,-1,-1,-1,-1,-1,-1,-1,-1,-1,-1,-1,-1,-1,-1,-1,-1,-1,-1,-1,-1,-1,-1,-1,-1,-1,-1,-1,-1,-1,-1,-1,-1,-1,-1,-1,-1,-1,-1,-1,-1,-1,-1,-1,-1,-1,-1,-1,-1,-1,-1,-1,-1,-1,-1,-1,-1,-1,-1,-1,-1,-1,-1,-1,-1,-1,-1,-1,-1,-1,-1,-1,-1,-1,-1,-1,-1,-1,-1,-1,-1,-1,-1,-1,-1,-1,-1,-1,-1,-1,-1,-1,-1,-1,-1,-1,-1,-1,-1,-1,-1,-1,-1,-1,-1,-1,-1,-1,-1,-1,-1,-1,-1,-1,-1,-1,-1,-1,-1,-1,-1,-1,-1,-1,-1,-1,-1,-1,-1,-1,-1,-1,-1,-1,-1,-1,-1,-1,-1,-1,-1,-1,-1,-1,-1,-1,-1,-1,-1],"loss_changes":[4.5878662E5,2.0626222E5,1.1391531E5,3.429432E4,2.6161844E4,4.4680875E4,1.7463205E4,1.7858152E4,7.674067E3,4.262201E3,1.7198125E3,1.5388125E3,2.9397203E4,2.5106125E3,1.1420631E4,1.7601406E3,2.7537246E3,7.73765E3,7.1142236E2,3.31125E2,1.716278E3,5.7734375E2,1.2736027E3,2.2357812E2,3.8053955E2,1.6964156E4,0E0,2.2415176E3,1.1635099E3,6.8251484E3,7.902631E3,7.756875E2,4.3458984E1,1.3642592E3,1.2993745E3,6.410041E3,1.6869019E3,2.61802E2,5.6089453E2,0E0,2.0338916E2,8.520416E1,7.146279E2,2.8290576E2,3.85125E2,3.536897E2,3.6570483E2,1.309375E1,8.18457E1,2.8251562E2,8.953639E1,4.971258E3,1.3008836E4,1.7899023E2,1.4386207E3,1.4234705E3,1.4397565E3,3.1193066E3,4.5898438E-2,2.715625E1,7.5840176E3,3.9779883E2,2.3436719E2,6.3047363E1,0E0,3.3588125E3,2.4479503E2,7.748657E2,5.013203E2,3.6294434E1,1.2038918E3,1.1738713E3,6.7071826E2,1.7024144E2,0E0,6.9792773E2,3.295466E2,1.4235205E2,1.4812524E2,1.2229294E2,1.2123056E2,3.0009611E1,1.0052881E2,1.5742554E2,1.4349512E2,2.0784375E2,3.084375E1,3.272189E2,0E0,8.554343E1,1.286084E2,0E0,1.2232422E1,2.0993652E1,4.00625E1,8.385315E1,1.5282666E2,2.6125898E1,6.802722E1,1.6950469E3,9.377515E1,1.3627637E3,4.5449844E3,1.4933428E3,2.5399656E3,3.303174E1,1.2337444E3,6.2516504E2,3.034961E1,0E0,3.8635974E2,2.0194668E3,1.80822E4,0E0,0E0,8.300781E-2,1.7231812E1,3.679996E4,7.1193633E3,1.2879297E2,2.3563477E2,2.3294336E2,1.4695898E2,6.3223877E1,6.2893066E0,1.2337056E3,0E0,3.4705258E2,2.727466E2,6.5059717E2,3.0644727E2,2.0693445E2,2.722661E2,2.7404068E1,2.8996582E1,2.585244E2,8.104004E1,9.151555E2,5.452722E2,5.3244522E1,9.024072E1,0E0,4.5986626E1,2.8571896E2,1.5147656E2,5.52594E0,7.02056E1,1.8811523E1,2.816185E1,5.7302612E1,0E0,1.7235712E1,4.5632553E0,6.456589E1,8.3161255E1,2.2744308E1,0E0,1.4746826E1,4.7897346E1,3.1095337E1,1.3528699E2,8.544922E0,1.8198932E2,1.5585156E2,4.30625E1,1.828125E1,0E0,2.2716858E1,2.5939606E1,3.262535E1,2.2718605E1,1.1404706E2,2.850879E1,3.4467773E0,1.2890625E-1,1.5111572E1,1.2663086E1,2.2487305E1,2.1621094E0,1.270166E1,5.8059082E1,5.4868774E1,1.420752E1,0E0,2.9584799E1,4.216617E1,1.1863495E1,4.0433594E2,7.3484834E3,1.5987061E1,0E0,2.0764714E2,1.1091641E3,8.344219E2,2.2516902E4,1.8586127E2,4.9111353E2,3.0851074E1,2.0691387E3,0E0,2.0801285E1,6.5513423E3,1.67375E3,4.2523682E2,3.705755E2,3.4641113E0,0E0,0E0,5.2534485E0,4.170996E2,2.0345067E3,4.4151084E3,1.975125E3,0E0,0E0,0E0,0E0,2.0407555E4,4.845508E3,1.9897305E4,5.2024434E3,0E0,0E0,0E0,0E0,0E0,0E0,0E0,0E0,0E0,0E0,0E0,0E0,0E0,0E0,0E0,0E0,0E0,0E0,0E0,0E0,0E0,0E0,0E0,0E0,0E0,0E0,0E0,0E0,0E0,0E0,0E0,0E0,0E0,0E0,0E0,0E0,0E0,0E0,0E0,0E0,0E0,0E0,0E0,0E0,0E0,0E0,0E0,0E0,0E0,0E0,0E0,0E0,0E0,0E0,0E0,0E0,0E0,0E0,0E0,0E0,0E0,0E0,0E0,0E0,0E0,0E0,0E0,0E0,0E0,0E0,0E0,0E0,0E0,0E0,0E0,0E0,0E0,0E0,0E0,0E0,0E0,0E0,0E0,0E0,0E0,0E0,0E0,0E0,0E0,0E0,0E0,0E0,0E0,0E0,0E0,0E0,0E0,0E0,0E0,0E0,0E0,0E0,0E0,0E0,0E0,0E0,0E0,0E0,0E0,0E0,0E0,0E0,0E0,0E0,0E0,0E0,0E0,0E0,0E0,0E0,0E0,0E0,0E0,0E0,0E0,0E0,0E0,0E0,0E0,0E0,0E0,0E0,0E0,0E0,0E0,0E0,0E0,0E0,0E0,0E0,0E0,0E0,0E0,0E0,0E0,0E0,0E0,0E0,0E0,0E0,0E0,0E0,0E0,0E0,0E0,0E0,0E0,0E0,0E0,0E0,0E0,0E0,0E0,0E0,0E0,0E0,0E0,0E0,0E0,0E0,0E0,0E0,0E0,0E0,0E0,0E0],"parents":[2147483647,0,0,1,1,2,2,3,3,4,4,5,5,6,6,7,7,8,8,9,9,10,10,11,11,12,12,13,13,14,14,15,15,16,16,17,17,18,18,19,19,20,20,21,21,22,22,23,23,24,24,25,25,27,27,28,28,29,29,30,30,31,31,32,32,33,33,34,34,35,35,36,36,37,37,38,38,40,40,41,41,42,42,43,43,44,44,45,45,46,46,47,47,48,48,49,49,50,50,51,51,52,52,53,53,54,54,55,55,56,56,57,57,58,58,59,59,60,60,61,61,62,62,63,63,65,65,66,66,67,67,68,68,69,69,70,70,71,71,72,72,73,73,75,75,76,76,77,77,78,78,79,79,80,80,81,81,82,82,83,83,84,84,85,85,86,86,87,87,89,89,90,90,92,92,93,93,94,94,95,95,96,96,97,97,98,98,99,99,100,100,101,101,102,102,103,103,104,104,105,105,106,106,107,107,108,108,110,110,111,111,112,112,115,115,116,116,117,117,118,118,119,119,120,120,121,121,122,122,123,123,124,124,125,125,127,127,128,128,129,129,130,130,131,131,132,132,133,133,134,134,135,135,136,136,137,137,138,138,139,139,140,140,142,142,143,143,144,144,145,145,146,146,147,147,148,148,149,149,151,151,152,152,153,153,154,154,155,155,157,157,158,158,159,159,160,160,161,161,162,162,163,163,164,164,165,165,167,167,168,168,169,169,170,170,171,171,172,172,173,173,174,174,175,175,176,176,177,177,178,178,179,179,180,180,181,181,182,182,184,184,185,185,186,186,187,187,188,188,189,189,191,191,192,192,193,193,194,194,195,195,196,196,197,197,198,198,200,200,201,201,202,202,203,203,204,204,205,205,208,208,209,209,210,210,211,211,212,212,217,217,218,218,219,219,220,220],"right_children":[2,4,6,8,10,12,14,16,18,20,22,24,26,28,30,32,34,36,38,40,42,44,46,48,50,52,-1,54,56,58,60,62,64,66,68,70,72,74,76,-1,78,80,82,84,86,88,90,92,94,96,98,100,102,104,106,108,110,112,114,116,118,120,122,124,-1,126,128,130,132,134,136,138,140,142,-1,144,146,148,150,152,154,156,158,160,162,164,166,168,-1,170,172,-1,174,176,178,180,182,184,186,188,190,192,194,196,198,200,202,204,206,-1,208,210,212,-1,-1,214,216,218,220,222,224,226,228,230,232,234,-1,236,238,240,242,244,246,248,250,252,254,256,258,260,262,-1,264,266,268,270,272,274,276,278,-1,280,282,284,286,288,-1,290,292,294,296,298,300,302,304,306,-1,308,310,312,314,316,318,320,322,324,326,328,330,332,334,336,338,-1,340,342,344,346,348,350,-1,352,354,356,358,360,362,364,366,-1,368,370,372,374,376,378,-1,-1,380,382,384,386,388,-1,-1,-1,-1,390,392,394,396,-1,-1,-1,-1,-1,-1,-1,-1,-1,-1,-1,-1,-1,-1,-1,-1,-1,-1,-1,-1,-1,-1,-1,-1,-1,-1,-1,-1,-1,-1,-1,-1,-1,-1,-1,-1,-1,-1,-1,-1,-1,-1,-1,-1,-1,-1,-1,-1,-1,-1,-1,-1,-1,-1,-1,-1,-1,-1,-1,-1,-1,-1,-1,-1,-1,-1,-1,-1,-1,-1,-1,-1,-1,-1,-1,-1,-1,-1,-1,-1,-1,-1,-1,-1,-1,-1,-1,-1,-1,-1,-1,-1,-1,-1,-1,-1,-1,-1,-1,-1,-1,-1,-1,-1,-1,-1,-1,-1,-1,-1,-1,-1,-1,-1,-1,-1,-1,-1,-1,-1,-1,-1,-1,-1,-1,-1,-1,-1,-1,-1,-1,-1,-1,-1,-1,-1,-1,-1,-1,-1,-1,-1,-1,-1,-1,-1,-1,-1,-1,-1,-1,-1,-1,-1,-1,-1,-1,-1,-1,-1,-1,-1,-1,-1,-1,-1,-1,-1,-1,-1,-1,-1,-1,-1,-1,-1],"split_conditions":[1E0,1.4941251E-1,6.8197234E4,5.2443285E4,4E0,3E0,1.6666667E-1,7E0,1.8471016E-1,1.6495271E4,2E0,1.592E3,5.83883E5,1.5863397E5,2.014E3,3E0,2.5110656E-1,9E0,2.012E3,3E0,1.8E1,1.3616515E-3,4.9603573E-6,1.95E2,1.3071E4,6.218196E3,-1.7563686E-1,1.1111111E-1,8.072E4,1.17861E5,3E0,2.5146422E-1,1.8471016E-1,2.3732889E-3,2.075239E-1,1.3464919E-1,1.5119745E-1,7.500252E-1,4.5833334E-1,9.6670404E-2,6.892521E3,2.5E-1,2.014E3,1.796E3,2.39E2,4.4900657E-6,2.3056403E-2,7.5E1,2.5076157E-1,2.5099885E-1,6E0,8.072E4,2.013E3,9.9445E4,2.015E3,2.015E3,2.3043515E-1,3.45E2,1.1473788E-2,5.458E3,9.49E2,1.0082936E0,1.0082936E0,6E0,-1.7567551E-1,1.7644898E-3,2.075239E-1,2E0,1E0,2.011E3,3E0,2.016E3,8.955274E-6,3E0,-1.668148E-1,1.09629844E-4,7E0,1E0,6.2465754E0,2E0,2.015E3,8.25E2,1.42E2,2.0524578E4,7E0,1.8471016E-1,6.261E3,2.0547945E-2,1.5956984E-1,4.2E1,2E0,1.742389E-1,3E0,5E0,3E0,1.848307E3,4E0,1.28E3,2.5054803E-1,1.166E3,5.004156E-1,1.4285715E-1,6.69E2,3.0706182E-1,1.278765E-4,1.344E3,9.49E2,2.012E3,1.1051E4,-1.7431283E-1,5E0,1.3493463E-1,1.57E2,-1.5295452E-1,-1.7500511E-1,7.14E2,3E0,1.6291386E-1,2.1936105E-6,1.446923E3,6E0,2E0,1.1428572E0,1.3464919E-1,1.3464919E-1,6.922979E-6,1.5651287E-1,5E-1,8.78226E3,5.616205E3,1.0082936E0,6.6666687E-1,3.405328E-1,3E0,1.5E1,2.016E3,7E0,1.5863397E5,2.0321648E-5,1.5092052E-6,2.21773E-5,-1.3388893E-1,2.5000462E-1,3.405328E-1,1E0,3.11069E6,2.017E3,4.465152E3,2.017E3,4.96E2,9.632831E-2,4.37E2,2.018E3,2.9150712E-1,2.0524578E4,1.4301314E5,-5.7620198E-2,2.015E3,1.8E1,1.1E1,2.01E3,9.2474246E-1,8E0,2E0,2.3786776E-1,1.3493463E-1,-1.7541209E-1,4.8E1,3E0,1.0215795E-2,4E0,2.5000763E-1,5E-1,1.0082936E0,2.5058836E-1,1.0082936E0,6.27E2,1.0082936E0,2.5201675E-1,2.018E3,2.018E3,1.0082936E0,9E0,7.235677E-2,2.5000006E-1,2.5000006E-1,1.6E1,4.5833334E-1,1.23E2,2.8738867E-2,-1.7633185E-2,1.3065915E4,1.3065915E4,1.5119745E-1,4.06E2,1.278765E-4,2.474661E-4,2.8750024E-5,1.2543193E-1,1.6785638E-1,8.5E1,1.6291386E-1,2.1936105E-6,5.7E1,5.2E1,7E0,7.967448E-2,-1.6089672E-1,2.0138547E5,1.72442E5,1.8683811E5,1.72442E5,7.173493E-2,1.746346E-1,1.6297184E-1,9.40308E-2,1.60191E-1,7.178E3,2E0,1.3071E4,2E-1,-6.1156448E-2,-7.819774E-2,-7.635185E-2,-9.901444E-2,-9.928404E-2,-6.3275605E-2,-1.3553287E-1,-1.0802371E-1,-1.4681612E-1,-7.750862E-2,-1.72636E-1,-1.5305609E-1,3.899235E-2,-1.2261743E-1,-8.595105E-3,8.448926E-2,-3.03881E-3,-1.1608428E-1,7.048357E-2,-2.8456459E-2,-3.5383515E-2,-6.0454227E-2,3.7008617E-3,-1.2725945E-1,-1.6058435E-1,-8.640169E-2,-6.659874E-2,-1.5243834E-1,-1.6863619E-1,-1.3015725E-1,-2.149862E-5,-1.7033188E-2,-9.0370215E-2,-1.5834445E-1,3.5763646E-3,5.413983E-2,7.363149E-2,2.5276031E-2,-3.5085496E-2,-1.7271142E-1,8.481191E-2,1.3678952E-1,8.534601E-2,1.4294276E-2,2.1121433E-2,-1.7355542E-1,-1.7238042E-1,-2.3847945E-2,-1.6343278E-1,-1.3156724E-1,-4.6332788E-2,2.6713626E-2,-1.3963749E-1,-1.1899316E-1,-7.972483E-3,-8.146353E-2,-7.303351E-2,-1.1481473E-1,3.0217288E-4,-3.2576744E-2,9.7235285E-2,6.227494E-2,-1.0880495E-1,-2.0453036E-2,-8.4944665E-2,-1.8325087E-2,2.6310988E-2,-2.8102197E-2,1.1993201E-1,1.5649739E-1,9.361044E-3,1.1627349E-1,-9.396468E-2,-1.5128352E-1,-1.2625568E-1,-5.394774E-2,-1.564535E-1,-1.7495932E-1,5.1565982E-2,-1.7271142E-1,-1.1772881E-1,-1.5922536E-1,-1.3964193E-1,-1.7167962E-1,-1.6988273E-1,-1.7417087E-1,6.360601E-2,1.5082553E-1,-1.5409777E-1,-7.168559E-2,-2.834675E-2,-1.0113186E-1,3.6170052E-3,1.0005948E-1,-1.3022858E-2,-1.2364498E-1,-1.640341E-1,-1.1703502E-1,1.6616823E-1,1.5361151E-1,1.670949E-1,1.7329724E-1,1.4651793E-1,1.2595925E-1,1.5935603E-1,1.406514E-1,1.5732186E-1,1.2870915E-1,1.6161907E-1,1.694727E-1,9.86884E-2,1.4574638E-1,3.5208568E-2,8.942638E-2,1.2377673E-1,6.901832E-2,1.4169626E-1,1.6080877E-1,6.6532835E-2,-8.982556E-3,7.9110205E-2,-2.8652322E-2,9.035692E-2,1.3338748E-1,1.583127E-1,1.3561594E-1,-7.074408E-2,1.3383344E-1,-1.2237088E-1,-1.7532805E-1,1.1005018E-2,1.5794381E-1,4.493529E-2,1.5740873E-1,1.4867514E-1,1.03701204E-1,-6.5093845E-2,1.0016655E-1,-1.5211988E-2,-4.2880107E-2,-2.1981513E-2,-1.5937132E-1,-1.747362E-1,-1.4217241E-1,1.5863651E-2,-1.4449538E-1,4.918604E-2,1.3800147E-1,-5.108901E-3,-1.3707724E-1,-6.4234175E-2,-5.759218E-3,2.6360797E-2,1.0410054E-1,-3.901835E-2,2.5961617E-2,1.4355172E-1,1.7157145E-1,1.3653785E-1,1.02618694E-1,1.7319684E-1,1.1952728E-1,1.2063551E-1,-2.7467346E-2,1.2212724E-1,-1.4644288E-1,3.0759271E-2,1.0939619E-1,4.672521E-2,-1.4627239E-1,6.1400022E-2,-1.398274E-1,6.553023E-2,-1.4399369E-1,2.301366E-2,5.648676E-2],"split_indices":[42,49,55,55,5,5,53,39,57,55,39,34,34,55,0,5,28,39,0,30,13,57,28,34,34,55,0,53,34,34,5,28,57,28,57,57,57,28,57,0,55,28,0,34,34,28,57,34,28,28,45,34,0,34,0,0,57,34,57,34,45,56,56,34,0,28,57,11,11,0,5,0,28,39,0,28,39,44,56,10,0,16,34,55,11,57,34,57,0,34,11,0,45,45,45,55,45,55,28,34,28,53,34,57,28,34,45,0,34,0,11,57,45,0,0,34,45,57,28,55,34,10,56,57,57,28,0,26,55,55,56,28,57,34,9,0,34,55,28,28,28,0,28,57,26,23,0,55,0,34,0,34,0,28,55,55,0,0,9,34,0,49,11,34,49,57,0,11,11,57,39,28,26,56,28,56,34,56,28,0,0,56,45,0,28,28,45,57,45,57,0,55,55,57,45,28,28,28,28,0,45,57,28,45,45,45,0,0,55,55,55,55,57,0,0,0,0,34,11,34,53,0,0,0,0,0,0,0,0,0,0,0,0,0,0,0,0,0,0,0,0,0,0,0,0,0,0,0,0,0,0,0,0,0,0,0,0,0,0,0,0,0,0,0,0,0,0,0,0,0,0,0,0,0,0,0,0,0,0,0,0,0,0,0,0,0,0,0,0,0,0,0,0,0,0,0,0,0,0,0,0,0,0,0,0,0,0,0,0,0,0,0,0,0,0,0,0,0,0,0,0,0,0,0,0,0,0,0,0,0,0,0,0,0,0,0,0,0,0,0,0,0,0,0,0,0,0,0,0,0,0,0,0,0,0,0,0,0,0,0,0,0,0,0,0,0,0,0,0,0,0,0,0,0,0,0,0,0,0,0,0,0,0,0,0,0,0,0,0,0,0,0,0,0,0,0,0],"split_type":[0,0,0,0,0,0,0,0,0,0,0,0,0,0,0,0,0,0,0,0,0,0,0,0,0,0,0,0,0,0,0,0,0,0,0,0,0,0,0,0,0,0,0,0,0,0,0,0,0,0,0,0,0,0,0,0,0,0,0,0,0,0,0,0,0,0,0,0,0,0,0,0,0,0,0,0,0,0,0,0,0,0,0,0,0,0,0,0,0,0,0,0,0,0,0,0,0,0,0,0,0,0,0,0,0,0,0,0,0,0,0,0,0,0,0,0,0,0,0,0,0,0,0,0,0,0,0,0,0,0,0,0,0,0,0,0,0,0,0,0,0,0,0,0,0,0,0,0,0,0,0,0,0,0,0,0,0,0,0,0,0,0,0,0,0,0,0,0,0,0,0,0,0,0,0,0,0,0,0,0,0,0,0,0,0,0,0,0,0,0,0,0,0,0,0,0,0,0,0,0,0,0,0,0,0,0,0,0,0,0,0,0,0,0,0,0,0,0,0,0,0,0,0,0,0,0,0,0,0,0,0,0,0,0,0,0,0,0,0,0,0,0,0,0,0,0,0,0,0,0,0,0,0,0,0,0,0,0,0,0,0,0,0,0,0,0,0,0,0,0,0,0,0,0,0,0,0,0,0,0,0,0,0,0,0,0,0,0,0,0,0,0,0,0,0,0,0,0,0,0,0,0,0,0,0,0,0,0,0,0,0,0,0,0,0,0,0,0,0,0,0,0,0,0,0,0,0,0,0,0,0,0,0,0,0,0,0,0,0,0,0,0,0,0,0,0,0,0,0,0,0,0,0,0,0,0,0,0,0,0,0,0,0,0,0,0,0,0,0,0,0,0,0,0,0,0,0,0,0,0,0,0,0,0,0,0,0,0,0,0,0,0,0,0,0,0,0],"sum_hessian":[1.1907971E6,4.1760312E5,7.7319394E5,2.7009638E5,1.4750677E5,2.5874658E5,5.1444734E5,1.0945913E5,1.6063725E5,1.2398093E4,1.3510867E5,4.6891535E4,2.1185505E5,1.12329914E5,4.0211744E5,6.654575E4,4.2913383E4,1.5669377E5,3.943474E3,3.8418513E3,8.556241E3,1.3308795E5,2.0207128E3,4.254E4,4.351535E3,2.081775E5,3.677554E3,1.0494078E5,7.3891294E3,3.6471254E4,3.656462E5,6.379724E4,2.7485127E3,2.198429E4,2.0929096E4,7.0636484E4,8.605728E4,4.0322208E2,3.540252E3,5.6895473E1,3.784956E3,7.0442695E3,1.5119713E3,2.6853013E3,1.3040266E5,3.7845383E2,1.642259E3,3.4747266E4,7.792734E3,3.7133071E3,6.382282E2,3.6115824E4,1.7206167E5,1.3435146E4,9.150563E4,6.690127E3,6.9900244E2,3.561628E4,8.549726E2,2.6451104E3,3.630011E5,3.434931E4,2.944793E4,1.4362633E3,1.3122494E3,2.8149983E3,1.9169291E4,1.8804148E4,2.124947E3,2.3746785E3,6.8261805E4,8.453032E4,1.5269618E3,3.3366635E2,6.955572E1,2.8184692E3,7.217829E2,2.6715242E3,1.1134318E3,7.8886664E2,6.2554033E3,6.6755396E2,8.4441736E2,1.3949873E3,1.2903138E3,3.847582E4,9.192683E4,2.257099E2,1.5274393E2,2.7110013E2,1.3711588E3,2.9491668E4,5.2555986E3,2.7187566E3,5.0739775E3,1.1856613E3,2.5276458E3,3.0494162E2,3.332866E2,3.5654266E4,4.6155902E2,9.7383375E4,7.46783E4,8.761624E3,4.6735225E3,3.9613858E2,9.11095E4,5.98522E3,7.049069E2,4.2305554E2,2.7594687E2,1.4448071E4,2.1168209E4,6.691722E1,7.8805536E2,2.509287E3,1.3582318E2,6.505837E4,2.9794272E5,1.7153541E4,1.7195766E4,1.847389E4,1.0974039E4,5.1451025E2,9.2175305E2,1.4652253E3,1.349773E3,1.8510648E4,6.586427E2,2.1128342E3,1.6691314E4,4.7816803E2,1.6467789E3,1.20641945E2,2.2540364E3,6.76273E4,6.345102E2,4.553542E4,3.89949E4,9.1863205E1,1.4350986E3,4.6972977E1,2.8669336E2,3.0521335E2,2.5132559E3,2.5183614E2,4.6994678E2,2.3977063E3,2.7381787E2,1.0800668E3,3.3364986E1,6.507682E2,1.3809843E2,2.8409488E2,5.971308E3,6.2824646E2,3.930748E1,7.153764E2,1.2904094E2,5.14174E2,8.8081335E2,1.1803087E3,1.10005196E2,2.1965934E4,1.6509887E4,3.720699E4,5.4719844E4,9.6344955E1,1.2936494E2,1.9653741E2,7.456271E1,4.1209656E2,9.590623E2,1.333773E3,3.9218257E3,1.2830576E3,1.4356989E3,1.0549775E3,4.019E3,2.691464E2,9.1651483E2,6.601342E2,1.8675117E3,5.5172474E1,2.4976913E2,1.104817E2,2.228049E2,2.4486275E4,1.116799E4,4.2664005E2,3.4918983E1,1.0329817E4,8.7053555E4,1.4809497E4,5.98688E4,7.496435E3,1.2651895E3,1.3494489E3,3.3240735E3,3.0657236E2,8.956621E1,1.6373633E4,7.473587E4,2.2014226E3,3.7837976E3,6.710977E2,3.3809235E1,4.155573E1,2.3439114E2,1.1580057E4,2.8680146E3,4.0650273E3,1.7103182E4,2.2592234E3,2.5006364E2,6.256272E1,7.326047E1,4.968506E4,1.5373312E4,1.3999738E4,2.8394297E5,4.7625903E3,1.2390951E4,5.0244595E3,1.2171307E4,1.6956652E4,1.5172383E3,1.8146134E3,9.159426E3,3.6903207E2,1.4547818E2,6.327227E2,2.8903036E2,7.9012714E2,6.750982E2,1.8197225E4,3.1342337E2,3.1868985E2,3.3995285E2,8.7339636E2,1.2394379E3,1.0955425E4,5.7358887E3,3.5269333E2,1.2547469E2,1.035145E3,6.11634E2,5.5224724E1,6.541722E1,2.070283E3,1.8375342E2,7.79091E3,5.9836387E4,2.0511841E2,4.2939178E2,4.258266E4,2.9527585E3,1.8905602E3,3.710434E4,3.611323E1,5.5749973E1,3.464826E2,1.088616E3,1.2265244E2,1.6404092E2,2.282134E2,7.699996E1,2.4587524E3,5.4503475E1,1.2441719E2,1.2741894E2,3.228231E2,1.4712369E2,1.9191674E3,4.7853903E2,4.925348E1,2.2456439E2,6.5694495E2,4.231218E2,4.8717502E2,1.6359317E2,7.862022E1,5.947822E1,1.8650516E2,9.758971E1,1.4736668E2,5.8239414E3,5.6282574E2,6.542072E1,1.221542E2,5.932222E2,6.1893723E1,6.714722E1,9.644771E1,4.177263E2,3.080896E2,5.7272375E2,4.347533E2,7.455554E2,5.4255226E1,5.5749973E1,7.366844E2,2.122925E4,3.5906082E2,1.6150826E4,1.9459734E4,1.7747254E4,4.764373E1,4.870123E1,4.9361477E1,8.000346E1,1.153127E2,8.122471E1,3.833623E1,3.6226482E1,9.308971E1,3.1900684E2,8.3217035E2,1.2689194E2,7.1863165E2,6.1514124E2,1.0980203E3,2.8238054E3,5.916917E2,6.9136597E2,8.6056635E2,5.751325E2,6.9229193E2,3.6268558E2,9.499688E2,3.069031E3,6.984147E1,1.9930492E2,1.9551741E2,7.2099744E2,4.467788E2,2.1335541E2,4.9953928E2,1.3679724E3,4.894948E1,2.0081966E2,5.7283974E1,5.3197723E1,1.1342945E2,1.0937545E2,1.1479314E4,1.3006961E4,1.577125E3,9.590865E3,6.239022E1,3.6424982E2,1.0256058E4,7.376047E1,8.637246E4,6.8109595E2,1.0154642E4,4.654855E3,7.236086E3,5.2632715E4,3.751198E3,3.745237E3,2.5068288E2,1.01450653E3,1.017861E3,3.3158783E2,2.498952E3,8.251216E2,3.4447735E1,5.5118477E1,1.2603156E4,3.7704768E3,3.9893257E3,7.074654E4,9.7572205E2,1.2257004E3,8.8241187E2,2.9013857E3,7.8566216E1,5.925315E2,1.6554968E2,6.884147E1,1.258908E3,1.0321148E4,1.3646709E3,1.5033438E3,5.447352E2,3.520292E3,2.9872324E3,1.411595E4,4.5020086E4,4.6649727E3,9.8618207E2,1.4387129E4,7.2029834E3,6.796755E3,2.418833E5,4.2059676E4],"tree_param":{"num_deleted":"0","num_feature":"58","num_nodes":"397","size_leaf_vector":"1"}},{"base_weights":[6.237723E-4,-7.738336E-1,4.9383476E-1,-2.3961902E-1,-1.5837904E0,1.0311066E0,2.3998325E-1,-2.900115E-1,1.4406127E0,-1.5823813E-1,-1.7020229E0,1.8080829E0,8.834267E-1,1.6947941E-1,8.26439E-1,-6.857325E-1,-2.2216192E-2,1.4777123E0,-1.2309409E0,-3.5909563E-1,1.3815598E0,-1.7483553E0,-1.2195953E0,1.748792E0,1.605438E-1,1.5041717E0,7.5481206E-1,2.6001188E-1,-1.35394E-1,-2.5218362E-1,9.142723E-1,-2.2483058E-1,-9.82408E-1,-2.4061023E-1,1.55178E-1,9.048821E-1,1.5604988E0,-1.6868645E0,-2.3595072E-2,-1.1314646E0,6.7305863E-3,8.252908E-1,1.5056251E0,-1.7596104E0,-8.9837927E-1,2.0566715E-1,-1.3288553E0,1.7718524E0,1.6401883E0,7.5225633E-1,1.5656263E0,4.8034927E-1,1.1694632E0,-4.5341602E-1,2.8408548E-1,-9.088306E-1,-1.0884702E-1,8.610449E-2,-1.30015E0,1.4672995E0,8.0280596E-1,3.339834E-2,-4.328398E-1,-9.5169806E-1,-1.7117177E0,-1.7235552E-1,-1.7012215E0,-7.807072E-1,1.7442724E-1,1.1679567E0,3.713263E-1,1.6725801E0,1.4010181E0,-1.683604E-1,-1.1878855E-1,-1.2890363E0,-6.30566E-1,-4.0866363E-1,5.2488625E-1,1.7989548E-1,1.2159873E0,1.3645008E0,1.465135E-1,-1.781487E0,-1.6075425E0,5.823314E-1,-1.2385125E0,-7.578235E-1,7.891689E-1,-1.7543156E0,-1.0338869E0,1.8010684E0,1.739738E0,1.2310431E0,1.7180573E0,4.8302317E-1,1.362713E0,1.6185316E0,1.4198793E0,-1.0088332E0,5.125043E-1,1.9289494E-1,1.2441233E0,-1.1682719E0,6.093791E-1,1.3236687E0,2.7248E-1,-1.3197275E0,-3.0744798E-2,-5.81641E-2,-4.5195773E-1,-4.0222708E-2,1.6403355E-1,-7.678358E-1,-1.8185991E0,1.6483264E-1,1.4168886E0,5.0833267E-1,1.1745043E0,5.839271E-1,-6.116472E-2,-7.01302E-1,-2.2996137E-1,-8.6183184E-1,-1.0693328E0,-1.7253412E0,-6.4767465E-2,-1.5763152E0,-1.5210882E-1,-1.5108212E0,-1.7781656E0,6.346529E-1,-1.3078868E0,6.1868995E-1,1.5012702E-1,1.314331E0,7.7016056E-1,-6.896211E-2,5.0050753E-1,1.558026E0,1.7174916E0,1.1647398E0,1.5489378E0,-1.4191556E0,-9.4195855E-1,-8.007045E-1,1.9734658E-1,-6.185867E-1,-2.7485135E-1,3.7263253E-1,1.2164676E0,-3.91509E-2,7.5111106E-2,9.641344E-1,1.3959339E0,1.4659781E0,8.8007045E-1,-1.6987185E0,-1.8172177E0,-1.7613688E0,-9.406389E-1,-3.914506E-1,1.2651482E0,-1.2939063E0,9.3900815E-2,-2.2232938E-1,-1.6792122E0,-4.814112E-1,1.2082256E0,-1.0172943E0,-1.8333656E0,1.7260364E0,-1.1284089E0,1.4710249E-1,1.588585E-1,1.19262084E-1,1.7429041E0,1.6437554E0,6.974334E-1,1.6359332E0,1.5585172E-1,6.5951675E-1,-1.5704074E0,1.4788102E-2,1.4687709E0,1.6244656E0,9.374472E-1,1.2932608E0,1.642514E0,-1.3024791E0,3.2610142E-1,5.473619E-1,2.2172175E-1,1.0790223E0,-1.1240404E-1,1.4672668E0,1.0590197E0,-5.256587E-1,-1.5584645E0,1.4403644E0,1.7052542E-1,-1.3124348E-1,1.7211527E0,4.7653586E-1,2.4167497E-1,-7.863722E-1,-1.6450123E0,-6.324859E-1,3.099149E-1,2.8044065E-2,-1.6917823E-1,-3.424967E-1,-6.39361E-1,1.7850097E0,-1.2687446E-1,-4.0904558E-1,-1.8663301E0,-1.9137473E0,-8.446506E-2,1.0948578E0,1.4441978E0,4.688859E-2,5.435175E-1,1.1168592E0,1.6661978E-1,-3.7754115E-2,1.4407545E-1,-1.4391197E-1,-4.618015E-3,-2.4159942E-2,-7.702407E-2,-1.0727184E-2,-3.6230695E-2,-6.6548996E-2,-8.494365E-2,-1.08305156E-1,-8.5034646E-2,-1.3581277E-1,-1.5594417E-1,-1.4664617E-1,-1.0888214E-1,-9.364372E-3,-2.1645578E-2,-1.3871452E-1,-5.266726E-2,-1.0256892E-1,-1.5746836E-1,8.029534E-2,-6.611212E-2,-1.3964148E-1,-2.8172754E-2,4.1808315E-2,1.3633737E-1,-1.102599E-1,1.669844E-2,9.06852E-2,1.2816678E-1,1.7619243E-2,8.954545E-2,7.3043205E-2,1.5468976E-2,1.2830059E-1,1.4760794E-1,1.4357015E-1,1.5404195E-1,1.3876787E-1,9.365272E-2,1.3741645E-1,7.534985E-2,-1.3168435E-1,-6.765804E-2,-8.923226E-2,7.7690347E-3,-7.876622E-2,-8.594485E-3,1.03306174E-1,-5.1192106E-3,-7.015346E-2,-3.892718E-2,-2.0231584E-2,-5.5461146E-2,4.372726E-2,3.0888875E-3,1.1379974E-1,-2.1993371E-3,1.0514435E-1,5.523987E-2,1.3755041E-1,9.8780334E-2,1.451679E-1,1.22343905E-1,1.17620364E-1,5.7893287E-2,-1.5054883E-1,-1.2391978E-1,-1.5524405E-1,-1.6046625E-1,-1.2276083E-1,-1.5699622E-1,1.5045592E-1,-1.2581508E-1,-8.0064505E-2,9.8805465E-2,4.5445874E-2,1.5361677E-1,-1.4480907E-1,-9.243039E-2,3.95101E-3,-1.15059495E-1,-1.242522E-1,-1.6761878E-1,3.3161394E-2,-8.90549E-2,7.314234E-2,1.6538009E-1,-6.3253015E-2,-1.7550093E-1,-4.681824E-2,-1.637788E-1,1.5658276E-1,1.1487916E-1,-8.322796E-2,-1.4754379E-1,1.4953339E-1,1.5523548E-1,1.23255834E-1,1.5330905E-1,-1.940302E-2,1.0086525E-1,1.4633738E-1,1.03276245E-1,-3.0486418E-2,7.363342E-2,-1.5817574E-1,-1.0755741E-1,1.427923E-1,3.9150003E-2,1.4486325E-1,1.3280113E-1,-1.7221497E-1,1.4968115E-1,1.5179098E-1,1.1092567E-1,1.4132126E-1,1.5431604E-1,-1.2414398E-1,1.4084633E-1,7.1924075E-2,3.7140136E-3,-5.5185356E-3,4.8967905E-2,2.250997E-2,-1.7585132E-2,2.3594292E-2,1.16271675E-1,2.7586738E-2,-1.035475E-1,1.1218498E-1,1.4550191E-1,8.59762E-2,1.5217485E-1,-6.5700516E-2,1.0478725E-1,-1.5097594E-1,1.6496116E-2,-8.7516345E-2,1.3324763E-1,-4.1426316E-2,4.5408852E-2,-1.6657467E-1,6.909742E-2,-1.1341884E-1,1.5464765E-1,-8.0713496E-2,9.738028E-2,3.0393425E-2,9.0490645E-3,-8.589488E-2,9.731485E-2,-1.5999421E-1,-4.5061216E-2,6.5175086E-2,-9.4476715E-2,3.684731E-2,-6.9142826E-2,4.2213675E-2,-3.3077046E-2,-1.3560298E-1,2.2536227E-2,-1.1198893E-3,-5.315051E-2,-1.5088579E-1,-2.0104734E-2,1.3532531E-1,1.671015E-1,-9.599115E-2,8.1143165E-3,-9.1104925E-2,4.177929E-3,-1.3230135E-1,-1.7532216E-1,-1.7079E-1,-1.4371645E-1,1.3697085E-1,8.204774E-2,1.456418E-1,1.2526923E-1,6.0673833E-2,-2.437001E-2,5.12148E-2,2.1381048E-2,4.414747E-2,1.00117296E-1],"categories":[],"categories_nodes":[],"categories_segments":[],"categories_sizes":[],"default_left":[0,0,0,0,0,0,0,0,0,0,0,0,0,0,0,0,0,0,0,0,0,0,0,0,0,0,0,0,0,0,0,0,0,0,0,0,0,0,0,0,0,0,0,0,0,0,0,0,0,0,0,0,0,0,0,0,0,0,0,0,0,0,0,0,0,0,0,0,0,0,0,0,0,0,0,0,0,0,0,0,0,0,0,0,0,0,0,0,0,0,0,0,0,0,0,0,0,0,0,0,0,0,0,0,0,0,0,0,0,0,0,0,0,0,0,0,0,0,0,0,0,0,0,0,0,0,0,0,0,0,0,0,0,0,0,0,0,0,0,0,0,0,0,0,0,0,0,0,0,0,0,0,0,0,0,0,0,0,0,0,0,0,0,0,0,0,0,0,0,0,0,0,0,0,0,0,0,0,0,0,0,0,0,0,0,0,0,0,0,0,0,0,0,0,0,0,0,0,0,0,0,0,0,0,0,0,0,0,0,0,0,0,0,0,0,0,0,0,0,0,0,0,0,0,0,0,0,0,0,0,0,0,0,0,0,0,0,0,0,0,0,0,0,0,0,0,0,0,0,0,0,0,0,0,0,0,0,0,0,0,0,0,0,0,0,0,0,0,0,0,0,0,0,0,0,0,0,0,0,0,0,0,0,0,0,0,0,0,0,0,0,0,0,0,0,0,0,0,0,0,0,0,0,0,0,0,0,0,0,0,0,0,0,0,0,0,0,0,0,0,0,0,0,0,0,0,0,0,0,0,0,0,0,0,0,0,0,0,0,0,0,0,0,0,0,0,0,0,0,0,0,0,0,0,0,0,0,0,0,0,0,0,0,0,0,0,0,0,0,0,0,0,0,0,0,0,0,0,0,0,0,0,0,0,0,0,0,0,0,0,0,0,0,0,0,0,0,0,0,0,0,0,0,0,0,0,0,0,0,0,0,0,0],"id":1,"left_children":[1,3,5,7,9,11,13,15,17,19,21,23,25,27,29,31,33,35,37,39,41,43,45,47,-1,49,51,53,55,57,59,61,63,65,67,69,71,73,-1,75,77,79,81,83,85,87,89,91,93,95,97,99,101,103,105,107,109,111,113,115,117,119,121,123,125,127,129,131,133,135,137,139,141,-1,-1,143,145,147,149,151,153,155,-1,157,159,161,163,165,167,169,171,173,175,177,179,181,183,185,187,189,191,193,195,197,199,201,203,205,207,209,211,213,-1,215,217,-1,219,221,223,225,227,229,231,233,235,237,-1,239,241,243,245,247,249,251,253,255,257,-1,259,261,263,265,267,269,271,273,275,277,279,281,283,-1,-1,285,287,289,291,293,295,297,299,301,303,305,-1,307,309,311,313,315,317,319,321,-1,-1,-1,323,325,327,329,-1,331,333,-1,335,337,339,341,343,345,347,349,351,353,355,357,359,361,363,365,367,369,371,373,375,377,379,381,383,385,387,389,391,393,395,397,399,401,-1,403,405,407,409,411,-1,-1,-1,-1,-1,-1,-1,-1,-1,-1,-1,-1,-1,-1,-1,-1,-1,-1,-1,-1,-1,-1,-1,-1,-1,-1,-1,-1,-1,-1,-1,-1,-1,-1,-1,-1,-1,-1,-1,-1,-1,-1,-1,-1,-1,-1,-1,-1,-1,-1,-1,-1,-1,-1,-1,-1,-1,-1,-1,-1,-1,-1,-1,-1,-1,-1,-1,-1,-1,-1,-1,-1,-1,-1,-1,-1,-1,-1,-1,-1,-1,-1,-1,-1,-1,-1,-1,-1,-1,-1,-1,-1,-1,-1,-1,-1,-1,-1,-1,-1,-1,-1,-1,-1,-1,-1,-1,-1,-1,-1,-1,-1,-1,-1,-1,-1,-1,-1,-1,-1,-1,-1,-1,-1,-1,-1,-1,-1,-1,-1,-1,-1,-1,-1,-1,-1,-1,-1,-1,-1,-1,-1,-1,-1,-1,-1,-1,-1,-1,-1,-1,-1,-1,-1,-1,-1,-1,-1,-1,-1,-1,-1,-1,-1,-1,-1,-1,-1,-1,-1,-1,-1,-1,-1,-1,-1,-1,-1,-1,-1,-1,-1,-1,-1,-1,-1,-1,-1,-1],"loss_changes":[4.5391675E5,2.0005525E5,9.901719E4,2.3589824E4,3.0970625E4,2.6728578E4,2.0386092E4,2.8664328E4,8.058789E2,4.3533066E3,3.7905625E3,3.9851562E1,1.5627047E4,1.2148199E4,5.0131367E3,1.4927422E4,6.2498975E3,3.780547E2,4.853801E1,3.518011E3,1.1085205E2,1.4794062E3,2.3161133E3,2.0226562E1,0E0,1.5512578E3,1.8453812E4,5.8286035E3,2.069045E3,1.4128813E3,3.0149805E3,2.2964622E3,1.4859141E3,7.208064E3,1.6037781E3,1.4172693E2,1.22603516E2,3.2172394E0,0E0,3.1503857E2,1.818979E3,7.502573E1,2.8105957E1,5.0540625E2,1.0206924E3,5.9637665E2,1.7316426E3,4.0039062E0,4.985498E1,4.168556E2,2.3717969E2,4.672795E3,4.708578E3,8.417083E3,3.9603555E3,1.2064863E3,1.694294E3,6.7817126E2,2.670039E2,1.6658984E2,4.456787E3,9.9307513E2,1.2895317E3,6.7285547E2,3.4336426E1,1.9633477E3,4.4601562E1,1.339551E3,9.415437E2,3.845813E1,5.0574173E1,1.8416992E1,9.924219E1,0E0,0E0,1.3609912E2,1.353252E2,1.31591E2,3.9549683E2,4.8403465E1,7.0704346E0,3.3864136E1,0E0,3.91875E2,1.9706523E3,2.5248975E2,2.1192847E2,1.970965E2,3.5226483E2,3.2754297E2,2.1306064E3,6.455078E-1,2.0517578E0,5.706909E1,3.4023438E0,6.4048047E2,9.816748E1,9.053516E1,2.3126367E2,8.089812E2,9.6799023E2,1.2413342E3,2.476586E3,1.659956E3,1.6245774E3,2.0960713E3,2.0406973E3,3.9392114E2,2.1892201E2,8.1245654E2,2.570122E2,4.454372E2,0E0,1.8904346E2,3.8277954E1,0E0,6.2708008E1,3.6891406E2,7.473281E2,2.9946243E3,2.2056721E2,7.623125E2,2.6540027E2,3.954082E2,4.5624414E2,2.0913086E1,0E0,2.8713867E1,2.9219873E2,5.72688E1,1.8101074E1,1.8968634E2,3.6319507E2,6.019208E2,4.6449473E3,1.8654724E1,2.602021E1,0E0,3.236631E1,1.1441406E1,5.9384766E0,4.4031982E1,1.7530762E1,1.1352881E2,6.3454712E1,5.3610626E1,4.119244E1,5.729547E1,4.5368942E1,1.3020392E2,6.653912E1,0E0,0E0,5.540779E0,3.1318817E0,5.7578125E0,1.1933762E1,1.728125E2,4.103125E1,1.4440625E2,4.7056914E3,1.2478758E2,7.974399E1,1.3615942E2,0E0,7.3973114E1,6.207611E0,7.5616425E1,1.243197E2,1.5884271E2,2.0519531E2,4.060486E0,7.854043E2,0E0,0E0,0E0,5.625E-1,1.1733093E0,4.869788E1,5.87146E0,0E0,2.926842E2,8.943146E0,0E0,1.136875E2,6.017578E1,4.4561157E2,6.786621E1,8.724609E0,5.464536E2,5.2081738E1,5.245488E2,1.4901074E2,2.3270764E2,1.552531E3,9.760625E2,1.771168E3,9.572709E2,1.153168E3,2.885078E2,6.4902234E2,1.2627921E3,3.3946875E2,3.7554586E4,4.0802383E3,3.1471387E2,2.8133618E2,2.3585211E2,8.228787E1,8.748782E3,2.1714389E4,6.855318E2,2.0456875E3,7.284546E-1,5.693838E2,1.0452363E2,2.5123901E0,5.6030273E-1,0E0,4.153778E1,2.3780273E1,3.3656412E2,2.5016748E2,2.3351367E2,0E0,0E0,0E0,0E0,0E0,0E0,0E0,0E0,0E0,0E0,0E0,0E0,0E0,0E0,0E0,0E0,0E0,0E0,0E0,0E0,0E0,0E0,0E0,0E0,0E0,0E0,0E0,0E0,0E0,0E0,0E0,0E0,0E0,0E0,0E0,0E0,0E0,0E0,0E0,0E0,0E0,0E0,0E0,0E0,0E0,0E0,0E0,0E0,0E0,0E0,0E0,0E0,0E0,0E0,0E0,0E0,0E0,0E0,0E0,0E0,0E0,0E0,0E0,0E0,0E0,0E0,0E0,0E0,0E0,0E0,0E0,0E0,0E0,0E0,0E0,0E0,0E0,0E0,0E0,0E0,0E0,0E0,0E0,0E0,0E0,0E0,0E0,0E0,0E0,0E0,0E0,0E0,0E0,0E0,0E0,0E0,0E0,0E0,0E0,0E0,0E0,0E0,0E0,0E0,0E0,0E0,0E0,0E0,0E0,0E0,0E0,0E0,0E0,0E0,0E0,0E0,0E0,0E0,0E0,0E0,0E0,0E0,0E0,0E0,0E0,0E0,0E0,0E0,0E0,0E0,0E0,0E0,0E0,0E0,0E0,0E0,0E0,0E0,0E0,0E0,0E0,0E0,0E0,0E0,0E0,0E0,0E0,0E0,0E0,0E0,0E0,0E0,0E0,0E0,0E0,0E0,0E0,0E0,0E0,0E0,0E0,0E0,0E0,0E0,0E0,0E0,0E0,0E0,0E0,0E0,0E0,0E0,0E0,0E0,0E0,0E0,0E0,0E0,0E0,0E0,0E0,0E0,0E0,0E0,0E0,0E0,0E0,0E0,0E0],"parents":[2147483647,0,0,1,1,2,2,3,3,4,4,5,5,6,6,7,7,8,8,9,9,10,10,11,11,12,12,13,13,14,14,15,15,16,16,17,17,18,18,19,19,20,20,21,21,22,22,23,23,25,25,26,26,27,27,28,28,29,29,30,30,31,31,32,32,33,33,34,34,35,35,36,36,37,37,39,39,40,40,41,41,42,42,43,43,44,44,45,45,46,46,47,47,48,48,49,49,50,50,51,51,52,52,53,53,54,54,55,55,56,56,57,57,58,58,59,59,60,60,61,61,62,62,63,63,64,64,65,65,66,66,67,67,68,68,69,69,70,70,71,71,72,72,75,75,76,76,77,77,78,78,79,79,80,80,81,81,83,83,84,84,85,85,86,86,87,87,88,88,89,89,90,90,91,91,92,92,93,93,94,94,95,95,96,96,97,97,98,98,99,99,100,100,101,101,102,102,103,103,104,104,105,105,106,106,107,107,108,108,109,109,110,110,111,111,113,113,114,114,116,116,117,117,118,118,119,119,120,120,121,121,122,122,123,123,124,124,125,125,127,127,128,128,129,129,130,130,131,131,132,132,133,133,134,134,135,135,136,136,138,138,139,139,140,140,141,141,142,142,143,143,144,144,145,145,146,146,147,147,148,148,149,149,150,150,153,153,154,154,155,155,156,156,157,157,158,158,159,159,160,160,161,161,162,162,163,163,165,165,166,166,167,167,168,168,169,169,170,170,171,171,172,172,176,176,177,177,178,178,179,179,181,181,182,182,184,184,185,185,186,186,187,187,188,188,189,189,190,190,191,191,192,192,193,193,194,194,195,195,196,196,197,197,198,198,199,199,200,200,201,201,202,202,203,203,204,204,205,205,206,206,207,207,208,208,209,209,210,210,211,211,212,212,213,213,214,214,215,215,216,216,217,217,219,219,220,220,221,221,222,222,223,223],"right_children":[2,4,6,8,10,12,14,16,18,20,22,24,26,28,30,32,34,36,38,40,42,44,46,48,-1,50,52,54,56,58,60,62,64,66,68,70,72,74,-1,76,78,80,82,84,86,88,90,92,94,96,98,100,102,104,106,108,110,112,114,116,118,120,122,124,126,128,130,132,134,136,138,140,142,-1,-1,144,146,148,150,152,154,156,-1,158,160,162,164,166,168,170,172,174,176,178,180,182,184,186,188,190,192,194,196,198,200,202,204,206,208,210,212,214,-1,216,218,-1,220,222,224,226,228,230,232,234,236,238,-1,240,242,244,246,248,250,252,254,256,258,-1,260,262,264,266,268,270,272,274,276,278,280,282,284,-1,-1,286,288,290,292,294,296,298,300,302,304,306,-1,308,310,312,314,316,318,320,322,-1,-1,-1,324,326,328,330,-1,332,334,-1,336,338,340,342,344,346,348,350,352,354,356,358,360,362,364,366,368,370,372,374,376,378,380,382,384,386,388,390,392,394,396,398,400,402,-1,404,406,408,410,412,-1,-1,-1,-1,-1,-1,-1,-1,-1,-1,-1,-1,-1,-1,-1,-1,-1,-1,-1,-1,-1,-1,-1,-1,-1,-1,-1,-1,-1,-1,-1,-1,-1,-1,-1,-1,-1,-1,-1,-1,-1,-1,-1,-1,-1,-1,-1,-1,-1,-1,-1,-1,-1,-1,-1,-1,-1,-1,-1,-1,-1,-1,-1,-1,-1,-1,-1,-1,-1,-1,-1,-1,-1,-1,-1,-1,-1,-1,-1,-1,-1,-1,-1,-1,-1,-1,-1,-1,-1,-1,-1,-1,-1,-1,-1,-1,-1,-1,-1,-1,-1,-1,-1,-1,-1,-1,-1,-1,-1,-1,-1,-1,-1,-1,-1,-1,-1,-1,-1,-1,-1,-1,-1,-1,-1,-1,-1,-1,-1,-1,-1,-1,-1,-1,-1,-1,-1,-1,-1,-1,-1,-1,-1,-1,-1,-1,-1,-1,-1,-1,-1,-1,-1,-1,-1,-1,-1,-1,-1,-1,-1,-1,-1,-1,-1,-1,-1,-1,-1,-1,-1,-1,-1,-1,-1,-1,-1,-1,-1,-1,-1,-1,-1,-1,-1,-1,-1,-1,-1],"split_conditions":[1.8494055E-2,1.4941251E-1,6.8197234E4,1.13646696E-4,4E0,3E0,1.5863397E5,4.423705E4,3E0,1.8954718E-4,2.8533114E-3,1.2484014E-1,6.218196E3,7E0,1.4752187E-1,1E0,9E0,5.951495E-4,2.212928E3,1.8257652E4,1.023751E-3,2E0,9.61111E3,5.28E2,1.605438E-1,1.3801862E-1,1.3065915E4,3.0169302E-1,3.0169302E-1,5E0,1.8683811E5,2.5063863E-1,3E0,3E0,1.346E2,1.0082936E0,1.0082936E0,7.384145E-3,-2.3595072E-2,4.8944E3,4.285E3,2.5146422E-1,2.5216365E-1,1.0613841E-6,4.9603573E-6,1.8E1,7.5902493E-4,1.0082936E0,2.502914E-1,9.963619E-1,6.666667E-1,1.4752187E-1,1.1126337E-1,7.384145E-3,1.4941251E-1,2.5E-1,1E1,3.6821372E5,2.5020027E-1,1.72442E5,2.0555303E5,2.3732889E-3,1.0705966E3,2.5172386E-1,1.56558E5,3E0,6E0,9.712685E-6,2.8750024E-5,1.28E3,1.0833334E0,2.1786492E-3,4.3001813E-3,-1.683604E-1,-1.1878855E-1,6.892521E3,3.99E4,6.29E2,4E0,8.383896E-1,2.9E3,1.879E3,1.465135E-1,2.68E2,9.9287826E-1,4E0,1.27E2,5.000011E-1,1.848307E3,3.4443465E4,7.9069816E-4,2.1574972E-2,1.0144928E0,2.5E-1,2.5305563E-1,9.9404395E-1,7.373335E-5,5.9869E4,1.30625E2,9.088339E2,8E0,9.1436385E-5,3.4443465E4,1.8413994E-5,7.0478086E4,1.2543193E-1,6E0,1.8413994E-5,8.528565E2,5.2891E4,9.9037E4,1.72442E5,1.6403355E-1,5.808E3,6E0,1.6483264E-1,4.89752E-1,6E-1,3.6821372E5,1.7644898E-3,4.205978E-3,2E0,1.0082936E0,1.0082936E0,1.4752853E3,3E0,-6.4767465E-2,4.3E1,2E3,1.04778E5,3.9544526E-7,3E0,3.3335567E-1,2.4727326E-5,7.384145E-3,2.5058836E-1,2.5237328E-1,-6.896211E-2,9.7E2,2.5421745E-1,2.5083908E-1,2.1019578E3,5.808E3,2E0,2.8E0,2E0,9.1E1,1.62E2,2.6873687E-1,2.6416525E-1,4.37E2,-3.91509E-2,7.5111106E-2,9.088339E2,5.458E3,2E-1,2.5000006E-1,7.516895E4,1.054E3,2.399E3,9.933047E-1,1.8683811E5,4.4900657E-6,2.5E-1,9.3900815E-2,5E0,6.6666687E-1,5.0522812E2,1E1,1.002E3,1.910597E-7,2.6226E3,9.6429753E-1,1.4710249E-1,1.588585E-1,1.19262084E-1,2.5036794E-1,1.6748637E-1,2.50087E-1,9.048E3,1.5585172E-1,1.8085226E2,2E0,1.4788102E-2,2.5000337E-1,3.0391704E3,5E0,9.598603E1,6.7875824E2,1.073E3,9.61111E3,3.9795917E-1,9E0,2.7218516E4,8.286044E-1,9.348029E-1,4.423705E4,1.6572976E-5,2.284034E4,1.346E2,8.7993134E2,9.0652E2,1.41E2,9.777E4,5.5176E4,1.6572976E-5,1.0588122E4,2.5000462E-1,1.8015E4,1.1549873E-4,1.1549873E-4,1.1549873E-4,1.1549873E-4,2E0,1.1070407E-3,5.0252065E-2,6.0593325E-1,5.319E4,-8.446506E-2,1.66257E3,9.088339E2,2E0,8E0,3.1566828E-1,1.6661978E-1,-3.7754115E-2,1.4407545E-1,-1.4391197E-1,-4.618015E-3,-2.4159942E-2,-7.702407E-2,-1.0727184E-2,-3.6230695E-2,-6.6548996E-2,-8.494365E-2,-1.08305156E-1,-8.5034646E-2,-1.3581277E-1,-1.5594417E-1,-1.4664617E-1,-1.0888214E-1,-9.364372E-3,-2.1645578E-2,-1.3871452E-1,-5.266726E-2,-1.0256892E-1,-1.5746836E-1,8.029534E-2,-6.611212E-2,-1.3964148E-1,-2.8172754E-2,4.1808315E-2,1.3633737E-1,-1.102599E-1,1.669844E-2,9.06852E-2,1.2816678E-1,1.7619243E-2,8.954545E-2,7.3043205E-2,1.5468976E-2,1.2830059E-1,1.4760794E-1,1.4357015E-1,1.5404195E-1,1.3876787E-1,9.365272E-2,1.3741645E-1,7.534985E-2,-1.3168435E-1,-6.765804E-2,-8.923226E-2,7.7690347E-3,-7.876622E-2,-8.594485E-3,1.03306174E-1,-5.1192106E-3,-7.015346E-2,-3.892718E-2,-2.0231584E-2,-5.5461146E-2,4.372726E-2,3.0888875E-3,1.1379974E-1,-2.1993371E-3,1.0514435E-1,5.523987E-2,1.3755041E-1,9.8780334E-2,1.451679E-1,1.22343905E-1,1.17620364E-1,5.7893287E-2,-1.5054883E-1,-1.2391978E-1,-1.5524405E-1,-1.6046625E-1,-1.2276083E-1,-1.5699622E-1,1.5045592E-1,-1.2581508E-1,-8.0064505E-2,9.8805465E-2,4.5445874E-2,1.5361677E-1,-1.4480907E-1,-9.243039E-2,3.95101E-3,-1.15059495E-1,-1.242522E-1,-1.6761878E-1,3.3161394E-2,-8.90549E-2,7.314234E-2,1.6538009E-1,-6.3253015E-2,-1.7550093E-1,-4.681824E-2,-1.637788E-1,1.5658276E-1,1.1487916E-1,-8.322796E-2,-1.4754379E-1,1.4953339E-1,1.5523548E-1,1.23255834E-1,1.5330905E-1,-1.940302E-2,1.0086525E-1,1.4633738E-1,1.03276245E-1,-3.0486418E-2,7.363342E-2,-1.5817574E-1,-1.0755741E-1,1.427923E-1,3.9150003E-2,1.4486325E-1,1.3280113E-1,-1.7221497E-1,1.4968115E-1,1.5179098E-1,1.1092567E-1,1.4132126E-1,1.5431604E-1,-1.2414398E-1,1.4084633E-1,7.1924075E-2,3.7140136E-3,-5.5185356E-3,4.8967905E-2,2.250997E-2,-1.7585132E-2,2.3594292E-2,1.16271675E-1,2.7586738E-2,-1.035475E-1,1.1218498E-1,1.4550191E-1,8.59762E-2,1.5217485E-1,-6.5700516E-2,1.0478725E-1,-1.5097594E-1,1.6496116E-2,-8.7516345E-2,1.3324763E-1,-4.1426316E-2,4.5408852E-2,-1.6657467E-1,6.909742E-2,-1.1341884E-1,1.5464765E-1,-8.0713496E-2,9.738028E-2,3.0393425E-2,9.0490645E-3,-8.589488E-2,9.731485E-2,-1.5999421E-1,-4.5061216E-2,6.5175086E-2,-9.4476715E-2,3.684731E-2,-6.9142826E-2,4.2213675E-2,-3.3077046E-2,-1.3560298E-1,2.2536227E-2,-1.1198893E-3,-5.315051E-2,-1.5088579E-1,-2.0104734E-2,1.3532531E-1,1.671015E-1,-9.599115E-2,8.1143165E-3,-9.1104925E-2,4.177929E-3,-1.3230135E-1,-1.7532216E-1,-1.7079E-1,-1.4371645E-1,1.3697085E-1,8.204774E-2,1.456418E-1,1.2526923E-1,6.0673833E-2,-2.437001E-2,5.12148E-2,2.1381048E-2,4.414747E-2,1.00117296E-1],"split_indices":[48,49,55,48,5,5,55,55,5,48,48,48,55,52,48,34,39,48,19,55,48,39,55,34,0,48,55,48,48,11,55,28,5,5,19,56,56,28,0,20,20,28,28,48,28,45,28,56,28,49,28,48,48,28,49,28,52,55,28,55,55,28,19,28,19,30,34,28,28,20,56,48,48,0,0,55,20,21,14,49,21,34,0,34,49,39,11,28,55,55,28,48,56,28,28,49,28,34,55,19,52,28,55,28,55,28,52,28,19,34,34,55,0,34,11,0,48,48,55,28,28,11,56,56,19,34,0,9,20,19,28,11,28,28,28,28,28,0,19,28,28,55,34,43,56,43,3,34,28,28,34,0,0,19,34,28,28,19,34,34,49,55,28,28,0,11,28,55,11,45,28,19,49,0,0,0,28,28,28,19,0,55,11,0,28,55,11,55,55,45,55,48,52,55,49,48,55,28,19,19,19,19,19,45,34,28,19,28,34,28,28,28,28,11,28,48,49,19,0,19,19,11,52,48,0,0,0,0,0,0,0,0,0,0,0,0,0,0,0,0,0,0,0,0,0,0,0,0,0,0,0,0,0,0,0,0,0,0,0,0,0,0,0,0,0,0,0,0,0,0,0,0,0,0,0,0,0,0,0,0,0,0,0,0,0,0,0,0,0,0,0,0,0,0,0,0,0,0,0,0,0,0,0,0,0,0,0,0,0,0,0,0,0,0,0,0,0,0,0,0,0,0,0,0,0,0,0,0,0,0,0,0,0,0,0,0,0,0,0,0,0,0,0,0,0,0,0,0,0,0,0,0,0,0,0,0,0,0,0,0,0,0,0,0,0,0,0,0,0,0,0,0,0,0,0,0,0,0,0,0,0,0,0,0,0,0,0,0,0,0,0,0,0,0,0,0,0,0,0,0,0,0,0,0,0,0,0,0,0,0,0,0,0],"split_type":[0,0,0,0,0,0,0,0,0,0,0,0,0,0,0,0,0,0,0,0,0,0,0,0,0,0,0,0,0,0,0,0,0,0,0,0,0,0,0,0,0,0,0,0,0,0,0,0,0,0,0,0,0,0,0,0,0,0,0,0,0,0,0,0,0,0,0,0,0,0,0,0,0,0,0,0,0,0,0,0,0,0,0,0,0,0,0,0,0,0,0,0,0,0,0,0,0,0,0,0,0,0,0,0,0,0,0,0,0,0,0,0,0,0,0,0,0,0,0,0,0,0,0,0,0,0,0,0,0,0,0,0,0,0,0,0,0,0,0,0,0,0,0,0,0,0,0,0,0,0,0,0,0,0,0,0,0,0,0,0,0,0,0,0,0,0,0,0,0,0,0,0,0,0,0,0,0,0,0,0,0,0,0,0,0,0,0,0,0,0,0,0,0,0,0,0,0,0,0,0,0,0,0,0,0,0,0,0,0,0,0,0,0,0,0,0,0,0,0,0,0,0,0,0,0,0,0,0,0,0,0,0,0,0,0,0,0,0,0,0,0,0,0,0,0,0,0,0,0,0,0,0,0,0,0,0,0,0,0,0,0,0,0,0,0,0,0,0,0,0,0,0,0,0,0,0,0,0,0,0,0,0,0,0,0,0,0,0,0,0,0,0,0,0,0,0,0,0,0,0,0,0,0,0,0,0,0,0,0,0,0,0,0,0,0,0,0,0,0,0,0,0,0,0,0,0,0,0,0,0,0,0,0,0,0,0,0,0,0,0,0,0,0,0,0,0,0,0,0,0,0,0,0,0,0,0,0,0,0,0,0,0,0,0,0,0,0,0,0,0,0,0,0,0,0,0,0,0,0,0,0,0,0,0,0,0,0,0,0,0,0,0,0,0,0,0,0,0,0,0,0,0,0,0,0,0,0,0,0,0,0,0,0],"sum_hessian":[1.1883525E6,4.6235138E5,7.2600106E5,2.7859966E5,1.8375172E5,2.3295444E5,4.9304666E5,2.704882E5,8.1114893E3,1.4073014E4,1.696787E5,3.720412E4,1.9575031E5,4.401348E5,5.2911816E4,1.0916845E5,1.6131972E5,8.0008296E3,1.1065981E2,1.2449781E4,1.6232333E3,1.5480828E5,1.4870416E4,9.235655E3,2.7968467E4,3.3595324E4,1.6215498E5,3.3936128E5,1.0077354E5,3.984081E3,4.8927734E4,4.275224E4,6.641622E4,7.230412E4,8.90156E4,1.011793E3,6.9890366E3,7.457558E1,3.6084236E1,4.0007996E3,8.448981E3,2.974072E2,1.325826E3,1.5278408E5,2.0242031E3,1.05873E3,1.3811687E4,7.605444E3,1.6302109E3,2.539314E3,3.1056012E4,9.757259E4,6.4582387E4,1.1076884E4,3.282844E5,3.3430073E3,9.743053E4,3.0125386E3,9.7154266E2,8.205409E3,4.072233E4,1.9074018E4,2.367822E4,6.373477E4,2.6814482E3,6.9077234E4,3.2268774E3,1.793174E3,8.722243E4,6.76868E2,3.3492505E2,4.098892E3,2.8901443E3,4.141468E1,3.31609E1,3.042213E3,9.585866E2,4.689623E3,3.7593582E3,1.12699036E2,1.8470815E2,7.141184E2,6.1170764E2,1.3355944E5,1.9224639E4,3.779877E2,1.6462155E3,3.9922397E2,6.59506E2,5.6529536E3,8.158733E3,3.9535796E3,3.6518643E3,2.63343E2,1.3668679E3,1.7633882E3,7.759258E2,2.2777723E4,8.278289E3,2.061654E3,9.5510945E4,4.587014E3,5.999537E4,6.6224204E3,4.4544634E3,3.6231226E3,3.2466128E5,2.276994E3,1.0660137E3,8.489182E4,1.2538707E4,2.813946E3,1.9859244E2,4.8058554E2,4.9095712E2,8.9616205E2,7.309247E3,2.2722826E4,1.79995E4,2.7952737E3,1.6278743E4,1.0190725E4,1.3487497E4,3.613671E4,2.7598057E4,2.6437156E3,3.7732784E1,9.8091864E2,6.809632E4,9.346632E2,2.2922144E3,4.8658838E2,1.3065856E3,4.5221904E3,8.270024E4,4.9311563E2,1.8375233E2,3.314526E1,3.017798E2,1.1644546E3,2.9344375E3,1.1161484E3,1.7739958E3,2.210433E3,8.3177985E2,7.952029E2,1.6338368E2,1.8242067E3,2.8654163E3,3.0823157E3,6.7704254E2,5.8673485E1,5.4025547E1,7.9624176E1,1.0508397E2,5.8876E2,1.2535844E2,4.02864E4,9.327305E4,1.5620105E4,3.6045342E3,1.5597482E2,2.2201286E2,1.6080511E3,3.816428E1,2.532696E2,1.4595435E2,1.6353105E2,4.9597495E2,5.48925E2,5.104029E3,2.695964E2,7.889136E3,2.2954855E2,3.724031E3,3.3544415E1,3.6183198E3,1.4732008E2,1.1602292E2,5.671607E2,7.997072E2,1.6244451E3,1.3894319E2,6.349259E1,7.1243317E2,2.2579611E4,1.9811125E2,5.2814126E3,2.9968767E3,1.6899415E3,3.7171255E2,8.5286336E4,1.0224609E4,1.1747574E3,3.4122568E3,2.7199406E4,3.2795965E4,2.5028284E3,4.1195923E3,1.5386646E3,2.9157986E3,7.7758704E2,2.8455354E3,4.2581613E4,2.8207966E5,8.639045E2,1.4130892E3,3.8503366E2,6.8098E2,4.778504E4,3.7106785E4,7.917168E3,4.6215396E3,1.2664731E2,2.6872988E3,3.6329764E2,1.172879E2,4.4078943E2,5.0167706E1,5.74604E2,6.734643E3,1.6100156E3,2.111281E4,1.6671465E4,1.3280364E3,1.4266271E3,1.3686466E3,8.7199974E1,1.6191544E4,2.9730632E3,7.2176616E3,8.47846E3,5.0090366E3,1.8149979E4,1.7986734E4,1.0550798E4,1.7047258E4,5.825621E2,2.0611536E3,7.654445E2,2.1547415E2,4.5932613E4,2.2163703E4,8.688328E2,6.583038E1,5.4790573E1,2.2374236E3,4.052971E2,8.129128E1,1.0159874E3,2.9059808E2,3.9235984E3,5.985918E2,2.2859932E3,8.041424E4,1.6998076E2,3.2313486E2,5.6475945E1,1.2727638E2,1.4859909E2,1.5318071E2,6.5521826E2,5.0923633E2,9.024258E2,2.0320118E3,2.1143497E2,9.047135E2,1.7341354E3,3.9860416E1,1.9669147E3,2.4351839E2,7.761698E2,5.561006E1,6.9944055E2,9.576238E1,3.3091156E1,1.3029253E2,8.9860223E2,9.256045E2,2.5486545E3,3.1676178E2,2.248127E3,8.3418884E2,6.364943E2,4.0548195E1,4.5477566E1,3.4146614E1,6.169562E1,4.3388348E1,1.5988272E2,4.2887726E2,3.9106586E1,8.6251854E1,3.8275062E4,2.0113328E3,1.4931984E4,7.834106E4,1.0394928E3,1.4580612E4,5.630566E2,3.0414778E3,1.1644069E2,3.9534134E1,8.8001854E1,1.3401102E2,6.49464E2,9.5858716E2,2.0406781E2,4.920181E1,7.1010445E1,7.49439E1,6.2686047E1,1.0084501E2,3.200013E2,1.7597365E2,4.225688E2,1.2635618E2,1.1948696E2,4.9845415E3,2.3465471E2,3.494169E1,5.9413237E3,1.9478126E3,1.3792136E3,2.2391062E3,4.8097855E1,9.922223E1,3.836991E1,7.7653E1,5.3005817E2,3.7102528E1,2.4478477E2,1.3796603E3,8.090371E1,5.8039474E1,6.172723E2,9.51609E1,1.8518531E4,4.0610803E3,4.1113655E1,1.5699759E2,3.426759E2,4.938737E3,2.3249695E3,6.719072E2,1.628392E3,6.1549538E1,1.3517912E2,2.3653343E2,1.3857621E3,8.390057E4,9.451526E3,7.730829E2,2.7283676E2,9.019208E2,2.4379902E3,9.742665E2,1.3564926E4,1.363448E4,2.930424E4,3.4917246E3,2.2167014E3,2.8612708E2,3.7734053E3,3.4618683E2,4.647106E1,1.4921936E3,1.0216415E3,1.8941571E3,2.6565762E2,5.119294E2,3.6259212E1,2.8092764E3,1.3274357E4,2.9307256E4,1.609746E5,1.2110508E5,7.8504663E2,7.885784E1,1.2221204E3,1.9096898E2,9.369089E1,2.913428E2,6.197137E2,6.12663E1,2.2556564E4,2.5228475E4,8.774575E3,2.8332209E4,3.509995E3,4.407173E3,1.273388E3,3.3481514E3,4.5630028E1,8.101728E1,4.9641272E2,2.190886E3,1.5239824E2,2.1089938E2,3.435418E1,8.293372E1,3.917725E2,4.901693E1,1.4558165E2,4.2902237E2,5.2021814E2,6.214425E3,5.3896185E2,1.0710538E3,1.8656332E4,2.4564783E3,5.9886774E2,1.6072597E4],"tree_param":{"num_deleted":"0","num_feature":"58","num_nodes":"413","size_leaf_vector":"1"}},{"base_weights":[4.5395078E-4,-7.130105E-1,4.5342588E-1,-2.2203287E-1,-1.4678885E0,1.686973E0,3.840646E-1,-2.6822007E-1,1.3289444E0,-1.4741808E-1,-1.579203E0,1.6981144E0,1.5961862E0,4.263172E-1,-1.1501821E0,2.5711745E-2,-5.477602E-1,1.3637322E0,-1.1740856E0,-3.360416E-1,1.2827685E0,-1.6196581E0,-1.0544955E0,1.6567478E0,1.4969462E-1,1.6177883E0,1.4807179E0,1.462109E-1,6.037224E-1,-1.330964E0,4.7610927E-1,6.338936E-2,-9.1606563E-1,-4.6646658E-1,-1.1857287E0,8.827931E-1,1.4531897E0,-8.392218E-1,-1.5591021E-1,-5.5060667E-1,6.3990355E-1,1.3732111E0,5.594476E-1,-1.629396E0,-8.533084E-1,-3.8459146E-1,-1.2456307E0,1.48033E-1,1.617776E0,1.5613192E0,1.6507272E0,1.231602E0,1.3337988E-1,2.6227757E-1,-2.5088957E-1,9.5364404E-1,4.7979793E-1,-9.624096E-1,-1.6573086E0,5.904675E-2,1.2174526E0,4.8850574E-2,1.4209515E0,-1.2681386E0,-3.5512027E-1,-4.1157156E-1,-1.59445E0,-1.2831585E0,-6.14293E-1,9.858654E-1,-2.8546986E-1,1.5581342E0,1.3051395E0,-1.2767658E-1,-1.2347762E-2,-7.350563E-1,-1.8223226E-1,2.0617833E-2,1.0541183E0,8.605785E-1,1.4075617E0,9.255442E-1,1.1447533E-1,-1.6565349E0,-1.4660219E0,1.2065173E-1,-1.063318E0,3.277266E-1,-1.1702302E0,-1.0109476E0,-1.825855E0,1.3906655E-1,1.4733128E-1,1.4431353E0,1.3886829E-1,1.377222E-1,1.4756168E-1,9.080399E-2,1.3244207E-1,4.6949792E-1,9.225369E-3,-1.0319949E0,7.420907E-2,1.151958E0,4.630279E-1,2.0394772E-1,6.596472E-1,-1.190686E0,-3.862661E-1,5.2214044E-1,-1.7014699E0,2.545585E-1,-1.1251955E0,1.3583654E0,3.3814883E-1,9.415674E-2,-2.891216E-1,8.5628845E-2,1.2600261E-1,-2.8263974E-1,-1.4721805E0,-8.053086E-1,-2.1079509E-1,-2.8782585E-1,-8.806311E-1,-1.5066054E0,-1.7090296E0,-9.005392E-1,-1.4892055E0,-4.6902663E-1,-1.1682508E0,1.1838628E0,5.5643475E-1,-8.691768E-2,1.8427722E-2,1.564795E0,8.0000505E-2,1.0477124E0,1.3952172E0,-4.159785E-1,-8.2294905E-1,-5.800094E-2,-6.355952E-1,1.2517332E-1,-2.8414366E-1,4.2074376E-1,1.4040655E0,3.218063E-2,1.1169742E-1,1.3520288E0,1.491863E0,5.1911984E-2,1.0269728E-1,-2.74603E-2,6.276696E-2,-1.2654963E0,-1.6645467E0,-1.5919586E0,-8.902541E-1,-2.7638075E-1,1.400792E-1,-1.2582214E0,2.0291485E-2,9.9633276E-1,-3.7625352E-1,-6.1999714E-1,-1.6428827E0,-1.1364118E0,1.2785635E0,-1.7594074E0,-1.670441E-1,1.00106426E-1,1.3193105E-1,1.8780206E-1,7.334853E-1,2.779721E-1,-9.813622E-1,-3.7772715E-1,-1.6786578E0,-1.3747755E-1,6.669746E-1,1.1648967E0,-1.1497661E0,-2.656384E-1,1.3761281E0,4.8385072E-1,-8.882343E-1,2.4592529E-1,7.7923185E-1,-1.2298306E0,8.587739E-1,-8.65848E-1,8.052109E-1,9.0630764E-1,1.3565703E-1,-1.5260582E0,-1.8805692E0,-3.7332464E-2,6.680257E-1,-1.4457287E0,-4.9300097E-2,9.311179E-1,1.5383104E0,-3.4370217E-2,6.883807E-2,9.250488E-3,-9.436937E-2,-4.599635E-2,-2.1306356E-2,2.0047848E-3,-8.476004E-2,-1.3333812E-1,8.3719365E-2,-9.222613E-2,-3.4681074E-3,-2.6744217E-2,2.415659E-2,-6.6526234E-2,-1.7729983E-2,-8.1736945E-2,-1.9098993E-2,-1.4217786E-1,-9.857007E-2,-1.5065038E-1,-1.2972245E-1,-7.158266E-2,-1.10486954E-1,-1.3785562E-1,-1.10108E-1,-6.35887E-2,-8.803981E-3,-1.1523967E-1,-4.6582688E-2,8.9079455E-2,1.16060466E-1,1.9365873E-2,8.775446E-2,1.2854843E-1,1.4041376E-1,9.7324856E-2,-1.22860195E-2,1.1452284E-1,1.383082E-1,-1.8625187E-2,-5.8409024E-2,-8.862903E-2,-5.829195E-2,3.8505988E-3,-3.2710917E-2,-7.017613E-2,-1.55472215E-2,6.25483E-3,6.576792E-2,-6.8910845E-2,4.1396905E-2,1.06358506E-1,1.1105331E-2,1.3735142E-1,7.353672E-2,1.2674989E-1,1.131325E-1,1.0449771E-1,1.3387999E-1,-7.623737E-2,-1.3257012E-1,-1.3946843E-1,-1.4900556E-1,-1.1317725E-1,-1.4400716E-1,1.3479288E-1,-1.1457163E-1,1.7866276E-2,-9.478453E-2,-1.1528222E-1,1.9553756E-2,-1.53828E-1,4.817335E-2,-7.467339E-2,1.2985605E-1,-9.674927E-3,-1.7338978E-1,8.0762334E-2,-8.331706E-2,-1.0390332E-1,-1.4967443E-1,-8.016901E-2,-1.4394177E-1,1.3036003E-2,1.4109191E-1,-1.607545E-1,-1.4213857E-1,6.27715E-2,-5.8806535E-2,-1.2306216E-1,7.2640575E-2,-4.940685E-2,4.318316E-2,-1.6056766E-1,2.8492082E-2,6.594832E-2,-5.510777E-2,-6.96218E-3,-1.6182385E-1,1.6017415E-2,-4.8306752E-2,8.519205E-2,-1.2553136E-1,9.675991E-2,1.23360045E-1,-4.4924278E-2,-1.3288474E-1,-1.3913067E-2,-1.44435E-1,2.8732335E-2,1.2527436E-1,6.1539184E-2,2.1466406E-2,2.952724E-2,-1.524653E-1,-1.4529595E-2,1.04382664E-1,5.3142555E-2,8.728265E-2,-1.2218705E-1,-8.198022E-2,8.373735E-2,6.279861E-2,-3.3805106E-2,-1.3113092E-1,-5.6450173E-2,1.04477204E-1,1.070268E-1,6.090718E-2,4.427773E-2,-2.8629106E-2,-7.3029846E-2,-1.3993837E-1,-1.1014326E-1,-1.6799018E-1,6.806097E-2,-2.9550755E-2,3.26672E-2,9.574052E-2,-1.4838833E-1,-7.922664E-2,3.1741384E-2,1.01640746E-1,1.1652307E-1,1.4716052E-1],"categories":[],"categories_nodes":[],"categories_segments":[],"categories_sizes":[],"default_left":[0,0,0,0,0,0,0,0,0,0,0,0,0,0,0,0,0,0,0,0,0,0,0,0,0,0,0,0,0,0,0,0,0,0,0,0,0,0,0,0,0,0,0,0,0,0,0,0,0,0,0,0,0,0,0,0,0,0,0,0,0,0,0,0,0,0,0,0,0,0,0,0,0,0,0,0,0,0,0,0,0,0,0,0,0,0,0,0,0,0,0,0,0,0,0,0,0,0,0,0,0,0,0,0,0,0,0,0,0,0,0,0,0,0,0,0,0,0,0,0,0,0,0,0,0,0,0,0,0,0,0,0,0,0,0,0,0,0,0,0,0,0,0,0,0,0,0,0,0,0,0,0,0,0,0,0,0,0,0,0,0,0,0,0,0,0,0,0,0,0,0,0,0,0,0,0,0,0,0,0,0,0,0,0,0,0,0,0,0,0,0,0,0,0,0,0,0,0,0,0,0,0,0,0,0,0,0,0,0,0,0,0,0,0,0,0,0,0,0,0,0,0,0,0,0,0,0,0,0,0,0,0,0,0,0,0,0,0,0,0,0,0,0,0,0,0,0,0,0,0,0,0,0,0,0,0,0,0,0,0,0,0,0,0,0,0,0,0,0,0,0,0,0,0,0,0,0,0,0,0,0,0,0,0,0,0,0,0,0,0,0,0,0,0,0,0,0,0,0,0,0,0,0,0,0,0,0,0,0,0,0,0,0,0,0,0,0,0,0,0,0,0,0,0,0,0,0,0,0,0,0,0,0,0,0,0,0,0,0,0,0,0,0,0,0,0,0,0,0],"id":2,"left_children":[1,3,5,7,9,11,13,15,17,19,21,23,25,27,29,31,33,35,37,39,41,43,45,47,-1,49,51,53,55,57,59,61,63,65,67,69,71,73,-1,75,77,79,81,83,85,87,89,-1,91,93,95,97,-1,99,101,103,105,107,109,111,113,115,117,119,121,123,125,127,129,131,133,135,137,-1,-1,139,141,143,145,147,149,151,153,155,157,159,161,163,165,167,169,-1,-1,171,-1,-1,-1,-1,-1,173,175,177,179,181,183,185,187,189,191,193,195,197,199,201,203,205,207,-1,-1,209,211,213,215,217,219,221,223,225,227,229,231,233,235,-1,-1,237,-1,239,241,243,245,247,249,251,253,255,257,-1,-1,259,261,-1,-1,-1,-1,263,265,267,269,271,-1,273,275,277,279,281,283,285,287,289,-1,-1,-1,291,293,295,297,299,301,303,305,307,309,311,313,315,317,319,321,323,325,327,329,331,333,335,337,339,341,343,-1,345,347,-1,-1,-1,-1,-1,-1,-1,-1,-1,-1,-1,-1,-1,-1,-1,-1,-1,-1,-1,-1,-1,-1,-1,-1,-1,-1,-1,-1,-1,-1,-1,-1,-1,-1,-1,-1,-1,-1,-1,-1,-1,-1,-1,-1,-1,-1,-1,-1,-1,-1,-1,-1,-1,-1,-1,-1,-1,-1,-1,-1,-1,-1,-1,-1,-1,-1,-1,-1,-1,-1,-1,-1,-1,-1,-1,-1,-1,-1,-1,-1,-1,-1,-1,-1,-1,-1,-1,-1,-1,-1,-1,-1,-1,-1,-1,-1,-1,-1,-1,-1,-1,-1,-1,-1,-1,-1,-1,-1,-1,-1,-1,-1,-1,-1,-1,-1,-1,-1,-1,-1,-1,-1,-1,-1,-1,-1,-1,-1,-1,-1,-1,-1,-1,-1,-1,-1,-1,-1,-1,-1,-1,-1,-1,-1,-1,-1],"loss_changes":[3.8205406E5,1.7014894E5,6.1867266E4,1.9926781E4,2.6592625E4,3.6226562E1,4.43801E4,2.2194766E4,7.020488E2,3.7951687E3,3.5400938E3,5.6640625E0,8.142578E0,3.3107406E4,5.395172E3,4.672311E3,7.1798633E3,3.4008496E2,2.0801666E1,2.6029214E3,1.0647046E2,1.1546562E3,1.5291748E3,2.1103516E0,0E0,4.022461E0,4.4852295E0,1.1907318E4,1.7687812E4,1.9845391E3,5.677013E2,2.4988345E3,9.999004E2,7.6034395E3,8.703867E2,1.504314E2,1.01884766E2,3.1141457E1,0E0,6.921753E2,5.7468994E2,2.4434326E1,2.9848133E1,6.7578125E2,3.9811865E2,1.485263E3,1.2637236E3,0E0,1.1875E0,7.7783203E-1,2.729004E0,3.59169E0,0E0,1.0483073E4,1.4838266E4,1.0378758E4,1.494418E4,1.0197993E3,8.437012E2,2.7262845E2,8.1453186E1,1.9181533E3,6.644287E0,6.2527686E2,1.26828384E2,6.7970645E3,5.4785156E1,1.0525059E3,1.8302374E2,9.678662E1,3.5723866E1,1.5431641E1,6.3015625E1,0E0,0E0,1.9005664E2,1.9150809E2,2.8680527E1,2.9696643E2,1.8633858E1,4.3654785E0,7.5178986E0,2.178547E1,4.088125E2,1.5792148E3,2.0294664E2,3.3810034E2,6.557537E2,3.2717737E2,1.9029932E3,1.0119141E1,0E0,0E0,1.8448181E0,0E0,0E0,0E0,0E0,0E0,8.173301E3,2.3961252E4,7.264961E3,5.177551E3,2.2638047E3,2.0432883E4,3.634438E4,9.021156E3,4.467539E2,1.2594414E3,2.5811886E1,2.667754E2,1.219667E2,2.935228E1,4.2347534E1,3.0410126E1,1.4390728E3,1.6159265E2,0E0,0E0,1.1151132E2,2.8721973E2,8.876837E1,6.7485725E1,3.740852E3,8.079082E2,1.3735889E2,8.720703E-1,1.422185E2,1.6210938E2,1.6995248E2,4.266449E1,1.693274E1,5.383416E1,0E0,0E0,1.0860352E1,0E0,5.1983093E1,3.16875E1,7.440506E1,1.5706909E2,8.551128E1,5.4623993E1,2.249366E1,8.727231E1,1.1126934E2,7.685315E1,0E0,0E0,2.9951172E0,3.362915E0,0E0,0E0,0E0,0E0,2.5423145E2,3.105E2,2.551836E2,3.9315906E3,1.0552092E2,0E0,1.0903955E2,2.3016759E2,6.3695636E2,2.884455E2,2.965316E2,1.7012573E1,7.038613E2,1.2726672E2,1.1389648E1,0E0,0E0,0E0,2.4012303E4,1.1317061E4,1.2710428E4,2.1230762E4,2.4052583E3,2.2584238E3,4.0105525E3,6.8932505E3,1.1451406E3,9.7737976E1,2.5252676E3,7.140293E2,4.9108887E3,2.5163574E4,1.5849113E4,5.283992E3,2.5922656E2,7.419586E-1,4.7321924E2,3.5266376E2,4.9649963E0,1.5170247E1,2.0066504E2,8.214844E1,1.4434206E2,5.183914E1,1.2480835E1,0E0,2.1633545E1,9.356506E0,0E0,0E0,0E0,0E0,0E0,0E0,0E0,0E0,0E0,0E0,0E0,0E0,0E0,0E0,0E0,0E0,0E0,0E0,0E0,0E0,0E0,0E0,0E0,0E0,0E0,0E0,0E0,0E0,0E0,0E0,0E0,0E0,0E0,0E0,0E0,0E0,0E0,0E0,0E0,0E0,0E0,0E0,0E0,0E0,0E0,0E0,0E0,0E0,0E0,0E0,0E0,0E0,0E0,0E0,0E0,0E0,0E0,0E0,0E0,0E0,0E0,0E0,0E0,0E0,0E0,0E0,0E0,0E0,0E0,0E0,0E0,0E0,0E0,0E0,0E0,0E0,0E0,0E0,0E0,0E0,0E0,0E0,0E0,0E0,0E0,0E0,0E0,0E0,0E0,0E0,0E0,0E0,0E0,0E0,0E0,0E0,0E0,0E0,0E0,0E0,0E0,0E0,0E0,0E0,0E0,0E0,0E0,0E0,0E0,0E0,0E0,0E0,0E0,0E0,0E0,0E0,0E0,0E0,0E0,0E0,0E0,0E0,0E0,0E0,0E0,0E0,0E0,0E0,0E0,0E0,0E0,0E0,0E0,0E0,0E0,0E0,0E0,0E0,0E0,0E0,0E0,0E0,0E0,0E0,0E0,0E0],"parents":[2147483647,0,0,1,1,2,2,3,3,4,4,5,5,6,6,7,7,8,8,9,9,10,10,11,11,12,12,13,13,14,14,15,15,16,16,17,17,18,18,19,19,20,20,21,21,22,22,23,23,25,25,26,26,27,27,28,28,29,29,30,30,31,31,32,32,33,33,34,34,35,35,36,36,37,37,39,39,40,40,41,41,42,42,43,43,44,44,45,45,46,46,48,48,49,49,50,50,51,51,53,53,54,54,55,55,56,56,57,57,58,58,59,59,60,60,61,61,62,62,63,63,64,64,65,65,66,66,67,67,68,68,69,69,70,70,71,71,72,72,75,75,76,76,77,77,78,78,79,79,80,80,81,81,82,82,83,83,84,84,85,85,86,86,87,87,88,88,89,89,90,90,93,93,99,99,100,100,101,101,102,102,103,103,104,104,105,105,106,106,107,107,108,108,109,109,110,110,111,111,112,112,113,113,114,114,115,115,116,116,119,119,120,120,121,121,122,122,123,123,124,124,125,125,126,126,127,127,128,128,129,129,130,130,131,131,132,132,135,135,137,137,138,138,139,139,140,140,141,141,142,142,143,143,144,144,145,145,146,146,149,149,150,150,155,155,156,156,157,157,158,158,159,159,161,161,162,162,163,163,164,164,165,165,166,166,167,167,168,168,169,169,173,173,174,174,175,175,176,176,177,177,178,178,179,179,180,180,181,181,182,182,183,183,184,184,185,185,186,186,187,187,188,188,189,189,190,190,191,191,192,192,193,193,194,194,195,195,196,196,197,197,198,198,199,199,201,201,202,202],"right_children":[2,4,6,8,10,12,14,16,18,20,22,24,26,28,30,32,34,36,38,40,42,44,46,48,-1,50,52,54,56,58,60,62,64,66,68,70,72,74,-1,76,78,80,82,84,86,88,90,-1,92,94,96,98,-1,100,102,104,106,108,110,112,114,116,118,120,122,124,126,128,130,132,134,136,138,-1,-1,140,142,144,146,148,150,152,154,156,158,160,162,164,166,168,170,-1,-1,172,-1,-1,-1,-1,-1,174,176,178,180,182,184,186,188,190,192,194,196,198,200,202,204,206,208,-1,-1,210,212,214,216,218,220,222,224,226,228,230,232,234,236,-1,-1,238,-1,240,242,244,246,248,250,252,254,256,258,-1,-1,260,262,-1,-1,-1,-1,264,266,268,270,272,-1,274,276,278,280,282,284,286,288,290,-1,-1,-1,292,294,296,298,300,302,304,306,308,310,312,314,316,318,320,322,324,326,328,330,332,334,336,338,340,342,344,-1,346,348,-1,-1,-1,-1,-1,-1,-1,-1,-1,-1,-1,-1,-1,-1,-1,-1,-1,-1,-1,-1,-1,-1,-1,-1,-1,-1,-1,-1,-1,-1,-1,-1,-1,-1,-1,-1,-1,-1,-1,-1,-1,-1,-1,-1,-1,-1,-1,-1,-1,-1,-1,-1,-1,-1,-1,-1,-1,-1,-1,-1,-1,-1,-1,-1,-1,-1,-1,-1,-1,-1,-1,-1,-1,-1,-1,-1,-1,-1,-1,-1,-1,-1,-1,-1,-1,-1,-1,-1,-1,-1,-1,-1,-1,-1,-1,-1,-1,-1,-1,-1,-1,-1,-1,-1,-1,-1,-1,-1,-1,-1,-1,-1,-1,-1,-1,-1,-1,-1,-1,-1,-1,-1,-1,-1,-1,-1,-1,-1,-1,-1,-1,-1,-1,-1,-1,-1,-1,-1,-1,-1,-1,-1,-1,-1,-1,-1],"split_conditions":[1.8494055E-2,1.4941251E-1,3E0,1.13646696E-4,4E0,1.95E2,7.0126286E0,1E0,3E0,1.8954718E-4,5.012083E-3,7.519864E-2,1.532E3,1.02296546E-1,2.2879002E4,2.6798663E-1,5.5613947E0,7.293946E-4,2.3642172E-1,3.99E4,6.466E3,2E0,5.780712E-2,1.0082936E0,1.4969462E-1,4.5454547E-2,9.3863636E-2,1E0,7.14E2,1.7913141E1,1.1033111E5,2.5732023E-1,4.5833334E-1,3E0,4.185746E3,3.1358578E0,1.0082936E0,1.2108215E-1,-1.5591021E-1,1.7771244E-1,2.014E3,7.293946E-4,1.0082936E0,1.0613841E-6,2.0547945E-2,6.0593325E-1,1.248E3,1.48033E-1,1.5857143E0,8.602148E-2,2.018E3,1.43E2,1.3337988E-1,1.932993E4,1.1856898E-1,2.2017804E-1,1.28115E-1,5.172286E3,6E0,1.32183E5,1.8015E4,1.0082936E0,1.1111111E-1,2E0,2.009E3,1.0082936E0,1.3493463E-1,5E0,2.2311245E1,1.0082936E0,2.6164531E3,9.150921E0,2.8533114E-3,-1.2767658E-1,-1.2347762E-2,1.1046224E4,1.0082936E0,5.5613947E0,3.1509217E4,2.5875E3,5.4486E3,7E0,1.5E0,1.3616515E-3,9.9287826E-1,5.5E1,1E1,1.4907759E4,8.5E1,9.26E2,1.5691672E-1,1.3906655E-1,1.4733128E-1,2.1574972E-2,1.3886829E-1,1.377222E-1,1.4756168E-1,9.080399E-2,1.3244207E-1,1.3947597E-1,2.6798663E-1,6.692E3,4E0,2E-1,3.8511837E-1,9.9037E4,8.563341E-1,3.8511837E-1,3.0706182E-1,2E0,5.312063E1,2.017E3,9.932659E-1,1.8754758E5,7.3549025E-2,1.8471016E-1,1.125E0,8.5628845E-2,1.2600261E-1,2.01E3,6.3E1,3E0,2.017E3,8.988104E-2,1.1E4,1.3464919E-1,9.0205044E-1,5.312063E1,1.9437355E3,8.0039775E3,3.5E1,3.596346E-4,1.5E0,-8.691768E-2,1.8427722E-2,2.1786492E-3,8.0000505E-2,6.230707E0,1.6E0,2.018E3,8E2,2.019E3,2.0346979E4,5E0,1.4E1,1.5E1,2E0,3.218063E-2,1.1169742E-1,1.0082936E0,1.1046224E4,5.1911984E-2,1.0269728E-1,-2.74603E-2,6.276696E-2,3.89E2,2.39E2,3.799E3,9.933047E-1,1.0215795E-2,1.400792E-1,7.872691E-1,1.5691672E-1,2.3854962E-2,3.9773E4,3.803063E-3,2.013E3,2.019E3,3E0,1.3493463E-1,-1.670441E-1,1.00106426E-1,1.3193105E-1,9.5907515E-1,4.1142583E-1,7.547957E-1,7.6505053E-1,2.015E3,9.997809E-1,7.0910415E3,7E0,1.0053987E5,7.891492E-2,2E-1,4.89752E-1,7.178E3,8.5593116E-1,1E0,6.418985E3,2.2118499E3,1.0577355E1,2.1344E4,1.6312E5,2.011E3,7.0639506E-2,5.126449E-1,3.9342722E-1,5.1E1,6.121593E4,8.581841E-2,-4.9300097E-2,4.89752E-1,3.5229828E5,-3.4370217E-2,6.883807E-2,9.250488E-3,-9.436937E-2,-4.599635E-2,-2.1306356E-2,2.0047848E-3,-8.476004E-2,-1.3333812E-1,8.3719365E-2,-9.222613E-2,-3.4681074E-3,-2.6744217E-2,2.415659E-2,-6.6526234E-2,-1.7729983E-2,-8.1736945E-2,-1.9098993E-2,-1.4217786E-1,-9.857007E-2,-1.5065038E-1,-1.2972245E-1,-7.158266E-2,-1.10486954E-1,-1.3785562E-1,-1.10108E-1,-6.35887E-2,-8.803981E-3,-1.1523967E-1,-4.6582688E-2,8.9079455E-2,1.16060466E-1,1.9365873E-2,8.775446E-2,1.2854843E-1,1.4041376E-1,9.7324856E-2,-1.22860195E-2,1.1452284E-1,1.383082E-1,-1.8625187E-2,-5.8409024E-2,-8.862903E-2,-5.829195E-2,3.8505988E-3,-3.2710917E-2,-7.017613E-2,-1.55472215E-2,6.25483E-3,6.576792E-2,-6.8910845E-2,4.1396905E-2,1.06358506E-1,1.1105331E-2,1.3735142E-1,7.353672E-2,1.2674989E-1,1.131325E-1,1.0449771E-1,1.3387999E-1,-7.623737E-2,-1.3257012E-1,-1.3946843E-1,-1.4900556E-1,-1.1317725E-1,-1.4400716E-1,1.3479288E-1,-1.1457163E-1,1.7866276E-2,-9.478453E-2,-1.1528222E-1,1.9553756E-2,-1.53828E-1,4.817335E-2,-7.467339E-2,1.2985605E-1,-9.674927E-3,-1.7338978E-1,8.0762334E-2,-8.331706E-2,-1.0390332E-1,-1.4967443E-1,-8.016901E-2,-1.4394177E-1,1.3036003E-2,1.4109191E-1,-1.607545E-1,-1.4213857E-1,6.27715E-2,-5.8806535E-2,-1.2306216E-1,7.2640575E-2,-4.940685E-2,4.318316E-2,-1.6056766E-1,2.8492082E-2,6.594832E-2,-5.510777E-2,-6.96218E-3,-1.6182385E-1,1.6017415E-2,-4.8306752E-2,8.519205E-2,-1.2553136E-1,9.675991E-2,1.23360045E-1,-4.4924278E-2,-1.3288474E-1,-1.3913067E-2,-1.44435E-1,2.8732335E-2,1.2527436E-1,6.1539184E-2,2.1466406E-2,2.952724E-2,-1.524653E-1,-1.4529595E-2,1.04382664E-1,5.3142555E-2,8.728265E-2,-1.2218705E-1,-8.198022E-2,8.373735E-2,6.279861E-2,-3.3805106E-2,-1.3113092E-1,-5.6450173E-2,1.04477204E-1,1.070268E-1,6.090718E-2,4.427773E-2,-2.8629106E-2,-7.3029846E-2,-1.3993837E-1,-1.1014326E-1,-1.6799018E-1,6.806097E-2,-2.9550755E-2,3.26672E-2,9.574052E-2,-1.4838833E-1,-7.922664E-2,3.1741384E-2,1.01640746E-1,1.1652307E-1,1.4716052E-1],"split_indices":[48,49,5,48,5,34,50,37,5,48,48,48,34,50,38,57,50,48,57,20,34,39,57,56,0,48,50,49,34,50,38,57,57,5,38,50,56,57,0,50,0,48,56,48,57,49,46,0,56,50,0,46,0,38,57,57,57,38,34,34,34,56,53,11,0,56,57,34,50,56,38,50,48,0,0,38,56,50,38,21,20,46,56,57,49,11,39,38,46,46,57,0,0,48,0,0,0,0,0,57,57,46,11,53,57,34,49,57,57,46,50,0,48,38,57,57,56,0,0,0,11,11,0,50,21,57,57,50,38,38,9,48,56,0,0,48,0,50,56,0,20,0,38,12,9,34,8,0,0,56,38,0,0,0,0,34,34,34,49,57,0,57,57,57,34,57,0,0,11,57,0,0,0,49,49,48,49,0,48,38,11,38,57,53,48,46,49,25,38,38,50,34,34,0,57,49,49,34,38,57,0,48,38,0,0,0,0,0,0,0,0,0,0,0,0,0,0,0,0,0,0,0,0,0,0,0,0,0,0,0,0,0,0,0,0,0,0,0,0,0,0,0,0,0,0,0,0,0,0,0,0,0,0,0,0,0,0,0,0,0,0,0,0,0,0,0,0,0,0,0,0,0,0,0,0,0,0,0,0,0,0,0,0,0,0,0,0,0,0,0,0,0,0,0,0,0,0,0,0,0,0,0,0,0,0,0,0,0,0,0,0,0,0,0,0,0,0,0,0,0,0,0,0,0,0,0,0,0,0,0,0,0,0,0,0,0,0,0,0,0,0,0,0,0,0,0,0,0,0],"split_type":[0,0,0,0,0,0,0,0,0,0,0,0,0,0,0,0,0,0,0,0,0,0,0,0,0,0,0,0,0,0,0,0,0,0,0,0,0,0,0,0,0,0,0,0,0,0,0,0,0,0,0,0,0,0,0,0,0,0,0,0,0,0,0,0,0,0,0,0,0,0,0,0,0,0,0,0,0,0,0,0,0,0,0,0,0,0,0,0,0,0,0,0,0,0,0,0,0,0,0,0,0,0,0,0,0,0,0,0,0,0,0,0,0,0,0,0,0,0,0,0,0,0,0,0,0,0,0,0,0,0,0,0,0,0,0,0,0,0,0,0,0,0,0,0,0,0,0,0,0,0,0,0,0,0,0,0,0,0,0,0,0,0,0,0,0,0,0,0,0,0,0,0,0,0,0,0,0,0,0,0,0,0,0,0,0,0,0,0,0,0,0,0,0,0,0,0,0,0,0,0,0,0,0,0,0,0,0,0,0,0,0,0,0,0,0,0,0,0,0,0,0,0,0,0,0,0,0,0,0,0,0,0,0,0,0,0,0,0,0,0,0,0,0,0,0,0,0,0,0,0,0,0,0,0,0,0,0,0,0,0,0,0,0,0,0,0,0,0,0,0,0,0,0,0,0,0,0,0,0,0,0,0,0,0,0,0,0,0,0,0,0,0,0,0,0,0,0,0,0,0,0,0,0,0,0,0,0,0,0,0,0,0,0,0,0,0,0,0,0,0,0,0,0,0,0,0,0,0,0,0,0,0,0,0,0,0,0,0,0,0,0,0,0,0,0,0,0,0,0],"sum_hessian":[1.1821716E6,4.590823E5,7.2308925E5,2.7816394E5,1.8091836E5,3.8492953E4,6.845963E5,2.7012075E5,8.04321E3,1.4065733E4,1.6685262E5,3.4269633E4,4.2233193E3,6.662488E5,1.8347521E4,1.3167138E5,1.3844936E5,7.933405E3,1.09805176E2,1.2427473E4,1.6382612E3,1.5490716E5,1.1945472E4,4.3629175E3,2.9906715E4,3.5467686E3,6.765507E2,2.5834611E5,4.079027E5,1.6512176E4,1.8353453E3,1.2660714E5,5.0642295E3,1.2280285E5,1.5646513E4,1.245932E3,6.6874727E3,7.2044685E1,3.776049E1,1.0188032E4,2.2394402E3,1.4553843E3,1.8287698E2,1.5296238E5,1.9447737E3,2.6523489E3,9.293122E3,2.4982175E3,1.8646997E3,1.3244996E3,2.2222688E3,9.325549E1,5.832952E2,1.9991439E5,5.8431723E4,1.0667656E5,3.0122612E5,7.756449E3,8.755727E3,1.1752543E3,6.6009106E2,1.2526663E5,1.3405049E3,3.1106152E3,1.9536143E3,1.17105125E5,5.697732E3,1.336631E4,2.280203E3,1.1450627E3,1.0086923E2,3.9078765E3,2.7795962E3,3.7764114E1,3.4280567E1,6.7881343E3,3.399898E3,8.979619E2,1.3414784E3,9.303404E1,1.3623502E3,9.973828E1,8.31387E1,1.3116469E5,2.1797688E4,3.4503464E2,1.5997391E3,1.3913925E3,1.2609564E3,6.618772E3,2.6743506E3,1.1950087E3,6.6969104E2,1.984533E2,1.1260464E3,5.9130676E2,1.630962E3,5.708209E1,3.6173405E1,1.0991001E5,9.000438E4,1.7171668E4,4.1260055E4,7.596792E4,3.070864E4,1.1888467E5,1.8234145E5,5.5545786E3,2.2018708E3,1.7367561E2,8.582051E3,1.00939404E3,1.6586024E2,5.6844946E2,9.1641624E1,1.1045988E5,1.4806753E4,4.134084E1,1.2991641E3,5.339728E2,2.5766423E3,4.7315118E2,1.4804631E3,9.266117E4,2.4443947E4,3.2331372E3,2.4645947E3,4.680401E3,8.685909E3,1.8079454E3,4.722574E2,7.82513E2,3.6254977E2,4.1243942E1,5.962529E1,3.8666785E3,4.1198067E1,7.2378076E2,2.0558154E3,1.4672595E3,5.3208745E3,2.6695193E3,7.3037854E2,6.6902625E2,2.2893565E2,4.7819275E2,8.6328564E2,4.3096188E1,4.9937855E1,8.315875E2,5.307627E2,4.345887E1,5.6279408E1,4.8849678E1,3.4289024E1,2.636614E3,1.2852808E5,1.788415E4,3.913537E3,2.7245776E2,7.2576866E1,1.3557297E3,2.4400934E2,7.134126E2,6.779799E2,5.8372797E2,6.772284E2,6.275387E3,3.4338474E2,1.4374836E3,1.2368671E3,3.548521E1,1.629681E2,5.3172434E4,5.673758E4,7.079767E4,1.920671E4,8.536431E3,8.635237E3,3.0403293E4,1.0856763E4,7.554376E4,4.2416336E2,1.70796E4,1.3629042E4,9.463284E4,2.4251826E4,4.0887547E4,1.414539E5,5.450867E3,1.037114E2,1.5701447E3,6.3172626E2,8.642427E1,8.725134E1,4.340469E3,4.2415815E3,5.9222034E2,4.171737E2,1.0475784E2,6.11024E1,1.7029315E2,3.9815628E2,3.4794075E1,5.6847546E1,1.09416766E5,1.0431183E3,2.4518706E3,1.2354882E4,3.6950314E2,1.6446964E2,2.5293403E3,4.7302204E1,3.5834048E2,1.148107E2,1.2414885E3,2.3897455E2,1.4343064E4,7.831811E4,2.2734834E4,1.7091136E3,2.5017375E3,7.313997E2,2.396879E3,6.7715744E1,3.7778174E3,9.0258344E2,6.4786685E3,2.2072407E3,1.0685696E3,7.393759E2,3.84618E2,8.763937E1,3.5366415E2,4.2884885E2,2.0694005E2,1.5560971E2,9.742875E2,2.8923909E3,6.8891736E2,3.486343E1,1.3664827E3,6.893328E2,8.0751794E2,6.597416E2,2.4529014E3,2.8679734E3,2.0170082E3,6.525111E2,5.380705E2,1.9230803E2,6.16756E2,5.2270294E1,1.3769649E2,9.1239174E1,1.2895055E2,3.492422E2,6.723526E2,1.9093304E2,3.3524283E2,4.963447E2,5.474821E1,4.760145E2,1.003518E3,1.633096E3,3.754575E4,9.098233E4,2.4186826E3,1.5465469E4,5.703667E2,3.3431702E3,1.7099367E2,1.0146409E2,1.3080311E3,4.7698677E1,5.5506393E1,1.8850294E2,1.4750597E2,5.659066E2,5.8208795E2,9.5892E1,1.0233429E2,4.813937E2,8.164644E1,5.95582E2,4.3429336E3,1.9324536E3,7.7494316E1,2.658904E2,9.506959E2,4.8678772E2,3.293441E4,2.023802E4,2.3791099E3,5.435847E4,1.4348022E4,5.644965E4,1.1652108E4,7.5546025E3,1.5458234E3,6.990607E3,8.0106744E2,7.83417E3,1.7124766E4,1.3278527E4,9.486647E3,1.3701146E3,5.9731125E4,1.5812631E4,1.5462698E2,2.6953635E2,1.5847745E4,1.2318542E3,6.200295E2,1.3009013E4,4.967848E4,4.4954363E4,9.919801E3,1.4332025E4,2.8464025E4,1.242352E4,7.80282E4,6.34257E4,3.529657E3,1.9212101E3,5.9209698E1,4.45017E1,8.893704E2,6.807742E2,1.3232278E2,4.994035E2,3.3139618E1,5.3284653E1,4.847202E1,3.877932E1,3.828267E2,3.9576423E3,2.0676213E2,4.0348196E3,1.5896265E2,4.332577E2,2.4621361E2,1.7096011E2,7.0904724E1,3.385312E1,4.909176E1,1.212014E2,1.6052127E2,2.3763501E2],"tree_param":{"num_deleted":"0","num_feature":"58","num_nodes":"349","size_leaf_vector":"1"}},{"base_weights":[-3.8863844E-4,-6.593029E-1,4.150878E-1,-2.0293593E-1,-1.3766073E0,1.1506915E0,1.7432089E-1,-2.4602212E-1,1.2466013E0,-1.556594E-1,-1.4803476E0,1.5395734E0,8.705178E-1,2.1777594E-1,-1.100998E0,2.7955461E-2,-5.4918045E-1,1.374576E0,1.3216291E-1,-3.2620364E-1,1.1797808E0,-1.5254829E0,-1.0237072E0,1.1872365E0,1.6049346E0,3.7322676E-1,1.0180473E0,-8.4077024E-1,2.5575438E-1,-1.2320336E0,3.7979412E-1,7.751491E-2,-9.086204E-1,-1.4483665E-1,-8.758962E-1,9.2406535E-1,1.4433537E0,-8.0802643E-1,4.7121158E-1,-9.767274E-1,-4.840778E-3,1.2533917E0,3.5631023E-2,-9.558474E-1,-1.546084E0,3.3057895E-1,-1.4666317E0,-4.2365733E-1,1.2341161E0,1.5705372E0,1.7325354E0,-1.2707866E0,4.100951E-1,-6.0608476E-1,1.062265E0,1.11680076E-1,-1.0629941E0,2.1971785E-2,3.6196664E-1,-8.183669E-1,-1.4806918E0,6.252727E-1,-8.554554E-1,-5.3234994E-1,1.1000111E-1,-1.0296421E0,-3.7818363E-1,4.164119E-1,-3.6726254E-1,-7.4472314E-1,-1.2859819E0,1.1625924E0,1.6773424E-1,1.4980433E0,1.130639E0,-4.6914095E-1,-1.4321189E-1,6.5755874E-1,-1.367163E-1,-1.1740022E0,-6.0413766E-1,-3.0250955E-1,4.8560414E-1,5.194018E-1,1.310446E0,-8.98206E-2,5.7341862E-2,-1.1192504E0,1.4040385E0,-1.4267901E0,-1.5829929E0,1.2250121E0,-2.8834444E-1,-1.5732303E0,-1.8836057E-1,3.8137376E-1,-1.7355239E0,1.5528052E0,1.126218E0,1.6028093E0,1.3752528E0,1.4264049E-1,1.7512388E0,-2.655353E-1,-1.5936583E0,3.7544894E-1,8.768018E-1,6.3186103E-1,-1.1126616E0,1.379117E0,8.86547E-1,6.773702E-1,-3.3851767E-1,-1.1324686E0,1.0707605E0,-6.5269554E-1,3.226895E-1,4.2739502E-1,9.878897E-2,-1.0560002E0,-2.4784257E-1,-1.1403232E0,-1.6612905E0,-2.9053878E-2,1.040985E0,-1.6394938E0,6.678946E-2,-2.2932172E-1,-6.2036854E-1,1.2614916E-1,-2.142958E-1,-6.372223E-1,-1.2701544E0,-1.8775165E-1,-1.3918096E0,5.7805556E-1,-4.8931998E-1,-2.1267712E-1,-1.4273854E0,-6.8192476E-1,-1.18961E0,-1.1783322E0,-1.5635288E0,1.387383E0,9.020122E-1,4.6514243E-1,-4.985142E-2,1.5052171E0,3.884303E-2,7.699218E-1,1.3279767E0,-9.004455E-1,-1.1656564E-1,9.1129357E-1,1.7484257E-1,-7.693143E-1,-1.2823925E0,-6.9771224E-1,3.370689E-1,-4.389704E-1,1.2388679E-1,-5.163309E-2,6.8984044E-1,1.06360465E-1,-2.5909154E-2,9.1096723E-1,1.3961902E0,-7.636817E-1,-1.3648543E0,1.6291438E-1,9.936593E-1,-1.4729177E0,-5.49283E-3,-1.3750602E0,-1.5969797E0,-7.734787E-1,1.4479532E0,-1.4028454E0,3.3301052E-1,-1.6349686E0,-1.328786E0,-1.6854465E0,1.6426729E0,1.3736756E-1,-9.352259E-2,-1.6736284E-1,-1.1054595E-1,1.6687562E0,1.4498736E0,1.0612336E0,1.2804003E0,1.5857316E0,1.6818545E0,1.1236309E0,1.4601395E0,1.6908593E0,1.7970102E0,-8.3060306E-1,5.0884157E-2,-1.8265324E0,-8.604505E-1,3.9874703E-1,-4.7583672E-1,1.3668035E0,-1.7035754E0,-9.711891E-1,9.3476564E-1,-3.114255E-1,-1.8007549E0,1.0470672E0,1.4139471E0,9.161756E-1,-5.403113E-1,-1.1785949E-1,9.1342205E-1,-7.876476E-2,-1.4464507E0,-8.533903E-1,-1.6191838E0,-1.5229923E-1,1.57412E-1,-2.371546E-2,-1.5783598E0,-7.9809284E-1,6.515116E-1,4.0414375E-1,1.0477965E0,2.5173673E-1,-1.5324569E-1,-5.5475736E-1,-1.5696373E0,-1.6721694E0,6.608472E-1,-1.3379879E0,-3.8087192E-1,9.600493E-2,-1.6810992E0,2.2030883E-1,-6.514969E-1,1.2762171E0,6.985762E-1,-9.971661E-2,-1.5916069E-1,-5.6029405E-2,5.3451963E-2,-3.2395534E-2,8.8715665E-3,-4.8586454E-2,-7.389847E-2,3.9260997E-3,1.5375371E-2,-3.5379812E-2,4.723713E-2,-4.6142697E-2,-8.370835E-2,-9.63617E-2,-1.3104348E-1,-3.92777E-2,2.6540868E-2,-1.4225143E-1,-8.340691E-2,4.5031223E-2,1.351719E-1,-4.2335866E-3,-1.01855345E-1,-2.4180034E-2,9.980194E-2,-9.050993E-2,-1.5553951E-1,-6.356498E-2,1.387332E-3,-1.1153126E-1,-5.308578E-2,-8.0758914E-2,-1.1934116E-1,-1.3862757E-1,-1.0362732E-1,1.2650812E-1,8.2243055E-2,9.810302E-2,4.2075664E-2,5.8579598E-2,8.025368E-3,1.2042066E-1,1.3535722E-1,9.031295E-2,4.5131873E-2,9.512406E-2,1.2054185E-1,-1.3839568E-1,-1.6986959E-2,1.2976967E-2,-4.4615176E-2,2.290116E-2,9.068818E-2,-3.2608293E-2,3.5742573E-2,-3.8423374E-2,-9.385076E-2,-1.2312062E-1,-9.213303E-2,-7.171416E-2,-8.27958E-3,-3.2791172E-3,9.2367664E-2,-7.100829E-2,-3.0787438E-2,1.8476969E-2,-5.3343985E-2,-8.282344E-5,-6.715033E-2,1.11906394E-1,3.2660052E-2,9.650905E-2,-7.6878937E-3,1.0972198E-1,1.3161035E-1,-7.846775E-2,1.4832465E-2,-1.302986E-1,-9.0128355E-2,-4.7780564E-3,1.2855953E-1,-1.0894394E-1,-1.3386595E-1,-1.4158203E-1,1.2600626E-1,-1.2707637E-1,-1.0987992E-2,-1.410547E-1,-1.341669E-1,1.2971945E-1,-1.2812328E-1,1.4920165E-1,1.0225845E-1,-4.3125287E-2,-1.2996304E-1,-5.5492908E-2,6.54999E-2,-4.033279E-2,-1.4458969E-1,-1.22572E-1,-3.081845E-3,-1.0093154E-1,-1.5441622E-1,1.15480654E-1,1.4674036E-1,-7.7296406E-2,7.249729E-2,1.5051864E-1,1.4091113E-1,9.602704E-2,1.2799767E-1,3.7172873E-2,9.433296E-2,1.1626293E-1,2.4184901E-2,1.4073797E-1,1.311063E-1,1.4492497E-1,1.5169214E-1,4.7247175E-2,1.0565723E-1,1.3419403E-1,1.163153E-1,1.08519174E-1,1.4956194E-1,1.5830228E-1,1.01822786E-1,-1.1918547E-1,-2.185216E-2,-1.6873556E-1,-1.2659037E-1,3.0606403E-4,-1.6274899E-1,9.937225E-3,4.0941067E-2,4.294357E-2,-1.4982513E-1,1.2603816E-1,-3.0901453E-2,-1.6579692E-1,-7.559807E-2,-3.4071352E-2,-1.5283383E-1,4.078535E-2,1.2352666E-1,3.958995E-2,-8.594675E-2,-1.3452676E-1,-1.7861131E-1,1.11593716E-1,-9.19143E-2,1.2729558E-1,1.1358016E-1,-2.0049889E-2,8.324069E-2,-8.077453E-2,5.964044E-2,-1.0836868E-1,4.1171286E-2,9.3571424E-2,-5.716104E-2,1.1350429E-2,-1.2248035E-1,-3.154853E-2,-1.547492E-1,-1.1652625E-1,-5.1747795E-2,-1.4681643E-1,5.5703595E-2,2.8569344E-2,-6.582216E-2,1.2477629E-1,-1.6494796E-1,-1.1933006E-1,3.0249903E-2,-1.3913481E-1,6.0081016E-2,3.775064E-2,-1.6212128E-2,9.789442E-2,-7.8331634E-2,4.9139716E-2,-9.611794E-2,-7.7930175E-2,5.407999E-2,-1.0351637E-1,-3.5078827E-2,-1.6773912E-1,-8.0296315E-2,-2.274437E-2,-1.6761544E-1,-7.547353E-4,9.621316E-2,-9.605015E-2,-1.4094584E-1,-1.6433881E-1,6.575084E-2,1.0487066E-1,-9.834683E-2,-1.5809043E-1,-1.23830296E-1,3.87679E-2,-5.444148E-2,-1.1216645E-1,-1.5296226E-2,9.440289E-2,1.3366431E-1,-1.0563122E-1,8.930095E-2],"categories":[],"categories_nodes":[],"categories_segments":[],"categories_sizes":[],"default_left":[0,0,0,0,0,0,0,0,0,0,0,0,0,0,0,0,0,0,0,0,0,0,0,0,0,0,0,0,0,0,0,0,0,0,0,0,0,0,0,0,0,0,0,0,0,0,0,0,0,0,0,0,0,0,0,0,0,0,0,0,0,0,0,0,0,0,0,0,0,0,0,0,0,0,0,0,0,0,0,0,0,0,0,0,0,0,0,0,0,0,0,0,0,0,0,0,0,0,0,0,0,0,0,0,0,0,0,0,0,0,0,0,0,0,0,0,0,0,0,0,0,0,0,0,0,0,0,0,0,0,0,0,0,0,0,0,0,0,0,0,0,0,0,0,0,0,0,0,0,0,0,0,0,0,0,0,0,0,0,0,0,0,0,0,0,0,0,0,0,0,0,0,0,0,0,0,0,0,0,0,0,0,0,0,0,0,0,0,0,0,0,0,0,0,0,0,0,0,0,0,0,0,0,0,0,0,0,0,0,0,0,0,0,0,0,0,0,0,0,0,0,0,0,0,0,0,0,0,0,0,0,0,0,0,0,0,0,0,0,0,0,0,0,0,0,0,0,0,0,0,0,0,0,0,0,0,0,0,0,0,0,0,0,0,0,0,0,0,0,0,0,0,0,0,0,0,0,0,0,0,0,0,0,0,0,0,0,0,0,0,0,0,0,0,0,0,0,0,0,0,0,0,0,0,0,0,0,0,0,0,0,0,0,0,0,0,0,0,0,0,0,0,0,0,0,0,0,0,0,0,0,0,0,0,0,0,0,0,0,0,0,0,0,0,0,0,0,0,0,0,0,0,0,0,0,0,0,0,0,0,0,0,0,0,0,0,0,0,0,0,0,0,0,0,0,0,0,0,0,0,0,0,0,0,0,0,0,0,0,0,0,0,0,0,0,0,0,0,0,0,0,0,0,0,0,0,0,0,0,0,0,0,0,0,0,0,0,0,0,0,0,0,0,0,0,0,0,0,0,0,0,0,0,0,0,0,0,0,0,0,0,0,0,0,0,0,0,0,0,0,0],"id":3,"left_children":[1,3,5,7,9,11,13,15,17,19,21,23,25,27,29,31,33,35,37,39,41,43,45,47,49,51,53,55,57,59,61,63,65,67,69,71,73,75,77,79,81,83,85,87,89,91,93,95,97,99,101,103,105,107,109,111,113,115,117,119,121,123,125,127,129,131,133,135,137,139,141,143,145,147,149,151,-1,153,-1,155,157,159,161,163,165,-1,-1,167,169,171,173,175,177,179,181,183,185,187,189,191,193,-1,195,197,199,201,203,205,207,209,211,213,215,217,219,221,223,225,227,229,231,233,235,237,239,241,243,245,247,249,251,253,255,257,259,261,263,265,267,269,271,273,275,277,279,281,-1,283,-1,285,287,289,291,293,295,297,299,301,303,305,307,309,311,-1,-1,313,315,317,319,-1,321,323,325,327,329,331,333,335,337,339,341,343,345,-1,347,-1,-1,349,351,353,355,357,359,361,363,365,367,369,-1,371,373,375,377,379,381,383,385,387,389,391,393,395,397,399,401,403,405,407,409,-1,-1,411,413,415,417,419,421,423,425,427,429,431,433,435,437,439,441,443,445,447,449,-1,-1,-1,-1,-1,-1,-1,-1,-1,-1,-1,-1,-1,-1,-1,-1,-1,-1,-1,-1,-1,-1,-1,-1,-1,-1,-1,-1,-1,-1,-1,-1,-1,-1,-1,-1,-1,-1,-1,-1,-1,-1,-1,-1,-1,-1,-1,-1,-1,-1,-1,-1,-1,-1,-1,-1,-1,-1,-1,-1,-1,-1,-1,-1,-1,-1,-1,-1,-1,-1,-1,-1,-1,-1,-1,-1,-1,-1,-1,-1,-1,-1,-1,-1,-1,-1,-1,-1,-1,-1,-1,-1,-1,-1,-1,-1,-1,-1,-1,-1,-1,-1,-1,-1,-1,-1,-1,-1,-1,-1,-1,-1,-1,-1,-1,-1,-1,-1,-1,-1,-1,-1,-1,-1,-1,-1,-1,-1,-1,-1,-1,-1,-1,-1,-1,-1,-1,-1,-1,-1,-1,-1,-1,-1,-1,-1,-1,-1,-1,-1,-1,-1,-1,-1,-1,-1,-1,-1,-1,-1,-1,-1,-1,-1,-1,-1,-1,-1,-1,-1,-1,-1,-1,-1,-1,-1,-1,-1,-1,-1,-1,-1,-1,-1,-1,-1,-1,-1,-1,-1,-1,-1,-1,-1,-1,-1,-1,-1,-1,-1,-1,-1,-1,-1,-1,-1,-1,-1,-1,-1],"loss_changes":[3.2087047E5,1.4837322E5,1.2730959E5,1.7301055E4,2.2322656E4,1.9311578E4,3.001331E4,2.234409E4,1.1402617E3,3.1440527E3,3.3464375E3,1.7074688E3,7.5585E3,2.105484E4,3.4631191E3,6.559131E3,1.6870684E4,2.2091113E2,2.6329373E2,2.5589688E3,1.3162231E2,1.73325E3,8.7669795E3,8.7794727E2,2.7207812E2,1.4294023E3,5.7069297E3,3.8394707E3,1.255391E4,1.6851836E3,4.4067706E2,2.6590337E3,4.555044E2,7.125107E3,3.798586E3,1.7168915E2,1.0469629E2,6.02511E1,2.3029378E2,2.9679224E2,1.1964226E3,6.0828857E1,6.3049175E1,1.9921724E3,6.25875E2,1.9946956E3,1.5003496E3,3.4844116E2,3.8648633E2,3.0867188E2,2.4171875E1,1.6748163E2,3.7250757E2,1.3217648E3,4.3054844E3,8.7439655E2,2.181539E3,3.2044186E4,5.9861055E3,8.345293E2,6.274629E2,3.2956296E2,1.7441376E2,1.8089868E2,6.67308E2,5.448965E2,2.54704E2,2.3719949E3,6.6984097E3,1.4943867E3,5.095625E2,4.1166992E1,5.0470085E1,3.9416992E1,6.518335E1,2.3688145E1,0E0,6.7993835E1,0E0,1.1504639E2,1.23820496E2,2.9679907E2,3.396648E2,6.0935707E1,4.538794E1,0E0,0E0,4.206211E2,6.0048035E1,2.2107031E3,3.1465625E2,6.5765674E2,1.4755175E3,1.5123438E2,2.329634E3,1.1519776E2,7.756073E0,3.1632324E1,8.318848E1,5.4460938E1,1.4792578E2,0E0,2.825E1,6.108825E1,6.525055E1,4.2593652E2,2.0160891E3,2.9824576E2,8.237937E2,3.1764062E2,2.1041719E3,2.857124E2,5.5014984E2,1.9334941E3,9.421858E2,2.8351332E4,4.02626E4,4.0158594E3,2.6683364E3,1.1181763E3,2.3461228E3,5.3277295E2,2.3293555E2,7.3347115E1,5.877954E1,9.272705E0,4.3033405E1,7.0490326E1,7.7678955E1,4.832766E2,8.5686816E2,7.7216125E1,1.3591797E2,1.4157576E2,1.9473663E1,8.633159E2,7.2537366E2,3.0117483E3,7.0707715E2,1.364123E3,3.0929102E2,5.7459766E2,2.4892578E1,7.861389E0,3.0196198E1,1.230629E1,0E0,2.3073242E1,0E0,2.1379837E1,5.019043E0,3.321346E1,9.0975685E0,2.8443237E1,2.4599182E1,5.5251465E1,5.657202E1,9.134515E1,3.4160553E1,1.26007996E2,7.8330086E1,3.083859E1,4.1615625E2,0E0,0E0,4.574295E1,1.4937744E1,2.387904E2,1.1304053E2,0E0,8.7399536E1,3.8564062E2,2.456198E3,6.145791E2,5.9828125E1,2.311214E2,9.232373E1,5.2565796E1,5.451918E2,1.0426367E2,1.7687817E2,1.613733E1,1.2897949E0,0E0,1.07033936E2,0E0,0E0,1.111084E0,2.3232422E0,4.7447754E1,1.0784595E2,5.0875E1,7.96875E0,8.145288E1,4.6023438E1,2.4058594E1,1.8691406E1,2.3079254E1,0E0,7.997925E0,8.2496346E1,4.017063E2,6.7976544E2,1.5696729E2,3.7831604E1,4.3179237E1,1.1369293E2,3.5220328E2,4.724878E1,1.2276143E3,1.0433594E2,1.753082E3,4.6893207E2,2.290759E2,2.7924115E2,4.2424573E2,1.2379529E2,1.1315991E3,6.1088574E2,0E0,0E0,7.341454E3,1.7689488E4,1.5864746E4,6.126078E3,4.0448672E3,1.3003564E3,1.7838787E4,1.4752244E4,2.129123E2,4.76437E2,2.3490137E2,3.219079E2,1.8195215E2,1.2382577E3,1.020672E2,2.1028516E2,6.293202E1,4.0125957E1,2.0024902E1,1.8494551E2,0E0,0E0,0E0,0E0,0E0,0E0,0E0,0E0,0E0,0E0,0E0,0E0,0E0,0E0,0E0,0E0,0E0,0E0,0E0,0E0,0E0,0E0,0E0,0E0,0E0,0E0,0E0,0E0,0E0,0E0,0E0,0E0,0E0,0E0,0E0,0E0,0E0,0E0,0E0,0E0,0E0,0E0,0E0,0E0,0E0,0E0,0E0,0E0,0E0,0E0,0E0,0E0,0E0,0E0,0E0,0E0,0E0,0E0,0E0,0E0,0E0,0E0,0E0,0E0,0E0,0E0,0E0,0E0,0E0,0E0,0E0,0E0,0E0,0E0,0E0,0E0,0E0,0E0,0E0,0E0,0E0,0E0,0E0,0E0,0E0,0E0,0E0,0E0,0E0,0E0,0E0,0E0,0E0,0E0,0E0,0E0,0E0,0E0,0E0,0E0,0E0,0E0,0E0,0E0,0E0,0E0,0E0,0E0,0E0,0E0,0E0,0E0,0E0,0E0,0E0,0E0,0E0,0E0,0E0,0E0,0E0,0E0,0E0,0E0,0E0,0E0,0E0,0E0,0E0,0E0,0E0,0E0,0E0,0E0,0E0,0E0,0E0,0E0,0E0,0E0,0E0,0E0,0E0,0E0,0E0,0E0,0E0,0E0,0E0,0E0,0E0,0E0,0E0,0E0,0E0,0E0,0E0,0E0,0E0,0E0,0E0,0E0,0E0,0E0,0E0,0E0,0E0,0E0,0E0,0E0,0E0,0E0,0E0,0E0,0E0,0E0,0E0,0E0,0E0,0E0,0E0,0E0,0E0,0E0,0E0,0E0,0E0,0E0,0E0,0E0,0E0,0E0,0E0,0E0,0E0,0E0,0E0,0E0,0E0,0E0,0E0,0E0,0E0,0E0,0E0,0E0,0E0,0E0,0E0,0E0],"parents":[2147483647,0,0,1,1,2,2,3,3,4,4,5,5,6,6,7,7,8,8,9,9,10,10,11,11,12,12,13,13,14,14,15,15,16,16,17,17,18,18,19,19,20,20,21,21,22,22,23,23,24,24,25,25,26,26,27,27,28,28,29,29,30,30,31,31,32,32,33,33,34,34,35,35,36,36,37,37,38,38,39,39,40,40,41,41,42,42,43,43,44,44,45,45,46,46,47,47,48,48,49,49,50,50,51,51,52,52,53,53,54,54,55,55,56,56,57,57,58,58,59,59,60,60,61,61,62,62,63,63,64,64,65,65,66,66,67,67,68,68,69,69,70,70,71,71,72,72,73,73,74,74,75,75,77,77,79,79,80,80,81,81,82,82,83,83,84,84,87,87,88,88,89,89,90,90,91,91,92,92,93,93,94,94,95,95,96,96,97,97,98,98,99,99,100,100,102,102,103,103,104,104,105,105,106,106,107,107,108,108,109,109,110,110,111,111,112,112,113,113,114,114,115,115,116,116,117,117,118,118,119,119,120,120,121,121,122,122,123,123,124,124,125,125,126,126,127,127,128,128,129,129,130,130,131,131,132,132,133,133,134,134,135,135,136,136,137,137,138,138,139,139,140,140,141,141,142,142,143,143,144,144,145,145,147,147,149,149,150,150,151,151,152,152,153,153,154,154,155,155,156,156,157,157,158,158,159,159,160,160,161,161,162,162,165,165,166,166,167,167,168,168,170,170,171,171,172,172,173,173,174,174,175,175,176,176,177,177,178,178,179,179,180,180,181,181,182,182,184,184,187,187,188,188,189,189,190,190,191,191,192,192,193,193,194,194,195,195,196,196,197,197,199,199,200,200,201,201,202,202,203,203,204,204,205,205,206,206,207,207,208,208,209,209,210,210,211,211,212,212,213,213,214,214,215,215,216,216,217,217,218,218,221,221,222,222,223,223,224,224,225,225,226,226,227,227,228,228,229,229,230,230,231,231,232,232,233,233,234,234,235,235,236,236,237,237,238,238,239,239,240,240],"right_children":[2,4,6,8,10,12,14,16,18,20,22,24,26,28,30,32,34,36,38,40,42,44,46,48,50,52,54,56,58,60,62,64,66,68,70,72,74,76,78,80,82,84,86,88,90,92,94,96,98,100,102,104,106,108,110,112,114,116,118,120,122,124,126,128,130,132,134,136,138,140,142,144,146,148,150,152,-1,154,-1,156,158,160,162,164,166,-1,-1,168,170,172,174,176,178,180,182,184,186,188,190,192,194,-1,196,198,200,202,204,206,208,210,212,214,216,218,220,222,224,226,228,230,232,234,236,238,240,242,244,246,248,250,252,254,256,258,260,262,264,266,268,270,272,274,276,278,280,282,-1,284,-1,286,288,290,292,294,296,298,300,302,304,306,308,310,312,-1,-1,314,316,318,320,-1,322,324,326,328,330,332,334,336,338,340,342,344,346,-1,348,-1,-1,350,352,354,356,358,360,362,364,366,368,370,-1,372,374,376,378,380,382,384,386,388,390,392,394,396,398,400,402,404,406,408,410,-1,-1,412,414,416,418,420,422,424,426,428,430,432,434,436,438,440,442,444,446,448,450,-1,-1,-1,-1,-1,-1,-1,-1,-1,-1,-1,-1,-1,-1,-1,-1,-1,-1,-1,-1,-1,-1,-1,-1,-1,-1,-1,-1,-1,-1,-1,-1,-1,-1,-1,-1,-1,-1,-1,-1,-1,-1,-1,-1,-1,-1,-1,-1,-1,-1,-1,-1,-1,-1,-1,-1,-1,-1,-1,-1,-1,-1,-1,-1,-1,-1,-1,-1,-1,-1,-1,-1,-1,-1,-1,-1,-1,-1,-1,-1,-1,-1,-1,-1,-1,-1,-1,-1,-1,-1,-1,-1,-1,-1,-1,-1,-1,-1,-1,-1,-1,-1,-1,-1,-1,-1,-1,-1,-1,-1,-1,-1,-1,-1,-1,-1,-1,-1,-1,-1,-1,-1,-1,-1,-1,-1,-1,-1,-1,-1,-1,-1,-1,-1,-1,-1,-1,-1,-1,-1,-1,-1,-1,-1,-1,-1,-1,-1,-1,-1,-1,-1,-1,-1,-1,-1,-1,-1,-1,-1,-1,-1,-1,-1,-1,-1,-1,-1,-1,-1,-1,-1,-1,-1,-1,-1,-1,-1,-1,-1,-1,-1,-1,-1,-1,-1,-1,-1,-1,-1,-1,-1,-1,-1,-1,-1,-1,-1,-1,-1,-1,-1,-1,-1,-1,-1,-1,-1,-1,-1],"split_conditions":[1.8494055E-2,1.4941251E-1,2.1217E4,1.13646696E-4,4E0,3.274E3,6.230707E0,1E0,1.01E2,1.8954718E-4,2.8533114E-3,2.009E3,2.009E3,3.0169302E-1,2.4683408E4,5.5613947E0,1E0,5.951495E-4,2.8533114E-3,2.0524578E4,1.65E2,4.2E1,1.413E4,1.2484014E-1,5.2443285E4,3.3099252E-1,4.5454547E-2,2.3854962E-2,3.9034095E-2,1.2406378E1,9.777E4,6.882625E-2,3.396955E3,7.759671E-5,4.2E1,1.3E1,2.7E1,4.04E2,1.5679E4,1.8507856E-1,7.302E3,2.1393762E-4,5.012083E-3,2.5169264E-5,7.0746325E-2,1.428E3,6.6671944E-1,1.3493463E-1,6.21E2,1.048E3,3E0,3.2917302E-2,1.5101758E-1,9.1436385E-5,3.4443465E4,8.4722E-3,1.9253608E-2,1.4362407E-4,7E0,1.7092E5,6.808398E-4,6.7534234E4,1.0773513E-3,7.229358E3,2.3022966E0,5E0,1.8E1,2.3732437E-1,9.096E3,5.5613947E0,2.395E3,4E0,3.5E1,1.2406378E1,4.3001813E-3,1.023751E-3,-1.4321189E-1,3.36E2,-1.367163E-1,1.1046224E4,3.851732E4,1.7061768E-1,2.014E3,6.69E2,1.023751E-3,-8.98206E-2,5.7341862E-2,3.89E2,1.910597E-7,7.0639506E-2,1E1,2.009E3,2.012E3,5.54229E3,2.322E3,4.2E1,1.8085226E2,1.36E2,1.5101758E-1,3E0,3.3099252E-1,1.4264049E-1,2.015E3,1.9438585E-2,2E-1,9.088339E2,7.89E2,2.015E3,1.3493463E-1,1.7839278E-1,7.9722524E0,2.0524578E4,7.3800393E-4,8.68105E-4,5.025E3,2.919E4,1.4301E4,4.819462E4,5.1491E4,2.2330011E-4,1.8471016E-1,3.5911708E-4,6E0,1.4301314E5,1.532E3,7.832241E-3,3.2047674E-1,1.03E2,2.019E3,2.016E3,6.090794E3,3.783811E1,1.7913141E1,7.6080015E3,1.4739792E4,7.4181975E-5,4.2176744E-6,5.171E3,1.0773513E-3,1.658791E4,4.6727305E3,4.7720136E-4,1.04778E5,2.00509E0,5.449005E-1,3.2752936E-3,-4.985142E-2,1.6E-3,3.884303E-2,4.2E1,2.018E3,2.212928E3,1.53243E3,2.018E3,1.5101758E-1,1.1941318E-3,5.616205E3,2E0,7.576065E4,8.567185E-3,9.072919E-1,7E0,2E0,1.06360465E-1,-2.5909154E-2,3.1E1,4.4281627E-3,2.9546347E5,3.9E1,1.6291438E-1,2.3596035E-4,5.1E1,2E0,2.519E5,1.1033111E5,1.36E2,3.36E2,1.03E2,5.26181E-1,2.2002913E-3,7.640119E-1,1.5974442E-2,4.288E1,1.3736756E-1,7.519864E-2,-1.6736284E-1,-1.1054595E-1,3.5E1,9.0339285E-1,2.5000626E-1,9.150921E0,1.19E2,5.119454E3,3.2917302E-2,3.8511837E-1,3.2774247E-2,2.7927E4,1.5995085E-4,5.0884157E-2,9.1926664E-1,1.3493463E-1,7.4E1,1.13E2,2.8433838E1,1.3493463E-1,1.17E2,3.9885908E-1,3.4443465E4,9.117E3,4.5833334E-1,1.413E4,1.4752187E-1,2.6689957E4,8.481966E-2,9.7438064E-4,8.695E3,6.8197234E4,8.481966E-2,1.273915E5,-1.5229923E-1,1.57412E-1,3.6678516E4,1.3725281E3,4.205978E-3,1.855684E3,2.475262E0,2.14292E5,9.898643E-4,2.1297564E-1,3.531957E-2,3.786878E3,8.5593116E-1,9.999139E-1,3.783811E1,2.2540295E3,2.8632656E-5,3.1340173E3,1.4763E4,9.997809E-1,2.5228372E5,1.6662414E-4,-9.971661E-2,-1.5916069E-1,-5.6029405E-2,5.3451963E-2,-3.2395534E-2,8.8715665E-3,-4.8586454E-2,-7.389847E-2,3.9260997E-3,1.5375371E-2,-3.5379812E-2,4.723713E-2,-4.6142697E-2,-8.370835E-2,-9.63617E-2,-1.3104348E-1,-3.92777E-2,2.6540868E-2,-1.4225143E-1,-8.340691E-2,4.5031223E-2,1.351719E-1,-4.2335866E-3,-1.01855345E-1,-2.4180034E-2,9.980194E-2,-9.050993E-2,-1.5553951E-1,-6.356498E-2,1.387332E-3,-1.1153126E-1,-5.308578E-2,-8.0758914E-2,-1.1934116E-1,-1.3862757E-1,-1.0362732E-1,1.2650812E-1,8.2243055E-2,9.810302E-2,4.2075664E-2,5.8579598E-2,8.025368E-3,1.2042066E-1,1.3535722E-1,9.031295E-2,4.5131873E-2,9.512406E-2,1.2054185E-1,-1.3839568E-1,-1.6986959E-2,1.2976967E-2,-4.4615176E-2,2.290116E-2,9.068818E-2,-3.2608293E-2,3.5742573E-2,-3.8423374E-2,-9.385076E-2,-1.2312062E-1,-9.213303E-2,-7.171416E-2,-8.27958E-3,-3.2791172E-3,9.2367664E-2,-7.100829E-2,-3.0787438E-2,1.8476969E-2,-5.3343985E-2,-8.282344E-5,-6.715033E-2,1.11906394E-1,3.2660052E-2,9.650905E-2,-7.6878937E-3,1.0972198E-1,1.3161035E-1,-7.846775E-2,1.4832465E-2,-1.302986E-1,-9.0128355E-2,-4.7780564E-3,1.2855953E-1,-1.0894394E-1,-1.3386595E-1,-1.4158203E-1,1.2600626E-1,-1.2707637E-1,-1.0987992E-2,-1.410547E-1,-1.341669E-1,1.2971945E-1,-1.2812328E-1,1.4920165E-1,1.0225845E-1,-4.3125287E-2,-1.2996304E-1,-5.5492908E-2,6.54999E-2,-4.033279E-2,-1.4458969E-1,-1.22572E-1,-3.081845E-3,-1.0093154E-1,-1.5441622E-1,1.15480654E-1,1.4674036E-1,-7.7296406E-2,7.249729E-2,1.5051864E-1,1.4091113E-1,9.602704E-2,1.2799767E-1,3.7172873E-2,9.433296E-2,1.1626293E-1,2.4184901E-2,1.4073797E-1,1.311063E-1,1.4492497E-1,1.5169214E-1,4.7247175E-2,1.0565723E-1,1.3419403E-1,1.163153E-1,1.08519174E-1,1.4956194E-1,1.5830228E-1,1.01822786E-1,-1.1918547E-1,-2.185216E-2,-1.6873556E-1,-1.2659037E-1,3.0606403E-4,-1.6274899E-1,9.937225E-3,4.0941067E-2,4.294357E-2,-1.4982513E-1,1.2603816E-1,-3.0901453E-2,-1.6579692E-1,-7.559807E-2,-3.4071352E-2,-1.5283383E-1,4.078535E-2,1.2352666E-1,3.958995E-2,-8.594675E-2,-1.3452676E-1,-1.7861131E-1,1.11593716E-1,-9.19143E-2,1.2729558E-1,1.1358016E-1,-2.0049889E-2,8.324069E-2,-8.077453E-2,5.964044E-2,-1.0836868E-1,4.1171286E-2,9.3571424E-2,-5.716104E-2,1.1350429E-2,-1.2248035E-1,-3.154853E-2,-1.547492E-1,-1.1652625E-1,-5.1747795E-2,-1.4681643E-1,5.5703595E-2,2.8569344E-2,-6.582216E-2,1.2477629E-1,-1.6494796E-1,-1.1933006E-1,3.0249903E-2,-1.3913481E-1,6.0081016E-2,3.775064E-2,-1.6212128E-2,9.789442E-2,-7.8331634E-2,4.9139716E-2,-9.611794E-2,-7.7930175E-2,5.407999E-2,-1.0351637E-1,-3.5078827E-2,-1.6773912E-1,-8.0296315E-2,-2.274437E-2,-1.6761544E-1,-7.547353E-4,9.621316E-2,-9.605015E-2,-1.4094584E-1,-1.6433881E-1,6.575084E-2,1.0487066E-1,-9.834683E-2,-1.5809043E-1,-1.23830296E-1,3.87679E-2,-5.444148E-2,-1.1216645E-1,-1.5296226E-2,9.440289E-2,1.3366431E-1,-1.0563122E-1,8.930095E-2],"split_indices":[48,49,54,48,5,54,50,54,54,48,48,0,0,48,38,50,35,48,48,55,54,54,54,48,55,48,48,57,50,50,46,50,38,29,54,54,54,54,54,50,20,29,48,48,57,54,28,57,54,54,5,57,50,28,55,57,29,29,52,35,28,38,29,38,50,35,13,57,54,50,54,54,54,50,48,48,0,54,0,38,38,50,0,35,48,0,0,35,28,57,35,0,0,19,46,54,55,54,50,5,48,0,0,57,48,19,35,0,57,48,50,55,29,29,46,35,46,19,35,29,57,28,35,55,35,57,49,35,0,0,38,50,50,38,38,29,29,54,29,19,38,29,19,50,50,29,0,48,0,54,0,19,19,0,50,29,55,43,20,50,50,31,7,0,0,54,29,38,54,0,48,35,46,54,38,54,54,35,49,57,57,57,19,0,48,0,0,54,48,28,50,54,55,57,57,48,35,29,0,49,57,46,46,50,57,46,57,55,35,57,54,48,38,48,29,35,55,48,19,0,0,38,38,28,38,50,46,29,57,57,38,49,49,50,38,29,38,35,48,38,29,0,0,0,0,0,0,0,0,0,0,0,0,0,0,0,0,0,0,0,0,0,0,0,0,0,0,0,0,0,0,0,0,0,0,0,0,0,0,0,0,0,0,0,0,0,0,0,0,0,0,0,0,0,0,0,0,0,0,0,0,0,0,0,0,0,0,0,0,0,0,0,0,0,0,0,0,0,0,0,0,0,0,0,0,0,0,0,0,0,0,0,0,0,0,0,0,0,0,0,0,0,0,0,0,0,0,0,0,0,0,0,0,0,0,0,0,0,0,0,0,0,0,0,0,0,0,0,0,0,0,0,0,0,0,0,0,0,0,0,0,0,0,0,0,0,0,0,0,0,0,0,0,0,0,0,0,0,0,0,0,0,0,0,0,0,0,0,0,0,0,0,0,0,0,0,0,0,0,0,0,0,0,0,0,0,0,0,0,0,0,0,0,0,0,0,0,0,0,0,0,0,0,0,0,0,0,0,0,0,0],"split_type":[0,0,0,0,0,0,0,0,0,0,0,0,0,0,0,0,0,0,0,0,0,0,0,0,0,0,0,0,0,0,0,0,0,0,0,0,0,0,0,0,0,0,0,0,0,0,0,0,0,0,0,0,0,0,0,0,0,0,0,0,0,0,0,0,0,0,0,0,0,0,0,0,0,0,0,0,0,0,0,0,0,0,0,0,0,0,0,0,0,0,0,0,0,0,0,0,0,0,0,0,0,0,0,0,0,0,0,0,0,0,0,0,0,0,0,0,0,0,0,0,0,0,0,0,0,0,0,0,0,0,0,0,0,0,0,0,0,0,0,0,0,0,0,0,0,0,0,0,0,0,0,0,0,0,0,0,0,0,0,0,0,0,0,0,0,0,0,0,0,0,0,0,0,0,0,0,0,0,0,0,0,0,0,0,0,0,0,0,0,0,0,0,0,0,0,0,0,0,0,0,0,0,0,0,0,0,0,0,0,0,0,0,0,0,0,0,0,0,0,0,0,0,0,0,0,0,0,0,0,0,0,0,0,0,0,0,0,0,0,0,0,0,0,0,0,0,0,0,0,0,0,0,0,0,0,0,0,0,0,0,0,0,0,0,0,0,0,0,0,0,0,0,0,0,0,0,0,0,0,0,0,0,0,0,0,0,0,0,0,0,0,0,0,0,0,0,0,0,0,0,0,0,0,0,0,0,0,0,0,0,0,0,0,0,0,0,0,0,0,0,0,0,0,0,0,0,0,0,0,0,0,0,0,0,0,0,0,0,0,0,0,0,0,0,0,0,0,0,0,0,0,0,0,0,0,0,0,0,0,0,0,0,0,0,0,0,0,0,0,0,0,0,0,0,0,0,0,0,0,0,0,0,0,0,0,0,0,0,0,0,0,0,0,0,0,0,0,0,0,0,0,0,0,0,0,0,0,0,0,0,0,0,0,0,0,0,0,0,0,0,0,0,0,0,0,0,0,0,0,0,0,0,0,0,0,0,0,0,0,0,0,0,0,0,0,0,0,0,0,0,0],"sum_hessian":[1.1720705E6,4.5324984E5,7.188206E5,2.7701025E5,1.7623958E5,1.7725575E5,5.415649E5,2.6901488E5,7.9953936E3,1.3802053E4,1.6243752E5,7.422573E4,1.0303002E5,5.2372053E5,1.7844357E4,1.4130878E5,1.27706086E5,7.17162E3,8.237734E2,1.2239718E4,1.5623344E3,1.4782395E5,1.461356E4,1.1617793E4,6.260793E4,2.357322E4,7.9456805E4,1.8138479E4,5.0558206E5,1.6393832E4,1.4505254E3,1.34208E5,7.1007754E3,5.7073418E4,7.063267E4,9.51766E2,6.219854E3,2.1796591E2,6.0580743E2,4.046496E3,8.193223E3,1.467805E3,9.452924E1,5.161179E3,1.4266278E5,3.6015906E3,1.1011969E4,3.2830728E2,1.1289486E4,4.932476E4,1.3283169E4,5.1631903E2,2.30569E4,2.1055708E3,7.7351234E4,3.4315166E3,1.4706962E4,1.5794103E5,3.4764103E5,6.156385E3,1.0237448E4,1.2104658E3,2.4005954E2,6.7866455E3,1.2742136E5,5.7808955E3,1.3198802E3,1.6198577E4,4.087484E4,5.3517105E4,1.7115564E4,7.231623E2,2.2860365E2,5.2907773E3,9.2907697E2,1.5546426E2,6.250165E1,5.5543475E2,5.0372646E1,2.6442808E3,1.4022152E3,5.098899E3,3.0943232E3,1.0659457E2,1.3612104E3,3.458083E1,5.9948414E1,4.8274434E3,3.3373572E2,3.3718906E4,1.08943875E5,1.4725562E3,2.1290344E3,1.0164124E4,8.478447E2,2.0389548E2,1.2441182E2,2.8520986E3,8.437388E3,4.2323336E4,7.0014272E3,1.9622407E3,1.1320929E4,1.2596213E2,3.903569E2,2.1465227E4,1.5916747E3,6.1134674E2,1.4942241E3,2.7591613E4,4.975962E4,1.5204768E3,1.9110398E3,1.4243662E4,4.6330005E2,4.869391E4,1.0924711E5,2.7842212E5,6.92189E4,4.3455405E3,1.8108441E3,3.5514524E3,6.6859956E3,4.706298E2,7.3983606E2,1.2933165E2,1.1072789E2,1.5283807E3,5.2582646E3,1.2137806E5,6.0432944E3,2.1981091E3,3.5827861E3,1.1121278E3,2.0775249E2,1.3745768E4,2.45281E3,3.56741E4,5.2007393E3,4.68995E4,6.617606E3,1.233611E4,4.779455E3,3.8592145E2,3.3724088E2,1.6302568E2,6.557797E1,5.2546504E3,3.6126637E1,3.3027066E2,5.988063E2,6.922616E1,8.623811E1,3.6348486E2,1.9194992E2,5.6032825E2,2.0839526E3,1.2756492E3,1.2656607E2,3.8626838E3,1.2362151E3,8.5252637E2,2.2417969E3,5.7386395E1,4.920817E1,2.4259502E2,1.1186155E3,1.9738893E3,2.8535542E3,1.5740508E2,1.7633066E2,3.2658938E4,1.0599683E3,6.872613E3,1.02071266E5,1.4753677E2,1.3250194E3,7.6164417E2,1.3673901E3,8.110097E3,2.054027E3,4.6650302E2,3.8134174E2,5.7769314E1,1.4612616E2,8.956144E1,3.485038E1,1.334071E3,1.5180275E3,5.941191E3,2.4961968E3,3.4821293E4,7.5020425E3,1.7697511E3,5.2316763E3,4.897854E3,6.4230747E3,7.548687E1,5.0475258E1,2.9512967E2,9.522725E1,2.089393E4,5.712959E2,1.3380547E3,2.5362009E2,9.6807884E1,5.145388E2,6.910258E2,8.031983E2,2.6223923E3,2.496922E4,4.8747734E4,1.01188556E3,3.481393E2,1.1723375E3,1.54896E3,3.620798E2,9.054591E3,5.1890713E3,9.448163E1,3.6881842E2,2.8993875E4,1.9700035E4,2.4780826E4,8.446629E4,2.6836603E5,1.0056108E4,4.3077332E4,2.6141566E4,2.200358E3,2.1451826E3,7.0498083E2,1.1058633E3,2.817398E3,7.340544E2,7.448339E1,6.611512E3,3.3647678E2,1.3415303E2,4.3693674E2,3.0289932E2,3.487378E1,9.445788E1,4.8049557E1,6.2678333E1,1.0745684E3,4.5381232E2,4.0333691E3,1.2248958E3,4.5522047E4,7.5856016E4,4.832681E3,1.2106133E3,1.6246779E3,5.734313E2,2.0144592E3,1.5683269E3,7.271927E2,3.8493506E2,1.3542313E2,7.2329346E1,1.2870743E4,8.750244E2,1.47983E3,9.7298004E2,3.4093004E4,1.5810966E3,2.4132673E3,2.7874722E3,4.425536E4,2.6441426E3,5.820479E3,7.971274E2,5.0644224E3,7.271688E3,4.601566E3,1.7788931E2,3.4355185E2,4.2369576E1,2.2259137E2,1.146495E2,1.0537494E2,5.765074E1,1.1103567E3,4.144294E3,1.6298164E2,1.6728903E2,9.546484E1,5.0334146E2,3.4787323E1,3.443883E1,5.1845314E1,3.4392796E1,5.7528744E1,3.0595612E2,5.706469E1,1.3488524E2,2.667469E2,2.935814E2,1.3765234E3,7.0742914E2,