{"learner":{"attributes":{"best_iteration":"52","best_score":"0.874783081219325","scikit_learn":"{\"_estimator_type\": \"classifier\"}"},"feature_names":["publish_year","publish_month","publish_quarter","deadline_days","contract_duration_days","buyer_country","tender_proceduretype","tender_supplytype","tender_selectionmethod","tender_lotscount","tender_recordedbidscount","lot_bidscount","tender_awardcriteria_count","tender_description_length","lot_description_length","tender_personalrequirements_length","tender_technicalrequirements_length","tender_economicrequirements_length","tender_corrections_count","bid_priceUsd","tender_digiwhist_price","bid_digiwhist_price","tender_estimatedpriceUsd","tender_finalpriceUsd","submission_period","corr_singleb","corr_proc","corr_subm","cri","corr_buyer_concentration","lot_status","buyer_buyertype","filter_ok","filter_losingbids","pit_total_entries","pit_total_wins","pit_win_rate_overall","pit_win_rate_country","pit_avg_contract_value","pit_last_win_years_ago","pit_experience_score","pit_recency_score","pit_is_incumbent","pit_country_count","pit_is_international","pit_buyer_win_count","pit_buyer_entry_count","pit_win_rate_buyer","actual_num_competitors","competition_baseline","buyer_total_past_awards","buyer_avg_contract_value","buyer_avg_competitors"],"feature_types":["float","float","float","float","float","float","float","float","float","float","float","float","float","float","float","float","float","float","float","float","float","float","float","float","float","float","float","float","float","float","float","float","float","float","float","float","float","float","float","float","float","float","float","float","float","float","float","float","float","float","float","float","float"],"gradient_booster":{"model":{"gbtree_model_param":{"num_parallel_tree":"1","num_trees":"103"},"iteration_indptr":[0,1,2,3,4,5,6,7,8,9,10,11,12,13,14,15,16,17,18,19,20,21,22,23,24,25,26,27,28,29,30,31,32,33,34,35,36,37,38,39,40,41,42,43,44,45,46,47,48,49,50,51,52,53,54,55,56,57,58,59,60,61,62,63,64,65,66,67,68,69,70,71,72,73,74,75,76,77,78,79,80,81,82,83,84,85,86,87,88,89,90,91,92,93,94,95,96,97,98,99,100,101,102,103],"tree_info":[0,0,0,0,0,0,0,0,0,0,0,0,0,0,0,0,0,0,0,0,0,0,0,0,0,0,0,0,0,0,0,0,0,0,0,0,0,0,0,0,0,0,0,0,0,0,0,0,0,0,0,0,0,0,0,0,0,0,0,0,0,0,0,0,0,0,0,0,0,0,0,0,0,0,0,0,0,0,0,0,0,0,0,0,0,0,0,0,0,0,0,0,0,0,0,0,0,0,0,0,0,0,0],"trees":[{"base_weights":[-6.9407764E-4,-8.5576296E-1,4.5658323E-1,-2.3674037E-1,-1.6583428E0,1.4046662E0,2.0140141E-1,8.380912E-3,-6.569162E-1,-1.8769892E0,-2.4219714E-1,1.9104592E0,1.0562501E0,3.134921E-1,-2.0229784E-1,-1.9471349E-1,1.7865703E-1,-9.735287E-1,-1.2629656E-1,-1.3581147E0,-1.9395746E0,5.1847345E-1,-1.0709299E0,1.9184611E0,-5.9670883E-1,8.014498E-1,1.5073805E0,1.247484E-1,6.046209E-1,4.2499012E-1,-8.639583E-1,-1.8430595E-1,-1.2095488E0,4.6189953E-2,3.1891328E-1,-8.5724074E-1,-1.1670173E0,1.1633266E-1,-3.9361122E-1,-1.1084613E0,-1.4798907E0,-1.3444579E0,-1.9502721E0,1.521933E-2,9.0305996E-1,-7.90171E-1,-1.6384199E0,1.9640206E0,1.6948025E0,-1.5598435E0,5.481953E-1,1.4882605E0,5.5211884E-1,1.5782831E0,-5.3365123E-1,5.226962E-1,-9.988735E-1,-6.8445903E-1,1.1211917E0,7.066487E-1,-4.403881E-1,-1.7035276E0,-5.1945683E-2,1.6515544E-1,-2.0176898E-1,-1.8800474E0,9.6609366E-1,5.3285923E-2,-2.0630081E-1,-2.669398E-1,3.3664173E-1,-6.9454074E-1,-1.0067832E0,-1.3875412E0,-9.9251395E-1,8.947204E-2,1.3499978E0,-8.041655E-1,-1.3217899E-1,-9.958872E-1,-1.4522786E0,-1.5749872E0,-1.0578201E0,-8.1015706E-1,-1.8369484E0,-1.851167E0,-1.9800789E0,2.0434342E-1,-8.9089525E-1,1.3933136E0,6.451652E-1,-4.471619E-1,-1.1571609E0,-1.7351758E0,4.437741E-1,1.5119252E-1,1.969918E0,1.5479525E0,1.9116286E0,-1.6092443E-1,-6.4950004E-2,-0E0,1.19288504E-1,7.454155E-1,1.5510628E0,6.177968E-1,-1.6633686E-1,1.597473E0,4.7976255E-1,-1.3934238E0,1.6739595E0,6.231939E-1,-1.2425559E0,-2.1136495E-1,-1.655638E0,9.695692E-2,-1.9547143E0,-1.6780196E-1,1.17209E0,8.8983697E-1,-3.3367056E-1,-1.534206E0,1.4013316E-1,4.8722973E-1,-1.8895456E0,-1.6777782E-1,7.234428E-2,-4.419038E-1,8.011643E-1,-1.733805E-1,-2.9535013E-1,-7.983078E-2,-1.6299765E-1,1.2733616E-2,1.4628366E0,-1.8050699E-1,5.9470057E-2,-2.972758E-1,1.302494E-1,2.3728506E-1,-4.266462E-1,3.224128E-1,9.131286E-1,-6.1796606E-1,-8.7264735E-1,-9.520951E-1,-1.2815946E0,-1.1922275E0,-1.5637652E0,-1.4332546E0,-6.2557125E-1,1.6657662E-2,2.9640427E-1,1.4246447E-1,1.0514318E-1,-5.947985E-1,-1.077271E0,-1.8168066E-1,4.662477E-1,-9.1231835E-1,-1.1524992E0,-1.2940147E0,-1.6203781E0,-1.7742655E0,-1.4935796E0,-1.459183E0,-3.6438832E-1,-5.9421426E-1,-1.626042E-1,-1.6204612E-1,-1.4121668E0,-1.3815267E0,-1.8865715E0,-1.980769E0,-5.410008E-2,3.6112663E-1,-4.0046343E-1,-1.7444678E-1,-1.5476133E0,1.17825E0,1.584064E0,-3.477861E-1,7.6143545E-1,-7.8117573E-1,-1.1727101E-1,-8.059884E-1,-1.4530904E0,-1.2088457E0,-1.9759587E0,1.1802735E0,-1.26456E-1,1.6681787E-1,1.9181935E0,1.1031795E0,1.7059095E0,1.8363539E0,1.6498306E-1,1.5213338E0,-1.7414135E0,1.3596671E0,1.6507152E0,3.3500087E-1,7.6324177E-1,1.4739673E0,1.7319114E0,-1.7272062E0,1.7034899E0,-1.788872E0,1.3174216E-1,1.5457255E-1,1.8169004E-2,7.2114784E-1,2.1693452E-1,-7.3878604E-1,-1.663136E0,-1.1398183E0,9.104584E-1,-1.8809563E0,-5.219908E-1,4.0812495E-1,-1.6672054E-1,-1.3487657E0,-1.67982E-1,7.325274E-1,1.2492375E0,1.0105444E0,5.895955E-1,2.3287807E-1,-1.696916E0,-1.9711716E0,-5.731967E-1,-1.2373794E0,4.9343082E-1,-1.2702087E0,1.2181925E0,-1.2740115E0,-1.948162E0,6.3702255E-1,-1.320393E-1,-1.02531295E-2,-7.934477E-2,9.803183E-3,9.243871E-2,-2.60321E-3,-4.0613305E-2,-8.2967594E-2,1.4979119E-2,7.082035E-2,1.5117994E-1,3.0675167E-3,-3.1781133E-2,5.4384777E-3,-8.416941E-3,-4.2198528E-2,-2.0429205E-2,2.1856634E-2,-8.77956E-3,3.997706E-2,1.9680294E-3,1.8534038E-2,-4.5051295E-2,3.7048772E-2,2.2157984E-2,4.6265192E-2,8.4542595E-2,-4.807969E-2,-1.0940047E-1,-9.2163734E-2,7.752385E-5,-6.686605E-2,-8.896974E-2,-2.4271999E-2,-1.12325236E-1,-8.917268E-2,-1.18798874E-1,-1.2675656E-1,-1.6296849E-1,-1.0080512E-1,-1.3103421E-1,-6.2057942E-2,-9.674143E-3,1.1399926E-2,-1.5386506E-2,1.2552705E-2,3.819247E-2,-2.3047902E-2,-6.340635E-2,-5.191867E-2,-9.976872E-2,-3.7856624E-3,-3.072116E-2,3.6650784E-3,7.491918E-2,-6.506598E-2,-8.708741E-2,-1.0560981E-1,-6.7258015E-2,-7.311277E-2,-1.16321966E-1,-1.4037752E-1,-8.3993234E-2,-1.3276425E-1,-1.5505336E-1,-1.1422298E-1,-1.354749E-1,-1.4106807E-1,-1.1148549E-1,-5.2126896E-2,4.9724933E-3,-7.236216E-2,7.296774E-3,-7.02443E-2,-1.5071517E-1,-1.3304032E-1,-6.4527996E-2,-1.4730842E-1,-1.6350445E-1,-1.6361015E-1,-1.6750242E-1,5.2874003E-2,9.635164E-3,-9.553458E-2,1.751183E-2,1.0375601E-2,-6.6028945E-2,3.757931E-2,-1.4847837E-1,9.257429E-2,1.2985055E-1,1.4720766E-1,1.15982726E-1,5.3957883E-2,-1.0119416E-1,4.470837E-2,9.6852876E-2,-2.3796702E-2,-9.693318E-2,-1.827109E-2,5.879056E-2,-9.571849E-2,-4.9639482E-2,-1.3550974E-1,-7.2436094E-2,-1.427753E-1,-3.281067E-2,-1.666718E-1,-1.0842696E-1,3.86223E-2,1.2315048E-1,1.5682071E-1,1.6451806E-1,1.14287384E-1,7.305088E-2,1.4680453E-1,1.01390414E-1,1.068583E-1,1.5655185E-1,1.3995436E-1,-4.5517653E-2,-4.2825937E-2,-1.6068871E-1,6.8607904E-2,1.1596801E-1,1.4641652E-1,1.2207892E-1,7.605833E-2,-1.352254E-1,4.1091517E-2,9.835785E-2,1.4603859E-1,6.877756E-2,1.2931754E-1,1.5375522E-1,-5.9379183E-2,-1.6208203E-1,3.39952E-2,1.542291E-1,-6.364526E-2,-1.6214828E-1,1.1373676E-1,5.6362763E-2,-1.4684271E-2,1.05803736E-1,-1.561841E-1,-1.7236102E-2,-1.616899E-1,-1.1728744E-1,-1.5928496E-1,-4.1294795E-2,1.0826723E-1,2.0805605E-2,-1.2112808E-1,-1.6580983E-1,-1.08953804E-1,1.0957774E-1,7.1256086E-2,-7.86152E-2,-1.6756949E-1,8.52978E-2,3.187985E-2,1.2719364E-1,1.982617E-2,1.10268615E-1,1.0046217E-1,7.175946E-2,-8.0244236E-2,6.647702E-2,-1.02046005E-1,5.2402135E-2,-3.5357323E-2,-1.5968879E-1,-1.0888807E-1,-1.6791496E-1,2.4355557E-2,-1.6724925E-1,-1.347109E-1,3.7241347E-2,4.697007E-3,8.753619E-2,-1.6481902E-1,-3.8199122E-3,1.1307587E-1,-1.6009547E-1,-1.1990931E-2,-1.5507193E-1,-1.6498587E-1,-8.789595E-2,8.524315E-2,3.7841578E-3,6.872909E-4,-1.15368254E-1],"categories":[],"categories_nodes":[],"categories_segments":[],"categories_sizes":[],"default_left":[0,0,0,0,0,0,0,0,0,0,0,0,0,0,0,0,0,0,0,0,0,0,0,0,0,0,0,0,0,0,0,0,0,0,0,0,0,0,0,0,0,0,0,0,0,0,0,0,0,0,0,0,0,0,0,0,0,0,0,0,0,0,0,0,0,0,0,0,0,0,0,0,0,0,0,0,0,0,0,0,0,0,0,0,0,0,0,0,0,0,0,0,0,0,0,0,0,0,0,0,0,0,0,0,0,0,0,0,0,0,0,0,0,0,0,0,0,0,0,0,0,0,0,0,0,0,0,0,0,0,0,0,0,0,0,0,0,0,0,0,0,0,0,0,0,0,0,0,0,0,0,0,0,0,0,0,0,0,0,0,0,0,0,0,0,0,0,0,0,0,0,0,0,0,0,0,0,0,0,0,0,0,0,0,0,0,0,0,0,0,0,0,0,0,0,0,0,0,0,0,0,0,0,0,0,0,0,0,0,0,0,0,0,0,0,0,0,0,0,0,0,0,0,0,0,0,0,0,0,0,0,0,0,0,0,0,0,0,0,0,0,0,0,0,0,0,0,0,0,0,0,0,0,0,0,0,0,0,0,0,0,0,0,0,0,0,0,0,0,0,0,0,0,0,0,0,0,0,0,0,0,0,0,0,0,0,0,0,0,0,0,0,0,0,0,0,0,0,0,0,0,0,0,0,0,0,0,0,0,0,0,0,0,0,0,0,0,0,0,0,0,0,0,0,0,0,0,0,0,0,0,0,0,0,0,0,0,0,0,0,0,0,0,0,0,0,0,0,0,0,0,0,0,0,0,0,0,0,0,0,0,0,0,0,0,0,0,0,0,0,0,0,0,0,0,0,0,0,0,0,0,0,0,0,0,0,0,0,0,0,0,0,0,0,0,0,0,0,0,0,0,0,0,0,0,0,0,0,0,0,0,0,0,0,0,0,0,0,0,0,0,0,0,0,0,0,0,0,0,0,0],"id":0,"left_children":[1,3,5,7,9,11,13,15,17,19,21,23,25,27,29,31,33,35,37,39,41,43,45,47,49,51,53,55,57,59,61,63,65,67,69,71,73,75,77,79,81,83,85,87,89,91,93,95,97,99,101,103,105,107,109,111,113,115,117,119,121,123,125,127,129,131,133,135,137,139,141,143,145,147,149,151,153,155,157,159,161,163,165,167,169,171,173,175,177,179,181,183,185,187,189,-1,191,193,195,-1,-1,-1,-1,197,199,201,-1,203,205,207,209,211,213,215,217,219,221,-1,223,225,227,229,231,233,235,-1,237,239,241,243,245,-1,-1,-1,247,249,251,253,255,257,259,261,263,265,267,269,271,273,275,277,279,281,283,-1,-1,285,287,289,291,293,295,297,299,301,303,305,307,309,-1,-1,311,313,315,317,-1,319,321,323,325,327,329,331,333,335,337,339,341,343,345,347,-1,-1,349,351,353,355,-1,357,359,361,363,365,367,369,371,373,375,377,-1,-1,-1,379,381,383,385,387,389,391,393,395,-1,397,-1,399,401,403,405,407,409,411,413,415,417,419,421,423,425,427,429,-1,-1,-1,-1,-1,-1,-1,-1,-1,-1,-1,-1,-1,-1,-1,-1,-1,-1,-1,-1,-1,-1,-1,-1,-1,-1,-1,-1,-1,-1,-1,-1,-1,-1,-1,-1,-1,-1,-1,-1,-1,-1,-1,-1,-1,-1,-1,-1,-1,-1,-1,-1,-1,-1,-1,-1,-1,-1,-1,-1,-1,-1,-1,-1,-1,-1,-1,-1,-1,-1,-1,-1,-1,-1,-1,-1,-1,-1,-1,-1,-1,-1,-1,-1,-1,-1,-1,-1,-1,-1,-1,-1,-1,-1,-1,-1,-1,-1,-1,-1,-1,-1,-1,-1,-1,-1,-1,-1,-1,-1,-1,-1,-1,-1,-1,-1,-1,-1,-1,-1,-1,-1,-1,-1,-1,-1,-1,-1,-1,-1,-1,-1,-1,-1,-1,-1,-1,-1,-1,-1,-1,-1,-1,-1,-1,-1,-1,-1,-1,-1,-1,-1,-1,-1,-1,-1,-1,-1,-1,-1,-1,-1,-1,-1,-1,-1,-1,-1,-1,-1,-1,-1,-1,-1,-1,-1,-1,-1,-1,-1,-1,-1,-1,-1,-1,-1,-1,-1,-1,-1,-1,-1],"loss_changes":[4.2775728E5,1.893811E5,1.7244828E5,2.2166172E4,5.1392125E4,2.6631312E4,2.541491E4,4.7004917E3,1.3320039E4,4.6592812E3,1.3998949E4,1.2411406E3,1.0284227E4,2.4153824E4,5.0660086E4,6.5274854E2,1.3733184E3,1.1128203E3,1.9225566E3,4.6407227E2,8.068125E2,2.23999E3,1.6876074E3,6.141094E2,2.2121637E2,9.79307E3,4.678242E3,1.19250984E5,1.1513389E5,1.5272762E4,4.0494277E4,3.745808E2,9.213997E2,6.801811E1,3.7325977E2,7.515371E2,7.1111914E2,5.1308484E2,1.5125571E3,1.9090576E2,4.1052734E2,5.923462E2,3.59125E2,8.599118E2,8.2532764E2,8.929053E2,7.1121484E2,3.6421875E1,3.208789E2,2.3981354E1,4.2641266E1,7.0554297E2,6.985382E3,6.541719E2,2.0670522E3,3.494027E4,3.607285E4,4.910022E4,1.9603375E4,9.010131E3,9.771766E3,1.1905117E4,7.3065845E3,1.128296E3,1.5467285E2,1.9698242E1,5.8236954E1,5.3400513E1,3.1994167E1,8.536524E1,2.8395947E2,2.0000098E2,2.3755078E2,2.7548926E2,1.6796885E3,2.2883096E2,2.8533325E0,3.103379E2,2.5532303E2,4.560034E1,2.495459E1,1.2755078E2,5.3174E2,2.613399E2,3.625952E1,4.7540625E2,8.340625E1,3.9436334E2,4.0521014E2,8.514551E1,4.9821228E2,4.0480737E2,3.5174902E2,4.1644043E2,2.306175E2,0E0,2.8671875E1,4.3013184E2,3.7558594E0,0E0,0E0,0E0,0E0,2.3101133E3,2.5914844E2,1.6813926E3,0E0,4.9976562E2,1.4675593E3,9.250558E2,7.1157715E1,7.4139844E3,2.2422168E3,3.304311E4,9.709539E3,1.9845258E4,5.112422E2,0E0,4.1143594E3,1.4536484E3,5.4697334E3,2.2350771E3,4.8934375E3,2.942258E3,9.617422E2,0E0,3.277042E3,2.3903381E2,2.9116907E2,1.980915E3,4.4609062E3,0E0,0E0,0E0,1.2674072E1,4.1184E1,3.0457283E1,8.0318985E0,6.940028E0,1.2444887E1,5.7730545E1,2.3561133E2,2.5421265E1,3.2012964E2,8.775564E2,2.217832E2,1.4596338E2,1.0717041E2,7.733008E1,1.3243457E2,3.282422E2,2.6797137E2,9.127594E1,0E0,0E0,1.5825464E2,1.171416E2,1.9994281E2,1.1739615E2,3.9446045E1,4.433728E1,2.0114014E1,1.1914307E1,2.3201172E1,8.787695E1,2.6621582E1,7.7625565E1,1.6946469E2,0E0,0E0,4.27182E1,2.5036621E2,2.0488281E2,2.984375E1,0E0,2.175831E2,3.8554443E2,7.709665E1,2.0172632E2,2.3005249E1,3.1394775E1,3.864893E2,3.4292554E2,3.3740808E2,1.5224571E2,1.0978296E2,1.703418E2,4.2327637E2,4.1103516E0,2.034729E1,0E0,0E0,1.18828125E1,9.349646E1,8.848242E1,1.8876953E1,0E0,2.76708E2,5.5486694E1,5.07959E1,1.5899414E2,1.5441003E4,3.0166318E3,2.7742852E3,2.6846484E2,3.4033752E1,5.629419E1,9.503369E1,0E0,0E0,0E0,4.7456484E3,1.4797307E4,2.8876514E3,3.9371973E2,8.511123E3,3.6042266E3,1.2910234E3,8.943604E3,1.5778881E4,0E0,2.0400046E3,0E0,5.0040195E3,6.6844062E3,8.261953E2,3.6027102E3,2.8347693E3,5.386919E2,6.038379E1,2.050465E3,1.2682852E3,1.9210406E3,5.6840063E2,6.5464014E2,1.5193481E3,3.5839062E2,1.6877498E3,3.631099E3,0E0,0E0,0E0,0E0,0E0,0E0,0E0,0E0,0E0,0E0,0E0,0E0,0E0,0E0,0E0,0E0,0E0,0E0,0E0,0E0,0E0,0E0,0E0,0E0,0E0,0E0,0E0,0E0,0E0,0E0,0E0,0E0,0E0,0E0,0E0,0E0,0E0,0E0,0E0,0E0,0E0,0E0,0E0,0E0,0E0,0E0,0E0,0E0,0E0,0E0,0E0,0E0,0E0,0E0,0E0,0E0,0E0,0E0,0E0,0E0,0E0,0E0,0E0,0E0,0E0,0E0,0E0,0E0,0E0,0E0,0E0,0E0,0E0,0E0,0E0,0E0,0E0,0E0,0E0,0E0,0E0,0E0,0E0,0E0,0E0,0E0,0E0,0E0,0E0,0E0,0E0,0E0,0E0,0E0,0E0,0E0,0E0,0E0,0E0,0E0,0E0,0E0,0E0,0E0,0E0,0E0,0E0,0E0,0E0,0E0,0E0,0E0,0E0,0E0,0E0,0E0,0E0,0E0,0E0,0E0,0E0,0E0,0E0,0E0,0E0,0E0,0E0,0E0,0E0,0E0,0E0,0E0,0E0,0E0,0E0,0E0,0E0,0E0,0E0,0E0,0E0,0E0,0E0,0E0,0E0,0E0,0E0,0E0,0E0,0E0,0E0,0E0,0E0,0E0,0E0,0E0,0E0,0E0,0E0,0E0,0E0,0E0,0E0,0E0,0E0,0E0,0E0,0E0,0E0,0E0,0E0,0E0,0E0,0E0,0E0,0E0,0E0,0E0,0E0,0E0,0E0,0E0,0E0,0E0,0E0,0E0,0E0,0E0,0E0,0E0,0E0,0E0],"parents":[2147483647,0,0,1,1,2,2,3,3,4,4,5,5,6,6,7,7,8,8,9,9,10,10,11,11,12,12,13,13,14,14,15,15,16,16,17,17,18,18,19,19,20,20,21,21,22,22,23,23,24,24,25,25,26,26,27,27,28,28,29,29,30,30,31,31,32,32,33,33,34,34,35,35,36,36,37,37,38,38,39,39,40,40,41,41,42,42,43,43,44,44,45,45,46,46,47,47,48,48,49,49,50,50,51,51,52,52,53,53,54,54,55,55,56,56,57,57,58,58,59,59,60,60,61,61,62,62,63,63,64,64,65,65,66,66,67,67,68,68,69,69,70,70,71,71,72,72,73,73,74,74,75,75,76,76,77,77,78,78,79,79,80,80,81,81,82,82,83,83,84,84,85,85,86,86,87,87,88,88,89,89,90,90,91,91,92,92,93,93,94,94,96,96,97,97,98,98,103,103,104,104,105,105,107,107,108,108,109,109,110,110,111,111,112,112,113,113,114,114,115,115,116,116,118,118,119,119,120,120,121,121,122,122,123,123,124,124,126,126,127,127,128,128,129,129,130,130,134,134,135,135,136,136,137,137,138,138,139,139,140,140,141,141,142,142,143,143,144,144,145,145,146,146,147,147,148,148,149,149,150,150,151,151,152,152,155,155,156,156,157,157,158,158,159,159,160,160,161,161,162,162,163,163,164,164,165,165,166,166,167,167,170,170,171,171,172,172,173,173,175,175,176,176,177,177,178,178,179,179,180,180,181,181,182,182,183,183,184,184,185,185,186,186,187,187,188,188,189,189,192,192,193,193,194,194,195,195,197,197,198,198,199,199,200,200,201,201,202,202,203,203,204,204,205,205,206,206,207,207,211,211,212,212,213,213,214,214,215,215,216,216,217,217,218,218,219,219,221,221,223,223,224,224,225,225,226,226,227,227,228,228,229,229,230,230,231,231,232,232,233,233,234,234,235,235,236,236,237,237,238,238],"right_children":[2,4,6,8,10,12,14,16,18,20,22,24,26,28,30,32,34,36,38,40,42,44,46,48,50,52,54,56,58,60,62,64,66,68,70,72,74,76,78,80,82,84,86,88,90,92,94,96,98,100,102,104,106,108,110,112,114,116,118,120,122,124,126,128,130,132,134,136,138,140,142,144,146,148,150,152,154,156,158,160,162,164,166,168,170,172,174,176,178,180,182,184,186,188,190,-1,192,194,196,-1,-1,-1,-1,198,200,202,-1,204,206,208,210,212,214,216,218,220,222,-1,224,226,228,230,232,234,236,-1,238,240,242,244,246,-1,-1,-1,248,250,252,254,256,258,260,262,264,266,268,270,272,274,276,278,280,282,284,-1,-1,286,288,290,292,294,296,298,300,302,304,306,308,310,-1,-1,312,314,316,318,-1,320,322,324,326,328,330,332,334,336,338,340,342,344,346,348,-1,-1,350,352,354,356,-1,358,360,362,364,366,368,370,372,374,376,378,-1,-1,-1,380,382,384,386,388,390,392,394,396,-1,398,-1,400,402,404,406,408,410,412,414,416,418,420,422,424,426,428,430,-1,-1,-1,-1,-1,-1,-1,-1,-1,-1,-1,-1,-1,-1,-1,-1,-1,-1,-1,-1,-1,-1,-1,-1,-1,-1,-1,-1,-1,-1,-1,-1,-1,-1,-1,-1,-1,-1,-1,-1,-1,-1,-1,-1,-1,-1,-1,-1,-1,-1,-1,-1,-1,-1,-1,-1,-1,-1,-1,-1,-1,-1,-1,-1,-1,-1,-1,-1,-1,-1,-1,-1,-1,-1,-1,-1,-1,-1,-1,-1,-1,-1,-1,-1,-1,-1,-1,-1,-1,-1,-1,-1,-1,-1,-1,-1,-1,-1,-1,-1,-1,-1,-1,-1,-1,-1,-1,-1,-1,-1,-1,-1,-1,-1,-1,-1,-1,-1,-1,-1,-1,-1,-1,-1,-1,-1,-1,-1,-1,-1,-1,-1,-1,-1,-1,-1,-1,-1,-1,-1,-1,-1,-1,-1,-1,-1,-1,-1,-1,-1,-1,-1,-1,-1,-1,-1,-1,-1,-1,-1,-1,-1,-1,-1,-1,-1,-1,-1,-1,-1,-1,-1,-1,-1,-1,-1,-1,-1,-1,-1,-1,-1,-1,-1,-1,-1,-1,-1,-1,-1,-1,-1],"split_conditions":[1E0,2.5E1,1.7984E4,1E0,4E0,8.77E2,7E0,3E0,7E0,5E0,1.2623802E-4,9.9379E4,2.012E3,4.5264E4,1.14872E5,6.3E1,2.016E3,2.5359544E-1,3.5035892E-3,3.736919E-4,4.1E1,1.6041131E4,3.193E3,8.17E2,7.4E1,6.5268774E2,1.60199E5,9.7438064E-4,3.736919E-4,9.898643E-4,9.898643E-4,5E0,4.974727E4,7E0,5E0,6E0,1.18752E3,5E0,1.51E3,1.24E2,1.4673225E4,8.493755E2,1.17E2,1.7984E4,2.3032255E-6,1.6300426E-3,1.9E1,2.159676E1,1.09E2,2.6253504E4,7E0,7E0,8.8701E4,6.4856E4,7.4972E4,5.2895E4,7.9342E4,2.03786E5,8.7553516E2,5.1496E4,8.556969E3,2.321436E3,3.6099E4,6.6615254E3,3.365E3,3.138517E2,2.014E3,5E0,2.008E3,6.9636584E-4,1.5E1,7.3569214E3,4.18E2,5E0,3.51247E3,1.66E3,6.6637896E3,1.3531672E-2,3.6E1,1.53E2,9.5E1,1.283631E3,8.53906E3,4.5711E4,5.918003E4,5.73E2,3E0,5.000011E-1,3.1605314E-6,1.0504362E5,1.4078902E2,2.183422E3,5.7E1,8.0225256E-4,3.3E1,1.5119252E-1,1.1E2,6.7439006E-4,3.0121475E-3,-1.6092443E-1,-6.4950004E-2,-0E0,1.19288504E-1,5.4E1,2.009E3,8.8E1,-1.6633686E-1,1.081E3,2.015E3,6.6672736E-1,2.612963E2,4.562456E4,8.0631E4,8.285E3,1.06281664E5,1.8392613E4,2.9861365E4,-1.6780196E-1,1.10138E5,1.2418E4,9.095171E3,5.9014E4,1.333E3,7.147935E-5,1.60199E5,-1.6777782E-1,7.0185125E4,3E3,2.6E1,5.4925327E3,3.51247E3,-7.983078E-2,-1.6299765E-1,1.2733616E-2,3.5677972E5,4E0,1.19631305E-1,2.5131267E-1,5.61099E5,4E0,2E0,1.3178857E-3,2.017E3,7.2999345E-3,3.8E3,8.5882284E-4,5E0,5.5588584E3,6.813E3,7E0,2.5142035E4,9.987948E-4,2.018E3,1.4246447E-1,1.0514318E-1,3E0,2E0,6E0,2.016E3,9.658983E-5,2.4696277E3,1E1,1.8461539E0,1.1137098E-3,2.2674284E-3,1.0726073E0,4.348488E4,5.4084063E-5,-1.626042E-1,-1.6204612E-1,1.54E2,1.1492893E5,1.2091232E-5,2.325E3,-5.410008E-2,1.647444E-8,1E0,4.1994E4,1.67125E-5,7E0,1.66202E-7,1.2964591E-5,2.51681E5,5.7E1,5E0,2.9359133E3,2.6246E4,3.5463005E3,2.951679E5,2.6E1,-1.26456E-1,1.6681787E-1,1.3E1,9E0,1.2916E4,5E0,1.6498306E-1,3.736919E-4,2.85E2,1.2E1,1.0444294E4,1.65E2,6.210441E-4,1.744E3,4.0619867E-4,1.47237415E-5,8.0225256E-4,1.1556521E-5,1.3174216E-1,1.5457255E-1,1.8169004E-2,2.0937E4,1.229814E4,5.74E2,1.3412E4,2.75899E4,3.8227E4,1.6099724E-3,1.2842152E-1,7.2402E4,-1.6672054E-1,7.2391E4,-1.67982E-1,5E0,9.7438064E-4,2.2062552E-5,1.0235326E-5,2.4280349E-5,2.6253504E4,2.3421742E4,2.3092064E-3,7.8851475E5,4.6876064E-3,1.217009E3,5.6920736E-4,1.0444294E4,6.6672736E-1,7.47344E5,7.384145E-3,-1.02531295E-2,-7.934477E-2,9.803183E-3,9.243871E-2,-2.60321E-3,-4.0613305E-2,-8.2967594E-2,1.4979119E-2,7.082035E-2,1.5117994E-1,3.0675167E-3,-3.1781133E-2,5.4384777E-3,-8.416941E-3,-4.2198528E-2,-2.0429205E-2,2.1856634E-2,-8.77956E-3,3.997706E-2,1.9680294E-3,1.8534038E-2,-4.5051295E-2,3.7048772E-2,2.2157984E-2,4.6265192E-2,8.4542595E-2,-4.807969E-2,-1.0940047E-1,-9.2163734E-2,7.752385E-5,-6.686605E-2,-8.896974E-2,-2.4271999E-2,-1.12325236E-1,-8.917268E-2,-1.18798874E-1,-1.2675656E-1,-1.6296849E-1,-1.0080512E-1,-1.3103421E-1,-6.2057942E-2,-9.674143E-3,1.1399926E-2,-1.5386506E-2,1.2552705E-2,3.819247E-2,-2.3047902E-2,-6.340635E-2,-5.191867E-2,-9.976872E-2,-3.7856624E-3,-3.072116E-2,3.6650784E-3,7.491918E-2,-6.506598E-2,-8.708741E-2,-1.0560981E-1,-6.7258015E-2,-7.311277E-2,-1.16321966E-1,-1.4037752E-1,-8.3993234E-2,-1.3276425E-1,-1.5505336E-1,-1.1422298E-1,-1.354749E-1,-1.4106807E-1,-1.1148549E-1,-5.2126896E-2,4.9724933E-3,-7.236216E-2,7.296774E-3,-7.02443E-2,-1.5071517E-1,-1.3304032E-1,-6.4527996E-2,-1.4730842E-1,-1.6350445E-1,-1.6361015E-1,-1.6750242E-1,5.2874003E-2,9.635164E-3,-9.553458E-2,1.751183E-2,1.0375601E-2,-6.6028945E-2,3.757931E-2,-1.4847837E-1,9.257429E-2,1.2985055E-1,1.4720766E-1,1.15982726E-1,5.3957883E-2,-1.0119416E-1,4.470837E-2,9.6852876E-2,-2.3796702E-2,-9.693318E-2,-1.827109E-2,5.879056E-2,-9.571849E-2,-4.9639482E-2,-1.3550974E-1,-7.2436094E-2,-1.427753E-1,-3.281067E-2,-1.666718E-1,-1.0842696E-1,3.86223E-2,1.2315048E-1,1.5682071E-1,1.6451806E-1,1.14287384E-1,7.305088E-2,1.4680453E-1,1.01390414E-1,1.068583E-1,1.5655185E-1,1.3995436E-1,-4.5517653E-2,-4.2825937E-2,-1.6068871E-1,6.8607904E-2,1.1596801E-1,1.4641652E-1,1.2207892E-1,7.605833E-2,-1.352254E-1,4.1091517E-2,9.835785E-2,1.4603859E-1,6.877756E-2,1.2931754E-1,1.5375522E-1,-5.9379183E-2,-1.6208203E-1,3.39952E-2,1.542291E-1,-6.364526E-2,-1.6214828E-1,1.1373676E-1,5.6362763E-2,-1.4684271E-2,1.05803736E-1,-1.561841E-1,-1.7236102E-2,-1.616899E-1,-1.1728744E-1,-1.5928496E-1,-4.1294795E-2,1.0826723E-1,2.0805605E-2,-1.2112808E-1,-1.6580983E-1,-1.08953804E-1,1.0957774E-1,7.1256086E-2,-7.86152E-2,-1.6756949E-1,8.52978E-2,3.187985E-2,1.2719364E-1,1.982617E-2,1.10268615E-1,1.0046217E-1,7.175946E-2,-8.0244236E-2,6.647702E-2,-1.02046005E-1,5.2402135E-2,-3.5357323E-2,-1.5968879E-1,-1.0888807E-1,-1.6791496E-1,2.4355557E-2,-1.6724925E-1,-1.347109E-1,3.7241347E-2,4.697007E-3,8.753619E-2,-1.6481902E-1,-3.8199122E-3,1.1307587E-1,-1.6009547E-1,-1.1990931E-2,-1.5507193E-1,-1.6498587E-1,-8.789595E-2,8.524315E-2,3.7841578E-3,6.872909E-4,-1.15368254E-1],"split_indices":[42,50,50,50,39,50,48,39,39,5,29,34,0,45,34,13,0,28,29,29,50,51,50,34,45,51,34,29,29,29,29,6,38,48,6,50,20,5,20,34,38,51,34,50,29,29,11,51,45,51,11,45,34,45,45,34,50,34,38,34,38,38,45,38,20,38,0,6,0,29,13,38,34,50,38,20,51,29,13,50,50,38,19,34,38,50,39,28,29,51,19,19,50,29,11,0,34,29,29,0,0,0,0,34,0,45,0,45,0,28,19,38,50,45,38,38,51,0,34,34,38,34,45,29,34,0,51,20,34,38,38,0,0,0,38,6,29,28,20,6,6,29,0,29,20,29,6,38,34,34,38,29,0,0,0,50,50,50,0,29,19,6,52,29,29,52,19,29,0,0,34,38,29,34,0,29,25,50,28,48,29,29,50,50,5,19,19,19,19,11,0,0,45,6,34,5,0,29,34,6,38,34,29,34,29,28,29,28,0,0,0,50,19,45,45,38,50,29,28,51,0,50,0,11,29,29,29,29,51,51,29,38,28,38,29,38,28,34,28,0,0,0,0,0,0,0,0,0,0,0,0,0,0,0,0,0,0,0,0,0,0,0,0,0,0,0,0,0,0,0,0,0,0,0,0,0,0,0,0,0,0,0,0,0,0,0,0,0,0,0,0,0,0,0,0,0,0,0,0,0,0,0,0,0,0,0,0,0,0,0,0,0,0,0,0,0,0,0,0,0,0,0,0,0,0,0,0,0,0,0,0,0,0,0,0,0,0,0,0,0,0,0,0,0,0,0,0,0,0,0,0,0,0,0,0,0,0,0,0,0,0,0,0,0,0,0,0,0,0,0,0,0,0,0,0,0,0,0,0,0,0,0,0,0,0,0,0,0,0,0,0,0,0,0,0,0,0,0,0,0,0,0,0,0,0,0,0,0,0,0,0,0,0,0,0,0,0,0,0,0,0,0,0,0,0,0,0,0,0,0,0],"split_type":[0,0,0,0,0,0,0,0,0,0,0,0,0,0,0,0,0,0,0,0,0,0,0,0,0,0,0,0,0,0,0,0,0,0,0,0,0,0,0,0,0,0,0,0,0,0,0,0,0,0,0,0,0,0,0,0,0,0,0,0,0,0,0,0,0,0,0,0,0,0,0,0,0,0,0,0,0,0,0,0,0,0,0,0,0,0,0,0,0,0,0,0,0,0,0,0,0,0,0,0,0,0,0,0,0,0,0,0,0,0,0,0,0,0,0,0,0,0,0,0,0,0,0,0,0,0,0,0,0,0,0,0,0,0,0,0,0,0,0,0,0,0,0,0,0,0,0,0,0,0,0,0,0,0,0,0,0,0,0,0,0,0,0,0,0,0,0,0,0,0,0,0,0,0,0,0,0,0,0,0,0,0,0,0,0,0,0,0,0,0,0,0,0,0,0,0,0,0,0,0,0,0,0,0,0,0,0,0,0,0,0,0,0,0,0,0,0,0,0,0,0,0,0,0,0,0,0,0,0,0,0,0,0,0,0,0,0,0,0,0,0,0,0,0,0,0,0,0,0,0,0,0,0,0,0,0,0,0,0,0,0,0,0,0,0,0,0,0,0,0,0,0,0,0,0,0,0,0,0,0,0,0,0,0,0,0,0,0,0,0,0,0,0,0,0,0,0,0,0,0,0,0,0,0,0,0,0,0,0,0,0,0,0,0,0,0,0,0,0,0,0,0,0,0,0,0,0,0,0,0,0,0,0,0,0,0,0,0,0,0,0,0,0,0,0,0,0,0,0,0,0,0,0,0,0,0,0,0,0,0,0,0,0,0,0,0,0,0,0,0,0,0,0,0,0,0,0,0,0,0,0,0,0,0,0,0,0,0,0,0,0,0,0,0,0,0,0,0,0,0,0,0,0,0,0,0,0,0,0,0,0,0,0,0,0,0,0,0,0,0,0,0,0,0,0,0,0,0,0,0,0],"sum_hessian":[1.0939922E6,3.8119347E5,7.127988E5,2.1520914E5,1.6598433E5,1.511632E5,5.6163556E5,1.3591786E5,7.929128E4,1.437833E5,2.220102E4,6.165083E4,8.9512375E4,4.3958416E5,1.2205142E5,6.1982734E4,7.393513E4,4.9657457E4,2.9633822E4,1.5484051E4,1.2829925E5,1.1575748E4,1.0625271E4,6.145568E4,1.9515022E2,5.720952E4,3.230286E4,2.6669097E5,1.7289319E5,6.2652805E4,5.9398617E4,6.1357492E4,6.252426E2,3.8028727E4,3.5906402E4,3.1028283E4,1.8629172E4,1.5533015E4,1.4100808E4,5.0877163E3,1.0396334E4,2.272895E3,1.2602636E5,5.016534E3,6.5592144E3,7.11372E3,3.5115518E3,5.1035344E4,1.0420336E4,1.0594616E2,8.920406E1,1.5232672E4,4.1976848E4,3.1219404E4,1.0834552E3,1.9694289E5,6.974808E4,4.9461492E4,1.23431695E5,4.7269414E4,1.5383392E4,2.9201797E4,3.0196822E4,2.9164866E3,5.8441004E4,4.7855756E2,1.4668504E2,3.699493E4,1.0337997E3,1.0519651E3,3.4854438E4,1.4870477E4,1.6157808E4,8.219069E3,1.0410104E4,1.5205496E4,3.275184E2,5.4823013E3,8.618507E3,3.842466E3,1.2452502E3,8.477037E3,1.9192974E3,1.0943876E3,1.1785074E3,2.9184727E4,9.684163E4,4.1528276E3,8.637065E2,2.255821E3,4.3033936E3,3.681322E3,3.432398E3,3.3564805E3,1.550715E2,1.8092607E3,4.9226082E4,6.227843E3,4.192493E3,6.949997E1,3.6446186E1,5.6977028E1,3.2227036E1,1.1912205E3,1.4041451E4,4.091818E4,1.0586669E3,3.0681377E4,5.380282E2,7.807694E2,3.0268573E2,1.8633675E5,1.0606139E4,3.1719262E4,3.8028812E4,3.0624188E4,1.8837307E4,1.9797491E3,1.21451945E5,4.019317E4,7.0762427E3,5.332797E3,1.0050595E4,2.284738E3,2.6917059E4,1.8109993E3,2.8385822E4,1.4918192E3,1.4246672E3,4.485248E4,1.3588523E4,3.3084637E1,4.454729E2,5.7588577E1,8.9096466E1,9.4740533E2,3.6047523E4,8.163358E2,2.1746388E2,2.5127359E2,8.0069147E2,3.4020445E4,8.339908E2,1.0411268E4,4.4592095E3,1.3488589E4,2.6692183E3,3.9104922E3,4.308577E3,4.724861E3,5.6852427E3,1.1253255E4,3.952241E3,6.0704075E1,2.668143E2,3.1099324E3,2.3723687E3,7.9632163E3,6.5529E2,2.5210308E3,1.3214353E3,6.559079E2,5.893423E2,2.4396055E3,6.0374316E3,1.2129713E3,7.06326E2,9.223318E2,1.7205571E2,9.579189E2,2.205885E2,2.0550525E3,2.7129674E4,9.678966E4,5.197505E1,3.3000208E3,8.5280695E2,4.153372E2,4.4836926E2,1.0714207E3,1.1844004E3,4.4966986E2,3.8537236E3,1.8260094E3,1.8553127E3,1.5755784E3,1.8568196E3,1.0596736E3,2.296807E3,1.13654205E2,4.141731E1,3.7173047E4,1.2053035E4,1.6391299E3,4.588713E3,1.778703E3,2.4137903E3,9.089955E2,2.8222495E2,4.823929E3,9.217521E3,1.3902359E4,2.701582E4,1.601072E4,1.4670656E4,1.9125189E2,3.4677628E2,6.900056E2,9.076379E1,2.7040488E2,3.2280838E1,1.5013342E5,3.6203332E4,4.8300874E3,5.776052E3,1.7355871E4,1.4363391E4,3.1721453E4,6.3073613E3,2.6645074E4,3.9791118E3,1.3274523E3,1.7509854E4,1.8139326E4,1.03312625E5,2.8661088E4,1.1532084E4,4.999801E3,2.0764421E3,3.663364E3,1.6694327E3,2.0496758E3,8.0009185E3,6.7018677E2,1.6145513E3,2.3469316E3,2.4570127E4,7.543555E3,2.0842268E4,9.150996E2,5.7671967E2,4.3587198E2,9.887953E2,3.0747922E4,1.410456E4,5.518677E3,8.0698467E3,3.5615486E1,5.3480976E1,4.5056622E2,4.9683914E2,3.489846E4,1.1490635E3,1.6181558E2,6.545202E2,1.42458E2,7.500589E1,1.1506757E2,1.3620602E2,1.14482925E2,6.862085E2,1.1221452E4,2.2798994E4,1.7710236E2,6.568884E2,9.769526E3,6.417406E2,3.5466885E3,9.125209E2,5.5156934E3,7.9728955E3,1.4437137E2,2.524847E3,2.4780688E3,1.4324235E3,3.7795486E3,5.290286E2,1.6810835E3,3.043777E3,4.6488833E3,1.0363594E3,7.0552695E3,4.1979854E3,2.0562405E3,1.8960005E3,1.0414362E3,2.068496E3,4.6636014E2,1.9060085E3,4.576846E3,3.38637E3,3.315006E2,3.2378937E2,1.2118396E3,1.3091913E3,1.0099754E3,3.114599E2,1.22950096E2,5.329578E2,5.3884033E2,5.0501953E1,6.8301154E2,1.7565938E3,2.8746316E3,3.1628E3,4.3894998E2,7.740214E2,4.4071973E2,2.6560626E2,6.627813E2,2.5955048E2,9.236546E1,1.2822305E2,1.540054E3,5.1499854E2,8.539474E3,1.8590201E4,2.9180691E4,6.760896E4,1.5752847E3,1.724736E3,3.8551367E2,4.6729324E2,2.7960825E2,1.3572897E2,4.3921257E1,4.04448E2,8.9908923E2,1.7233138E2,6.329331E2,5.514672E2,2.0841206E2,2.412578E2,2.4377307E3,1.4159928E3,7.8538965E2,1.0406198E3,1.6552622E3,2.0005052E2,6.108273E2,9.647511E2,1.4549673E3,4.0185226E2,6.595634E2,4.0011017E2,2.2613337E3,3.5473083E1,3.5198162E1,7.845604E1,5.4486616E3,6.604374E3,7.7071985E2,8.684101E2,4.222108E3,3.66605E2,9.123491E1,1.687468E3,8.501031E2,5.8892376E1,3.6557735E1,2.4566722E2,1.8793896E2,4.63599E3,6.246869E3,2.9706523E3,1.0750253E4,3.1521057E3,1.6169574E4,1.0846247E4,1.1393119E4,4.617601E3,5.011827E3,9.658829E3,3.4446186E1,1.5680571E2,3.3892387E1,3.1288388E2,8.636546E1,6.036402E2,1.0971709E4,1.391617E5,2.6318287E4,9.885045E3,1.5547861E3,3.2753013E3,2.9005356E3,2.875516E3,8.0021147E3,9.353756E3,9.136593E3,5.2267974E3,5.5875454E3,2.6133906E4,4.42874E3,1.8786215E3,2.007109E4,6.573986E3,1.0429995E3,2.8445276E2,1.2503162E4,5.6361636E3,6.1294624E3,9.718316E4,1.3070862E4,1.5590226E4,1.3318356E3,1.0200248E4,1.0616178E3,3.9381829E3,2.888523E2,1.7875898E3,1.5436543E2,3.5089985E3,1.038683E3,6.3074976E2,1.6830828E3,3.6659314E2,4.4551333E3,3.5457854E3,4.2661136E2,2.4357542E2,1.5525513E3,6.1999973E1,7.904224E2,1.5565093E3,2.412311E4,4.4701758E2,4.601248E3,2.9423074E3,1.8729156E4,2.11311E3],"tree_param":{"num_deleted":"0","num_feature":"53","num_nodes":"431","size_leaf_vector":"1"}},{"base_weights":[-1.4954988E-3,-7.863362E-1,4.1869327E-1,-2.2233756E-1,-1.5397373E0,1.2913797E0,1.8515833E-1,8.201165E-3,-6.0864484E-1,-1.7374945E0,-2.2351465E-1,1.7627417E0,9.6710294E-1,2.9021952E-1,-1.9451043E-1,-1.7370705E-1,1.6609092E-1,-1.12444215E-1,-9.033749E-1,-1.2660784E0,-1.7903275E0,5.5383646E-1,-9.768138E-1,1.7696939E0,-3.870975E-1,7.275602E-1,1.3902552E0,1.216695E-1,5.5200887E-1,3.8261962E-1,-8.036816E-1,1.8569179E-1,-1.9213371E-1,7.165553E-2,3.5391572E-1,9.346269E-2,-3.6290312E-1,-7.890699E-1,-1.0971625E0,-1.1067815E0,-1.4253737E0,-1.2174773E0,-1.7993853E0,5.268353E-2,9.184747E-1,-5.7278603E-1,-1.3282484E0,1.8081913E0,1.5499108E0,-1.4635327E0,7.077328E-1,1.3663651E0,4.9756604E-1,1.4549017E0,-4.6694922E-1,4.874929E-1,-9.170834E-1,-6.41048E-1,1.0254582E0,6.3703823E-1,-3.913929E-1,-1.5872394E0,-4.9400646E-2,-3.6697966E-1,7.6265186E-1,-1.8322538E-1,-9.10844E-1,3.9375365E-2,1.8785855E-1,-2.8905785E-1,3.7304837E-1,6.768811E-2,1.0318651E-1,-7.5968075E-1,-1.21087104E-1,-6.20311E-1,-8.9945096E-1,-1.2951432E0,-9.424094E-1,-1.0515503E0,-1.526319E0,-1.5247498E0,-9.2071635E-1,-7.0898885E-1,-1.6843954E0,-1.7130032E0,-1.8263676E0,2.4330416E-1,-6.4449376E-1,8.0430955E-1,1.747501E0,-1.045125E0,-4.3909516E-2,-7.350056E-1,-1.5746299E0,1.8224156E0,1.7374179E0,1.3562607E0,1.7147847E0,-1.4853807E-1,-6.1980583E-2,3.267227E-3,1.4379483E-1,7.336514E-1,1.4238404E0,5.5698615E-1,-1.538678E-1,1.4726368E0,4.351237E-1,-1.2594408E0,1.5483086E0,5.7981414E-1,-1.1454346E0,-1.9006726E-1,-1.5297214E0,7.899803E-2,-1.7985996E0,-1.5482822E-1,1.072198E0,8.082715E-1,-3.4475127E-1,-1.4016639E0,1.431374E-1,3.836098E-1,-1.7474931E0,-1.5480676E-1,6.4770885E-2,-3.1403236E-2,-7.9792523E-1,2.2005162E-1,1.1216196E0,-2.417002E-1,-1.4881012E-1,-1.6639909E0,1.0822207E0,4.649104E-2,-2.2314206E-1,1.770576E-1,6.207768E-2,3.2976452E-1,-4.3792078E-1,3.5607323E-1,9.850008E-1,2.904073E-2,4.1338965E-1,-5.1475716E-1,-9.789407E-1,6.286081E-3,-3.568997E-1,-5.779838E-1,-8.737079E-1,-8.334796E-1,-1.2180144E0,-1.076411E0,-1.4229997E0,-1.2344311E0,-5.20464E-1,-8.9195883E-1,-1.1746393E0,-1.5174232E-1,-1.4586879E0,-1.6970872E0,-1.4489375E0,-1.3402848E0,-1.5714632E-1,-9.1809744E-1,3.0005485E-1,-1.378665E0,-1.521579E-1,-1.3240818E0,-1.7405704E0,-1.8269116E0,-5.2417964E-2,4.1545925E-1,-4.472705E-1,-6.388856E-2,-1.3275703E0,1.0329261E0,-5.445961E-1,1.5293223E-1,9.342527E-1,-6.583448E-1,-1.4496362E0,2.6105022E-1,-3.708573E-1,-3.9069766E-1,-1.0731722E0,-1.3059658E0,-1.8220221E0,1.3907556E-1,1.536012E-1,1.69243E0,1.5255032E-1,1.1525971E0,1.7006079E0,1.5766096E0,1.5009949E-1,1.3967121E0,-1.6615113E0,1.2419709E0,1.516906E0,3.777094E-1,7.8185314E-1,1.2291062E0,1.5419502E0,-1.5475711E0,1.5771583E0,-1.6477867E0,1.2113682E-1,1.4039563E-1,3.8280953E-2,6.688537E-1,2.1051559E-1,-6.674229E-1,-1.5453297E0,-1.151829E0,7.5566876E-1,-1.7384722E0,-4.84932E-1,3.6707467E-1,-1.5358429E-1,-1.185516E0,-1.5498097E-1,6.6312027E-1,1.1432945E0,9.040955E-1,4.7469455E-1,1.740453E-1,-1.5527254E0,-1.817077E0,-5.1561475E-1,-1.0502225E0,4.9304467E-1,-1.2180606E0,1.0745928E0,-1.1843883E0,-1.8015461E0,5.972896E-1,-1.2995689E-1,-1.9811917E-2,2.3309704E-2,6.0447715E-3,-8.328372E-2,7.615563E-2,1.4559724E-3,3.0094149E-2,1.0438471E-1,-1.21968845E-2,-3.554073E-2,-3.407258E-2,-9.83183E-3,-3.035835E-2,-1.4963426E-1,2.3885423E-2,1.2315457E-1,-1.8386308E-2,4.4832374E-3,2.5737057E-2,-2.0845603E-2,1.0125686E-2,2.1112412E-2,4.250328E-2,-0E0,1.6579775E-2,-4.9868397E-2,3.8585003E-2,2.2757202E-2,8.651713E-2,4.9560823E-2,9.4599845E-3,-1.2496095E-2,-3.0969415E-2,3.779043E-2,-2.7035575E-2,-7.088282E-2,-9.9665456E-2,-5.4999758E-2,-6.1047524E-2,2.889282E-3,-1.8247476E-2,-5.6076497E-2,-5.2319326E-2,-3.359052E-2,2.262224E-2,-7.7567965E-2,-6.0187094E-2,-7.9423435E-2,-3.079506E-2,-1.06024064E-1,-7.28796E-2,-1.0208132E-1,-1.14548154E-1,-1.4849856E-1,-8.2210824E-2,-1.13247685E-1,-8.4815174E-2,-2.7132524E-2,-8.03143E-2,-4.9085498E-2,-8.999088E-2,-1.1134389E-1,-1.09844804E-1,-1.3612041E-1,-1.2165857E-1,-1.4472097E-1,-1.1053635E-1,-1.2889057E-1,-7.582612E-2,-1.2326341E-1,2.0151475E-2,-3.258396E-2,-4.8461404E-2,-1.2614578E-1,7.06215E-2,3.1183928E-3,-1.2467981E-1,-3.4055397E-2,-1.2304264E-1,-4.404621E-2,-1.3615014E-1,-1.5077926E-1,-1.5076901E-1,-1.5447584E-1,2.7114237E-2,7.183766E-2,-9.724567E-3,-1.4301175E-1,1.6170083E-2,-6.747862E-2,-1.4004263E-1,2.7729416E-2,1.0680974E-1,6.7935996E-2,4.3876804E-2,-1.21515125E-1,3.6669813E-2,1.1228191E-1,-4.3215398E-2,-1.14204355E-1,-1.3274598E-1,2.3766633E-2,3.3090457E-2,-6.684582E-2,-1.6687838E-2,-1.3283615E-1,-7.656501E-2,-8.636227E-3,-1.09973155E-1,-5.909502E-2,-1.3035336E-1,-7.576662E-2,-1.5433502E-1,-7.5587064E-2,1.4901717E-1,1.3195266E-1,1.11128606E-1,6.36647E-2,1.3040967E-1,1.4975947E-1,1.3688645E-1,2.847416E-2,1.2766229E-1,-6.142115E-2,-7.0025906E-2,-1.4770304E-1,6.679493E-2,1.0577867E-1,1.3479158E-1,1.11462176E-1,3.8384564E-2,-1.7879475E-2,9.840108E-2,3.0640522E-2,1.2458236E-1,-5.2432124E-2,1.349139E-1,1.1871772E-1,-5.140013E-2,-1.4695346E-1,2.3619218E-2,1.4365704E-1,-5.6628823E-2,-1.5022713E-1,5.785036E-2,-5.9404083E-2,-1.3853924E-2,9.5457695E-2,-1.4558923E-1,-1.4179626E-2,-1.3476455E-1,-6.5888256E-2,-1.5109615E-1,-4.896057E-2,-1.6332322E-1,7.168663E-2,-1.5538366E-1,-1.218654E-1,-1.0117827E-1,1.01463564E-1,6.516826E-2,-7.4491784E-2,-1.5462545E-1,8.821324E-2,-3.3123396E-2,7.426696E-2,1.6414683E-2,1.0099458E-1,8.873563E-2,6.587641E-2,-5.5367954E-2,6.780934E-2,-9.036568E-2,4.396125E-2,-3.3421036E-2,-1.468129E-1,-9.9687785E-2,-1.5492542E-1,2.492265E-2,-1.5437254E-1,-1.2900577E-1,-1.05664795E-2,8.7589165E-3,8.23612E-2,1.0570636E-2,-1.4325203E-1,1.0226375E-1,-1.2097795E-1,-1.0400793E-2,-1.4524546E-1,-1.523133E-1,-9.363694E-2,7.954656E-2,5.219118E-3,-3.4975194E-4,-1.0655446E-1],"categories":[],"categories_nodes":[],"categories_segments":[],"categories_sizes":[],"default_left":[0,0,0,0,0,0,0,0,0,0,0,0,0,0,0,0,0,0,0,0,0,0,0,0,0,0,0,0,0,0,0,0,0,0,0,0,0,0,0,0,0,0,0,0,0,0,0,0,0,0,0,0,0,0,0,0,0,0,0,0,0,0,0,0,0,0,0,0,0,0,0,0,0,0,0,0,0,0,0,0,0,0,0,0,0,0,0,0,0,0,0,0,0,0,0,0,0,0,0,0,0,0,0,0,0,0,0,0,0,0,0,0,0,0,0,0,0,0,0,0,0,0,0,0,0,0,0,0,0,0,0,0,0,0,0,0,0,0,0,0,0,0,0,0,0,0,0,0,0,0,0,0,0,0,0,0,0,0,0,0,0,0,0,0,0,0,0,0,0,0,0,0,0,0,0,0,0,0,0,0,0,0,0,0,0,0,0,0,0,0,0,0,0,0,0,0,0,0,0,0,0,0,0,0,0,0,0,0,0,0,0,0,0,0,0,0,0,0,0,0,0,0,0,0,0,0,0,0,0,0,0,0,0,0,0,0,0,0,0,0,0,0,0,0,0,0,0,0,0,0,0,0,0,0,0,0,0,0,0,0,0,0,0,0,0,0,0,0,0,0,0,0,0,0,0,0,0,0,0,0,0,0,0,0,0,0,0,0,0,0,0,0,0,0,0,0,0,0,0,0,0,0,0,0,0,0,0,0,0,0,0,0,0,0,0,0,0,0,0,0,0,0,0,0,0,0,0,0,0,0,0,0,0,0,0,0,0,0,0,0,0,0,0,0,0,0,0,0,0,0,0,0,0,0,0,0,0,0,0,0,0,0,0,0,0,0,0,0,0,0,0,0,0,0,0,0,0,0,0,0,0,0,0,0,0,0,0,0,0,0,0,0,0,0,0,0,0,0,0,0,0,0,0,0,0,0,0,0,0,0,0,0,0,0,0,0,0,0,0,0,0,0,0,0,0,0,0,0,0,0,0,0,0,0,0],"id":1,"left_children":[1,3,5,7,9,11,13,15,17,19,21,23,25,27,29,31,33,35,37,39,41,43,45,47,49,51,53,55,57,59,61,63,65,67,69,71,73,75,77,79,81,83,85,87,89,91,93,95,97,99,101,103,105,107,109,111,113,115,117,119,121,123,125,127,129,131,133,135,137,139,141,143,-1,145,147,149,151,153,155,157,159,161,163,165,167,169,171,173,175,177,179,181,183,185,187,189,191,193,195,-1,-1,-1,-1,197,199,201,-1,203,205,207,209,211,213,215,217,219,221,-1,223,225,227,229,231,233,235,-1,237,239,241,243,245,247,249,251,253,255,257,259,-1,261,263,265,267,269,271,273,275,277,279,281,283,285,287,289,291,293,295,297,299,-1,301,303,305,307,309,311,313,315,-1,317,319,321,-1,323,325,327,329,331,333,-1,335,337,339,341,343,345,347,349,351,-1,-1,353,-1,355,357,359,-1,361,363,365,367,369,371,373,375,377,379,381,-1,-1,-1,383,385,387,389,391,393,395,397,399,-1,401,-1,403,405,407,409,411,413,415,417,419,421,423,425,427,429,431,433,-1,-1,-1,-1,-1,-1,-1,-1,-1,-1,-1,-1,-1,-1,-1,-1,-1,-1,-1,-1,-1,-1,-1,-1,-1,-1,-1,-1,-1,-1,-1,-1,-1,-1,-1,-1,-1,-1,-1,-1,-1,-1,-1,-1,-1,-1,-1,-1,-1,-1,-1,-1,-1,-1,-1,-1,-1,-1,-1,-1,-1,-1,-1,-1,-1,-1,-1,-1,-1,-1,-1,-1,-1,-1,-1,-1,-1,-1,-1,-1,-1,-1,-1,-1,-1,-1,-1,-1,-1,-1,-1,-1,-1,-1,-1,-1,-1,-1,-1,-1,-1,-1,-1,-1,-1,-1,-1,-1,-1,-1,-1,-1,-1,-1,-1,-1,-1,-1,-1,-1,-1,-1,-1,-1,-1,-1,-1,-1,-1,-1,-1,-1,-1,-1,-1,-1,-1,-1,-1,-1,-1,-1,-1,-1,-1,-1,-1,-1,-1,-1,-1,-1,-1,-1,-1,-1,-1,-1,-1,-1,-1,-1,-1,-1,-1,-1,-1,-1,-1,-1,-1,-1,-1,-1,-1,-1,-1,-1,-1,-1,-1,-1,-1,-1,-1,-1,-1,-1,-1,-1,-1,-1,-1,-1,-1,-1],"loss_changes":[3.598613E5,1.6167905E5,1.448425E5,1.9380402E4,4.239803E4,2.2926344E4,2.2364693E4,3.9142222E3,1.1892807E4,3.518375E3,1.2463694E4,9.1703125E2,9.005859E3,1.9376773E4,4.2724523E4,4.1944836E2,1.293643E3,1.5635039E3,1.1261055E3,3.5589453E2,6.52125E2,1.9130261E3,1.5310117E3,5.0520312E2,2.3763779E2,8.336914E3,3.860043E3,1.01521055E5,9.715681E4,1.2289403E4,3.4940137E4,9.854393E2,3.8417212E2,1.8189847E2,3.0059937E2,4.8529007E2,1.3113103E3,5.951133E2,5.74334E2,1.5916406E2,3.5154395E2,4.674729E2,2.8065625E2,5.867894E2,5.676089E2,1.2564253E3,8.392637E2,4.05625E1,2.8176562E2,1.6673752E1,6.518689E1,5.416133E2,5.7806895E3,5.5802344E2,1.7329994E3,2.9787004E4,3.0989215E4,4.0731203E4,1.651782E4,7.897039E3,8.338648E3,9.161383E3,6.1730225E3,2.2725969E2,2.9255237E2,1.1927429E2,1.1092449E3,7.085727E1,6.159189E1,6.544277E1,2.4401807E2,2.1689789E2,0E0,2.7529053E2,2.5575912E2,1.3357129E2,4.0309668E2,2.2548242E2,1.3065986E3,1.1970508E2,5.6828613E0,6.834961E1,3.763662E2,2.0363458E2,3.0835205E1,3.1148438E2,5.709375E1,4.1301166E2,3.7424634E2,1.6467795E3,3.6696533E1,4.113767E2,2.375229E2,1.9559296E2,2.6192578E2,3.7E1,1.9816406E1,2.86917E2,3.8717773E1,0E0,0E0,0E0,0E0,2.0035375E3,2.2552734E2,1.6392529E3,0E0,5.0751562E2,1.2184562E3,8.231708E2,3.7301758E1,6.148035E3,2.0162861E3,2.8949078E4,8.231211E3,1.6559621E4,5.310742E2,0E0,3.52025E3,1.2759316E3,4.3738184E3,1.9618516E3,4.217339E3,2.4182847E3,8.0785156E2,0E0,2.9379673E3,5.6425083E1,1.1731091E2,8.347136E1,8.1468994E1,3.8505054E2,3.0488434E2,7.8434204E1,5.9434372E1,6.763031E1,1.3428814E1,4.302884E1,0E0,8.21494E0,5.7244926E1,2.0191626E2,8.234558E0,2.1768607E2,4.7302063E1,1.5393805E2,1.7988892E2,1.1322927E2,1.2830801E2,8.575342E1,1.0475488E2,2.0753223E2,1.2316162E2,8.4427E1,9.698633E1,1.7745605E2,4.1854443E2,5.1984375E1,4.9538086E1,0E0,8.321411E0,2.2280273E0,3.9368164E1,3.6734985E1,3.9127167E1,1.5422351E2,2.2632538E1,2.9409912E1,0E0,2.2080688E2,1.7200781E2,2.596875E1,0E0,1.1138519E2,2.8599936E2,9.8818565E1,2.4769897E2,2.3948438E2,7.4826E2,0E0,1.0206352E1,1.3399603E2,2.9691016E2,1.734401E2,2.3728757E2,1.2603961E2,7.0384094E1,1.8954346E2,2.3987793E1,0E0,0E0,4.5456055E1,0E0,1.7392749E2,8.6171875E0,1.1031445E2,0E0,2.6310376E2,1.57453E1,3.235498E1,1.4377344E2,1.0629094E3,2.9328848E3,3.199501E3,1.8801562E2,3.2168304E1,5.5881775E1,8.8233765E1,0E0,0E0,0E0,4.1589297E3,1.2638614E4,2.5607817E3,2.5484277E2,5.8064023E3,4.250209E3,1.0013828E3,7.6743066E3,1.3428904E4,0E0,1.9740862E3,0E0,4.2015825E3,5.808047E3,5.63084E2,3.372776E3,2.1336792E3,4.6962988E2,5.5146484E1,1.8401016E3,1.0265964E3,1.4796465E3,4.3380017E2,5.540387E2,1.3610801E3,1.9776562E2,1.4197053E3,2.9704583E3,0E0,0E0,0E0,0E0,0E0,0E0,0E0,0E0,0E0,0E0,0E0,0E0,0E0,0E0,0E0,0E0,0E0,0E0,0E0,0E0,0E0,0E0,0E0,0E0,0E0,0E0,0E0,0E0,0E0,0E0,0E0,0E0,0E0,0E0,0E0,0E0,0E0,0E0,0E0,0E0,0E0,0E0,0E0,0E0,0E0,0E0,0E0,0E0,0E0,0E0,0E0,0E0,0E0,0E0,0E0,0E0,0E0,0E0,0E0,0E0,0E0,0E0,0E0,0E0,0E0,0E0,0E0,0E0,0E0,0E0,0E0,0E0,0E0,0E0,0E0,0E0,0E0,0E0,0E0,0E0,0E0,0E0,0E0,0E0,0E0,0E0,0E0,0E0,0E0,0E0,0E0,0E0,0E0,0E0,0E0,0E0,0E0,0E0,0E0,0E0,0E0,0E0,0E0,0E0,0E0,0E0,0E0,0E0,0E0,0E0,0E0,0E0,0E0,0E0,0E0,0E0,0E0,0E0,0E0,0E0,0E0,0E0,0E0,0E0,0E0,0E0,0E0,0E0,0E0,0E0,0E0,0E0,0E0,0E0,0E0,0E0,0E0,0E0,0E0,0E0,0E0,0E0,0E0,0E0,0E0,0E0,0E0,0E0,0E0,0E0,0E0,0E0,0E0,0E0,0E0,0E0,0E0,0E0,0E0,0E0,0E0,0E0,0E0,0E0,0E0,0E0,0E0,0E0,0E0,0E0,0E0,0E0,0E0,0E0,0E0,0E0,0E0,0E0,0E0,0E0,0E0,0E0,0E0,0E0,0E0,0E0,0E0,0E0,0E0,0E0,0E0,0E0,0E0,0E0,0E0,0E0],"parents":[2147483647,0,0,1,1,2,2,3,3,4,4,5,5,6,6,7,7,8,8,9,9,10,10,11,11,12,12,13,13,14,14,15,15,16,16,17,17,18,18,19,19,20,20,21,21,22,22,23,23,24,24,25,25,26,26,27,27,28,28,29,29,30,30,31,31,32,32,33,33,34,34,35,35,36,36,37,37,38,38,39,39,40,40,41,41,42,42,43,43,44,44,45,45,46,46,47,47,48,48,49,49,50,50,51,51,52,52,53,53,54,54,55,55,56,56,57,57,58,58,59,59,60,60,61,61,62,62,63,63,64,64,65,65,66,66,67,67,68,68,69,69,70,70,71,71,73,73,74,74,75,75,76,76,77,77,78,78,79,79,80,80,81,81,82,82,83,83,84,84,85,85,86,86,87,87,88,88,89,89,90,90,91,91,92,92,93,93,94,94,95,95,96,96,97,97,98,98,103,103,104,104,105,105,107,107,108,108,109,109,110,110,111,111,112,112,113,113,114,114,115,115,116,116,118,118,119,119,120,120,121,121,122,122,123,123,124,124,126,126,127,127,128,128,129,129,130,130,131,131,132,132,133,133,134,134,135,135,136,136,137,137,139,139,140,140,141,141,142,142,143,143,144,144,145,145,146,146,147,147,148,148,149,149,150,150,151,151,152,152,153,153,154,154,155,155,156,156,157,157,158,158,160,160,161,161,162,162,163,163,164,164,165,165,166,166,167,167,169,169,170,170,171,171,173,173,174,174,175,175,176,176,177,177,178,178,180,180,181,181,182,182,183,183,184,184,185,185,186,186,187,187,188,188,191,191,193,193,194,194,195,195,197,197,198,198,199,199,200,200,201,201,202,202,203,203,204,204,205,205,206,206,207,207,211,211,212,212,213,213,214,214,215,215,216,216,217,217,218,218,219,219,221,221,223,223,224,224,225,225,226,226,227,227,228,228,229,229,230,230,231,231,232,232,233,233,234,234,235,235,236,236,237,237,238,238],"right_children":[2,4,6,8,10,12,14,16,18,20,22,24,26,28,30,32,34,36,38,40,42,44,46,48,50,52,54,56,58,60,62,64,66,68,70,72,74,76,78,80,82,84,86,88,90,92,94,96,98,100,102,104,106,108,110,112,114,116,118,120,122,124,126,128,130,132,134,136,138,140,142,144,-1,146,148,150,152,154,156,158,160,162,164,166,168,170,172,174,176,178,180,182,184,186,188,190,192,194,196,-1,-1,-1,-1,198,200,202,-1,204,206,208,210,212,214,216,218,220,222,-1,224,226,228,230,232,234,236,-1,238,240,242,244,246,248,250,252,254,256,258,260,-1,262,264,266,268,270,272,274,276,278,280,282,284,286,288,290,292,294,296,298,300,-1,302,304,306,308,310,312,314,316,-1,318,320,322,-1,324,326,328,330,332,334,-1,336,338,340,342,344,346,348,350,352,-1,-1,354,-1,356,358,360,-1,362,364,366,368,370,372,374,376,378,380,382,-1,-1,-1,384,386,388,390,392,394,396,398,400,-1,402,-1,404,406,408,410,412,414,416,418,420,422,424,426,428,430,432,434,-1,-1,-1,-1,-1,-1,-1,-1,-1,-1,-1,-1,-1,-1,-1,-1,-1,-1,-1,-1,-1,-1,-1,-1,-1,-1,-1,-1,-1,-1,-1,-1,-1,-1,-1,-1,-1,-1,-1,-1,-1,-1,-1,-1,-1,-1,-1,-1,-1,-1,-1,-1,-1,-1,-1,-1,-1,-1,-1,-1,-1,-1,-1,-1,-1,-1,-1,-1,-1,-1,-1,-1,-1,-1,-1,-1,-1,-1,-1,-1,-1,-1,-1,-1,-1,-1,-1,-1,-1,-1,-1,-1,-1,-1,-1,-1,-1,-1,-1,-1,-1,-1,-1,-1,-1,-1,-1,-1,-1,-1,-1,-1,-1,-1,-1,-1,-1,-1,-1,-1,-1,-1,-1,-1,-1,-1,-1,-1,-1,-1,-1,-1,-1,-1,-1,-1,-1,-1,-1,-1,-1,-1,-1,-1,-1,-1,-1,-1,-1,-1,-1,-1,-1,-1,-1,-1,-1,-1,-1,-1,-1,-1,-1,-1,-1,-1,-1,-1,-1,-1,-1,-1,-1,-1,-1,-1,-1,-1,-1,-1,-1,-1,-1,-1,-1,-1,-1,-1,-1,-1,-1,-1,-1,-1,-1,-1],"split_conditions":[1E0,2.9E1,1.7984E4,1E0,4E0,8.77E2,7E0,5E0,1E0,5E0,7.815145E-5,9.9379E4,2.012E3,4.5264E4,1.14872E5,6E0,2.017E3,3.9547784E-3,2.5359544E-1,9.898643E-4,4.1E1,1.6041131E4,1.0773513E-3,1.096E3,7.4E1,6.5268774E2,1.60199E5,9.7438064E-4,3.736919E-4,9.898643E-4,9.898643E-4,6.6615254E3,1.5E1,2.016E3,5E0,5E0,1.51E3,5E0,1.135E3,5.01E2,1.6748838E4,2.159676E1,1.24E2,1.3264E4,7.4181975E-5,1.9311484E3,7.1E1,2.18E2,3.5035892E-3,2.6253504E4,1.2E1,8E0,8.8701E4,6.4856E4,7.4972E4,5.2895E4,7.9342E4,2.03786E5,8.7553516E2,5.1496E4,8.556969E3,2.321436E3,3.6099E4,2.81367E3,5E1,2.1363178E-3,4.974727E4,7E0,4E1,2E0,1.5E1,7.28E3,1.0318651E-1,1.1298905E-2,7E0,4.44E2,3.7E2,4E0,6.2197573E3,8.3E1,1.217009E3,1.3886866E3,7.975E3,2.3493404E-4,1.89E2,5.4E2,3E0,5.000194E-1,2.3032255E-6,2.7541264E-5,9.0014E2,3.69E2,2.5012755E-1,4.0549217E-3,3.193E3,2.159676E1,6.8E1,1.53E2,1.5E1,-1.4853807E-1,-6.1980583E-2,3.267227E-3,1.4379483E-1,7.7E1,2.009E3,5.2440625E3,-1.538678E-1,6.8E1,2.015E3,6.6672736E-1,3.2903558E2,4.562456E4,8.0631E4,5.005E3,1.06281664E5,1.8392613E4,2.9861365E4,-1.5482822E-1,1.10138E5,1.6004E4,9.095171E3,5.9014E4,2.026E3,7.147935E-5,1.60199E5,-1.5480676E-1,7.0185125E4,5.4E1,2.016E3,2.016E3,4E0,5.074264E3,6.469439E2,2.015E3,2.014E3,5E0,5.523468E5,1.18752E3,6.207768E-2,2.5171965E-1,6.7439006E-4,2.5108933E-1,5E-1,1.5053244E-3,5E0,6E0,9.629796E2,5E0,2.2773385E-2,3.41E3,5E0,1.2573749E-3,5E0,2.595271E-1,4.321E3,6E0,5.2229897E3,5.457E3,2.6824314E-4,-1.5174232E-1,5.074264E3,1.7652776E3,5.7E1,4E0,2.7029305E-3,2.90411E4,3.1797195E3,1.0447E4,-1.521579E-1,2.016E3,1.2091232E-5,2.207E3,-5.2417964E-2,1E0,2.4280349E-5,4.1994E4,1.06E3,2.3032255E-6,2.3459E4,1.5293223E-1,5E-1,6.7439006E-4,1.9E1,5.3149E4,1.2659E4,2.1E3,1.104639E4,5.457E3,2.951679E5,1.3907556E-1,1.536012E-1,3.9E1,1.5255032E-1,6.813E3,7.97E2,8.3E1,1.5009949E-1,5.3950306E-4,2.50008E-1,1.2E1,1.0444294E4,7E0,7.26E2,3.865E3,1.3264E4,1.47237415E-5,8.0225256E-4,1.1556521E-5,1.2113682E-1,1.4039563E-1,3.8280953E-2,8.7196625E4,9.9372E3,5.74E2,1E0,2.75899E4,2.8626018E3,1.2208331E4,1.2842152E-1,7.2402E4,-1.5358429E-1,7.2391E4,-1.5498097E-1,4.6228774E3,9.7438064E-4,2.2062552E-5,2.016E3,2.4280349E-5,2.9861365E4,2.3421742E4,2.3092064E-3,1.6671318E-1,4.6876064E-3,1.30199E5,4.8271333E3,1.0444294E4,6.6672736E-1,7.47344E5,7.384145E-3,-1.9811917E-2,2.3309704E-2,6.0447715E-3,-8.328372E-2,7.615563E-2,1.4559724E-3,3.0094149E-2,1.0438471E-1,-1.21968845E-2,-3.554073E-2,-3.407258E-2,-9.83183E-3,-3.035835E-2,-1.4963426E-1,2.3885423E-2,1.2315457E-1,-1.8386308E-2,4.4832374E-3,2.5737057E-2,-2.0845603E-2,1.0125686E-2,2.1112412E-2,4.250328E-2,-0E0,1.6579775E-2,-4.9868397E-2,3.8585003E-2,2.2757202E-2,8.651713E-2,4.9560823E-2,9.4599845E-3,-1.2496095E-2,-3.0969415E-2,3.779043E-2,-2.7035575E-2,-7.088282E-2,-9.9665456E-2,-5.4999758E-2,-6.1047524E-2,2.889282E-3,-1.8247476E-2,-5.6076497E-2,-5.2319326E-2,-3.359052E-2,2.262224E-2,-7.7567965E-2,-6.0187094E-2,-7.9423435E-2,-3.079506E-2,-1.06024064E-1,-7.28796E-2,-1.0208132E-1,-1.14548154E-1,-1.4849856E-1,-8.2210824E-2,-1.13247685E-1,-8.4815174E-2,-2.7132524E-2,-8.03143E-2,-4.9085498E-2,-8.999088E-2,-1.1134389E-1,-1.09844804E-1,-1.3612041E-1,-1.2165857E-1,-1.4472097E-1,-1.1053635E-1,-1.2889057E-1,-7.582612E-2,-1.2326341E-1,2.0151475E-2,-3.258396E-2,-4.8461404E-2,-1.2614578E-1,7.06215E-2,3.1183928E-3,-1.2467981E-1,-3.4055397E-2,-1.2304264E-1,-4.404621E-2,-1.3615014E-1,-1.5077926E-1,-1.5076901E-1,-1.5447584E-1,2.7114237E-2,7.183766E-2,-9.724567E-3,-1.4301175E-1,1.6170083E-2,-6.747862E-2,-1.4004263E-1,2.7729416E-2,1.0680974E-1,6.7935996E-2,4.3876804E-2,-1.21515125E-1,3.6669813E-2,1.1228191E-1,-4.3215398E-2,-1.14204355E-1,-1.3274598E-1,2.3766633E-2,3.3090457E-2,-6.684582E-2,-1.6687838E-2,-1.3283615E-1,-7.656501E-2,-8.636227E-3,-1.09973155E-1,-5.909502E-2,-1.3035336E-1,-7.576662E-2,-1.5433502E-1,-7.5587064E-2,1.4901717E-1,1.3195266E-1,1.11128606E-1,6.36647E-2,1.3040967E-1,1.4975947E-1,1.3688645E-1,2.847416E-2,1.2766229E-1,-6.142115E-2,-7.0025906E-2,-1.4770304E-1,6.679493E-2,1.0577867E-1,1.3479158E-1,1.11462176E-1,3.8384564E-2,-1.7879475E-2,9.840108E-2,3.0640522E-2,1.2458236E-1,-5.2432124E-2,1.349139E-1,1.1871772E-1,-5.140013E-2,-1.4695346E-1,2.3619218E-2,1.4365704E-1,-5.6628823E-2,-1.5022713E-1,5.785036E-2,-5.9404083E-2,-1.3853924E-2,9.5457695E-2,-1.4558923E-1,-1.4179626E-2,-1.3476455E-1,-6.5888256E-2,-1.5109615E-1,-4.896057E-2,-1.6332322E-1,7.168663E-2,-1.5538366E-1,-1.218654E-1,-1.0117827E-1,1.01463564E-1,6.516826E-2,-7.4491784E-2,-1.5462545E-1,8.821324E-2,-3.3123396E-2,7.426696E-2,1.6414683E-2,1.0099458E-1,8.873563E-2,6.587641E-2,-5.5367954E-2,6.780934E-2,-9.036568E-2,4.396125E-2,-3.3421036E-2,-1.468129E-1,-9.9687785E-2,-1.5492542E-1,2.492265E-2,-1.5437254E-1,-1.2900577E-1,-1.05664795E-2,8.7589165E-3,8.23612E-2,1.0570636E-2,-1.4325203E-1,1.0226375E-1,-1.2097795E-1,-1.0400793E-2,-1.4524546E-1,-1.523133E-1,-9.363694E-2,7.954656E-2,5.219118E-3,-3.4975194E-4,-1.0655446E-1],"split_indices":[42,50,50,50,39,50,48,39,34,5,29,34,0,45,34,6,0,29,28,29,50,51,29,34,45,51,34,29,29,29,29,38,13,0,6,5,20,50,21,34,38,51,34,50,29,19,50,34,29,51,11,45,34,45,45,34,50,34,38,34,38,38,45,19,34,29,38,48,13,6,13,20,0,29,50,34,34,50,38,50,38,38,21,29,34,50,39,28,29,29,19,50,28,29,50,51,45,45,45,0,0,0,0,34,0,51,0,45,0,28,19,38,50,45,38,38,51,0,34,34,38,34,45,29,34,0,51,34,0,0,6,38,38,0,0,6,23,20,0,28,29,28,26,29,6,50,19,6,29,19,6,29,6,28,34,34,19,19,29,0,38,51,50,34,29,38,38,19,0,0,29,34,0,25,29,50,19,29,50,0,26,29,11,50,50,19,19,19,19,0,0,50,0,34,45,50,0,29,28,6,38,48,34,34,50,28,29,28,0,0,0,19,19,45,25,38,38,38,28,51,0,50,0,38,29,29,0,29,51,51,29,28,28,50,19,38,28,34,28,0,0,0,0,0,0,0,0,0,0,0,0,0,0,0,0,0,0,0,0,0,0,0,0,0,0,0,0,0,0,0,0,0,0,0,0,0,0,0,0,0,0,0,0,0,0,0,0,0,0,0,0,0,0,0,0,0,0,0,0,0,0,0,0,0,0,0,0,0,0,0,0,0,0,0,0,0,0,0,0,0,0,0,0,0,0,0,0,0,0,0,0,0,0,0,0,0,0,0,0,0,0,0,0,0,0,0,0,0,0,0,0,0,0,0,0,0,0,0,0,0,0,0,0,0,0,0,0,0,0,0,0,0,0,0,0,0,0,0,0,0,0,0,0,0,0,0,0,0,0,0,0,0,0,0,0,0,0,0,0,0,0,0,0,0,0,0,0,0,0,0,0,0,0,0,0,0,0,0,0,0,0,0,0,0,0,0,0,0,0,0,0,0,0,0,0],"split_type":[0,0,0,0,0,0,0,0,0,0,0,0,0,0,0,0,0,0,0,0,0,0,0,0,0,0,0,0,0,0,0,0,0,0,0,0,0,0,0,0,0,0,0,0,0,0,0,0,0,0,0,0,0,0,0,0,0,0,0,0,0,0,0,0,0,0,0,0,0,0,0,0,0,0,0,0,0,0,0,0,0,0,0,0,0,0,0,0,0,0,0,0,0,0,0,0,0,0,0,0,0,0,0,0,0,0,0,0,0,0,0,0,0,0,0,0,0,0,0,0,0,0,0,0,0,0,0,0,0,0,0,0,0,0,0,0,0,0,0,0,0,0,0,0,0,0,0,0,0,0,0,0,0,0,0,0,0,0,0,0,0,0,0,0,0,0,0,0,0,0,0,0,0,0,0,0,0,0,0,0,0,0,0,0,0,0,0,0,0,0,0,0,0,0,0,0,0,0,0,0,0,0,0,0,0,0,0,0,0,0,0,0,0,0,0,0,0,0,0,0,0,0,0,0,0,0,0,0,0,0,0,0,0,0,0,0,0,0,0,0,0,0,0,0,0,0,0,0,0,0,0,0,0,0,0,0,0,0,0,0,0,0,0,0,0,0,0,0,0,0,0,0,0,0,0,0,0,0,0,0,0,0,0,0,0,0,0,0,0,0,0,0,0,0,0,0,0,0,0,0,0,0,0,0,0,0,0,0,0,0,0,0,0,0,0,0,0,0,0,0,0,0,0,0,0,0,0,0,0,0,0,0,0,0,0,0,0,0,0,0,0,0,0,0,0,0,0,0,0,0,0,0,0,0,0,0,0,0,0,0,0,0,0,0,0,0,0,0,0,0,0,0,0,0,0,0,0,0,0,0,0,0,0,0,0,0,0,0,0,0,0,0,0,0,0,0,0,0,0,0,0,0,0,0,0,0,0,0,0,0,0,0,0,0,0,0,0,0,0,0,0,0,0,0,0,0,0,0,0,0,0,0,0,0,0],"sum_hessian":[1.0912058E6,3.8049897E5,7.107068E5,2.1760428E5,1.6289469E5,1.5003434E5,5.606725E5,1.3627731E5,8.132698E4,1.416159E5,2.127878E4,6.1143285E4,8.889107E4,4.3915388E5,1.215186E5,6.331931E4,7.2958E4,3.0308002E4,5.1018973E4,1.4280175E4,1.2733573E5,1.0471903E4,1.0806876E4,6.09471E4,1.9618208E2,5.676577E4,3.2125297E4,2.671561E5,1.719978E5,6.2400035E4,5.911857E4,3.084374E3,6.0234938E4,4.855437E4,2.4403629E4,1.6632129E4,1.3675873E4,3.2101871E4,1.89171E4,7.1533447E3,7.1268296E3,1.9891694E3,1.25346555E5,4.412735E3,6.0591685E3,5.031706E3,5.7751694E3,5.1843164E4,9.103938E3,9.8935555E1,9.724654E1,1.5022917E4,4.174285E4,3.1045725E4,1.0795725E3,1.975767E5,6.957938E4,4.8863203E4,1.2313459E5,4.696448E4,1.5435551E4,2.899452E4,3.012405E4,1.574959E3,1.5094152E3,5.9502004E4,7.329323E2,3.8007957E4,1.0546415E4,7.026579E2,2.370097E4,1.6266428E4,3.6570154E2,5.175021E3,8.500853E3,1.2704365E4,1.9397506E4,8.2883125E3,1.0628788E4,6.331205E3,8.2213983E2,5.948355E3,1.1784746E3,9.563E2,1.0328694E3,2.9882303E4,9.546426E4,3.4676848E3,9.4504974E2,5.3312495E3,7.279187E2,2.6556177E3,2.3760884E3,1.698852E3,4.0763176E3,4.3102734E4,8.740428E3,4.2002544E3,4.9036836E3,6.607838E1,3.2857174E1,6.0568417E1,3.6678116E1,1.2553961E3,1.37675205E4,4.0707055E4,1.0357957E3,3.0512969E4,5.32757E2,7.759021E2,3.036704E2,1.8700616E5,1.0570559E4,3.1821658E4,3.7757727E4,3.012545E4,1.8737752E4,1.9718083E3,1.2116279E5,3.999111E4,6.9733735E3,5.3401797E3,1.0095371E4,2.1795898E3,2.6814928E4,1.8005017E3,2.8323549E4,8.88283E2,6.866759E2,6.0372406E2,9.0569116E2,2.2028896E4,3.747311E4,5.325903E2,2.0034203E2,3.7010605E4,9.973521E2,1.0348865E4,1.9755022E2,1.3437378E2,5.682841E2,2.3066781E4,6.341898E2,1.4635844E4,1.630584E3,2.4506272E3,2.7243938E3,5.5184453E3,2.982407E3,1.0896516E4,1.8078494E3,1.607989E4,3.3176167E3,3.0693123E3,5.219E3,6.27718E3,4.351608E3,2.7695247E3,3.5616804E3,1.4398016E2,6.7815967E2,1.7965392E3,4.151816E3,7.584799E2,4.1999466E2,7.931357E2,1.6316432E2,3.1526825E2,7.1760114E2,1.9885989E3,2.7893705E4,9.541892E4,4.5331966E1,2.7776724E3,6.9001245E2,5.1313574E2,4.31914E2,4.559773E3,7.714766E2,6.634284E2,6.449032E1,1.3622524E3,1.2933654E3,1.228105E3,1.1479835E3,8.4596173E2,8.528904E2,1.9637822E3,2.1125354E3,1.7059712E3,4.1396766E4,5.618913E3,3.121515E3,2.6480762E3,1.5521783E3,1.7146447E3,3.1890388E3,9.843701E2,2.7102597E2,4.6763545E3,9.091166E3,2.26558E4,1.8051256E4,6.7742197E3,2.3738748E4,1.940668E2,3.3869025E2,6.7959216E2,9.630988E1,2.7078113E2,3.288927E1,1.5067339E5,3.6332766E4,4.8192334E3,5.751325E3,1.577739E4,1.6044268E4,3.1467764E4,6.289962E3,2.6175793E4,3.9496562E3,1.3397102E3,1.7398043E4,1.794578E4,1.0321701E5,3.1061107E4,8.930001E3,4.8792446E3,2.094129E3,3.6330593E3,1.7071205E3,2.287138E3,7.8082334E3,6.5588904E2,1.5237008E3,2.3552935E3,2.4459635E4,7.5838433E3,2.0739705E4,5.367599E2,3.5152313E2,1.2450842E2,5.621675E2,1.3444312E2,4.6928094E2,1.26816414E2,7.7887476E2,1.4391913E4,7.6369834E3,4.112154E3,3.3360953E4,4.5768085E1,4.8682217E2,6.741982E1,1.3292221E2,9.3170447E2,3.6078902E4,4.205199E1,9.553001E2,5.89287E3,4.4559946E3,8.762554E1,4.6748234E1,1.1061497E2,4.5766916E2,1.0400906E4,1.2665875E4,5.6300745E2,7.118235E1,9.959849E3,4.6759946E3,7.071262E1,1.5598713E3,1.5507953E3,8.998319E2,1.653446E3,1.0709478E3,2.0017064E2,5.3182744E3,2.0633608E3,9.1904626E2,8.6858E3,2.210716E3,7.44704E1,1.733379E3,7.898203E3,8.1816865E3,1.6728905E2,3.1503276E3,1.2389849E3,1.8303274E3,4.4717275E3,7.472727E2,1.9491931E3,4.3279873E3,1.2458248E3,3.1057832E3,2.2824033E3,4.8712125E2,2.1352554E3,1.4264252E3,3.669365E2,3.112232E2,1.894414E2,1.6070977E3,1.6534291E3,2.498387E3,1.777239E2,5.8075604E2,1.5281294E2,2.6718173E2,5.0506165E2,2.8807404E2,5.0301083E1,1.1286324E2,2.8215674E2,3.3111504E1,1.6873488E3,3.0125E2,8.831135E3,1.906257E4,2.7458594E4,6.796033E4,2.3003813E3,4.7729102E2,5.4875366E2,1.412588E2,3.8146188E2,1.3167387E2,3.5886417E2,7.304985E1,2.1976592E3,2.3621138E3,3.5349197E2,4.1798462E2,3.2336605E1,3.2153717E1,1.1355135E3,2.267389E2,1.2030883E3,9.027702E1,1.0931063E3,1.3499857E2,1.00844464E3,1.3953888E2,2.9784268E2,5.48119E2,5.1446484E2,3.3842554E2,1.2135643E3,7.502179E2,2.0732598E3,3.9275703E1,3.3224531E3,2.29646E3,1.8420833E3,8.0599286E2,5.801446E2,9.7203375E2,1.64207E3,7.257474E1,9.3149146E2,5.2878704E1,3.218197E1,2.38844E2,1.8471304E2,4.4916416E3,6.186928E3,2.904238E3,1.997334E4,2.6824597E3,9.324362E3,8.726894E3,5.9573687E3,8.168508E2,1.5756178E4,7.9825713E3,3.722062E1,1.5684619E2,3.30763E1,3.0561392E2,8.883503E1,5.9075714E2,1.4851181E5,2.1615725E3,2.5853021E4,1.0479745E4,1.5327457E3,3.2864878E3,5.330293E3,4.2103223E2,7.3748975E3,8.402492E3,5.5979926E2,1.5484469E4,2.2633822E4,8.833942E3,4.414335E3,1.8756267E3,1.974032E4,6.4354736E3,1.0365725E3,3.031377E2,3.1040422E3,1.4841737E4,6.0874414E3,9.712956E4,1.3636158E4,1.742495E4,2.0248444E3,6.9051567E3,1.0641697E3,3.815075E3,3.051648E2,1.788964E3,1.5995827E2,3.473101E3,1.0583455E3,6.48775E2,1.4971885E3,7.8994946E2,4.347957E3,3.4602766E3,1.7465045E2,4.812386E2,1.4432472E3,8.045368E1,8.014289E2,1.5538645E3,2.402502E4,4.346166E2,4.5828525E3,3.000991E3,1.8679994E4,2.059712E3],"tree_param":{"num_deleted":"0","num_feature":"53","num_nodes":"435","size_leaf_vector":"1"}},{"base_weights":[1.4842618E-3,-7.220243E-1,3.8814914E-1,-1.793214E-1,-1.4045944E0,1.0816753E0,1.3260017E-1,1.5900556E-2,-5.3879994E-1,-1.6009606E0,-2.0463972E-1,1.1437129E0,-1.3738843E0,2.2996429E-1,-2.1546905E-1,-1.5278378E-1,1.6161755E-1,-8.017454E-1,-1.1011845E-1,-1.1251262E0,-1.6692524E0,4.884914E-1,-8.064925E-1,1.646777E0,9.0252537E-1,-1.6671952E0,9.1642535E-1,5.0572187E-2,4.906583E-1,3.6137652E-1,-7.276858E-1,-1.4418432E-1,-9.301914E-1,7.325487E-2,3.3515966E-1,-6.7444366E-1,-9.490638E-1,8.672375E-2,-3.8070986E-1,-9.2061126E-1,-1.2267295E0,-1.2019908E0,-1.6795219E0,9.5552295E-2,8.602734E-1,-3.9233372E-1,-1.1126591E0,1.6772496E0,1.3178655E0,4.9745625E-1,1.0401193E0,-8.3900976E-1,-1.4762197E-1,-1.4829657E0,1.8141161E0,4.1222987E-1,-1.0623618E0,-5.765048E-1,9.331831E-1,6.210444E-1,-5.2975637E-1,-1.5118898E0,-1.1117073E-1,1.5152968E-1,-1.6156264E-1,-1.5639149E0,9.1714203E-1,4.562064E-2,1.7311975E-1,-2.5294548E-1,3.524799E-1,-5.3582376E-1,-7.816001E-1,-1.1184777E0,-8.1445307E-1,6.988807E-2,9.774555E-2,-7.8219527E-1,-1.4283943E-1,-7.922256E-1,-1.1449631E0,-1.3505849E0,-9.425501E-1,-7.20754E-1,-1.5618304E0,-1.5900574E0,-1.7065501E0,2.5081766E-1,-7.040437E-1,1.7150229E-2,9.537311E-1,-1.4622244E-1,-7.546603E-1,-7.037959E-1,-1.4796463E0,1.6955819E0,1.5675156E0,1.0913113E0,1.6389803E0,1.0345165E0,3.9174625E-1,1.3516694E0,8.3797836E-1,-1.4778572E0,1.3570015E0,-5.3486597E-2,-1.4270878E-1,1.1100067E-1,1.6314386E-1,4.8673186E-1,-1.201708E0,-1.7290231E0,-5.4821736E-1,9.07663E-2,-1.6837153E0,-1.446377E-1,9.778953E-1,7.520922E-1,-7.877586E-2,-1.491009E0,-1.8967964E-3,1.7548859E-1,-1.6206334E0,-1.7030851E0,-2.4809035E-2,-3.008221E-1,7.365923E-1,-1.5851948E-1,-8.980835E-1,-2.588954E-2,-1.410924E-1,1.4185253E-1,1.3964328E0,5.0927896E-2,-1.4701723E-1,9.840806E-2,2.8765684E-1,2.798023E-1,-3.8789442E-1,3.3690515E-1,8.974811E-1,-3.763407E-1,-6.179167E-1,-7.414736E-1,-1.1088673E0,-9.5355964E-1,-1.2984126E0,-1.2332046E0,-5.42362E-1,1.8288444E-1,-3.3097778E-2,-9.6137774E-1,-5.412786E-1,-2.8681794E-2,-3.36641E-1,-8.381022E-1,-5.4630595E-1,-1.0748249E0,-1.4088883E0,-1.2606877E0,-1.5432938E0,-1.3034109E0,-5.0419754E-1,-4.459607E-1,-1.4682479E0,-1.651068E0,-1.1598166E0,-1.6147394E0,-1.210422E0,-1.707064E0,-5.2008696E-2,-2.7598003E-1,3.972385E-1,-8.031183E-2,-1.3318406E0,6.4050925E-1,-9.232447E-1,8.4871054E-1,1.5587575E0,-3.1422132E-1,4.353949E-2,-1.3466414E0,-5.7926834E-1,-1.1883672E0,-1.1374787E-1,-1.2220836E0,-1.7007883E0,1.2895988E-1,1.7017144E0,1.4475168E0,1.6389583E0,7.830821E-1,1.4469304E0,1.487507E0,1.4123748E-1,6.0892403E-3,1.1525196E0,4.62509E-1,-1.2564242E-1,1.3790478E0,-1.2715076E0,3.321034E-1,1.0324912E0,3.576695E-2,-1.4563864E-1,1.371933E-1,6.573487E-2,5.629686E-1,9.354008E-2,-1.5291526E0,-3.4927475E-1,-1.6166759E0,-1.4592093E-1,-1.4224796E0,7.313911E-2,7.351424E-1,-6.3094383E-1,-4.2663273E-4,-1.6982107E0,5.1500607E-1,1.0534407E0,8.196544E-1,3.3774936E-1,8.513681E-1,-5.347712E-1,-1.4537698E-1,2.1316004E-1,-1.262667E0,3.351412E-1,-1.6494219E0,1.0439352E0,-1.2669117E0,-1.712716E0,-1.3841178E0,-1.780796E0,9.270505E-2,-6.97324E-1,-1.43207265E-2,-9.473651E-2,2.5525996E-2,8.783368E-2,-2.3229375E-2,-1.2047957E-2,-4.173627E-2,-1.2641807E-1,-1.3684393E-2,3.8524874E-2,6.7917205E-2,1.3759014E-1,-1.2322974E-2,4.7187977E-3,-1.6459925E-2,1.6417764E-2,1.5106293E-2,-1.3338124E-2,-4.4518135E-2,2.6310295E-2,4.764753E-2,-2.1119615E-2,2.1172592E-3,-4.0109657E-2,3.5208434E-2,2.3562623E-2,5.779192E-2,8.157901E-2,-1.65845E-2,-7.936586E-2,-6.593965E-2,-2.8404713E-2,-5.6139514E-2,-7.378659E-2,-8.491394E-2,-1.4300953E-1,-6.545895E-2,-9.694272E-2,-1.0185637E-1,-1.3335629E-1,-8.4946565E-2,-1.1641944E-1,-6.211981E-2,-2.9430535E-2,1.0400844E-2,2.9616239E-2,-2.043238E-2,1.0156295E-2,-5.934323E-2,-9.0647966E-2,-3.5156004E-2,-8.412381E-2,7.656657E-3,-1.7838053E-2,-7.0402506E-3,-4.508943E-2,-7.794603E-2,-5.9810866E-2,-8.606165E-2,-1.8769503E-2,-1.160117E-1,-8.443592E-2,-8.729793E-2,-1.2655142E-1,-9.344921E-2,-1.1836878E-1,-1.1984117E-1,-1.3913336E-1,-5.841243E-2,-1.1397179E-1,-5.0348103E-2,1.27473315E-2,-8.798399E-2,-1.0549133E-2,-6.69897E-2,-1.458563E-1,-8.549477E-2,-1.4304441E-1,-1.1339668E-1,-1.4979338E-2,-1.2474769E-1,-1.414496E-1,-1.1648367E-1,-3.676584E-2,-1.4079252E-1,-1.4427386E-1,-4.4674715E-3,-1.1424599E-1,2.3598751E-2,7.785419E-2,4.795919E-3,-1.2608694E-1,-1.3024117E-1,-4.344834E-3,7.279817E-2,-3.9720565E-2,-1.3692898E-1,7.002752E-2,8.622721E-2,-4.0018883E-2,2.1124462E-2,1.4008766E-1,-1.3016111E-2,-5.749589E-2,2.4770564E-4,1.21565446E-1,-7.688851E-2,-1.1744674E-1,-2.75445E-2,-6.8398684E-2,-1.05948575E-1,2.028748E-2,-2.8666072E-2,4.3693878E-2,-1.1016826E-1,-1.5989587E-2,-1.4369425E-1,-8.510046E-2,1.4392507E-1,1.3948086E-1,1.3119416E-1,9.719923E-2,1.3209604E-1,1.4116025E-1,8.7290294E-2,2.4526473E-2,1.2415204E-1,1.2005774E-2,1.311083E-1,5.2184068E-2,9.1207236E-2,-1.4209977E-1,6.343265E-2,9.809245E-2,5.817645E-3,4.9617216E-2,6.346346E-2,-7.8271024E-2,1.1695257E-1,1.4933972E-3,-1.4217758E-1,3.8847707E-2,8.102322E-2,-9.5742024E-2,-5.648186E-2,9.1277555E-2,5.082991E-2,-5.679956E-3,-8.047522E-2,3.8708348E-2,-1.0358697E-1,-1.4106965E-1,2.6997743E-2,-1.256783E-1,-1.4734761E-1,-5.9562203E-2,-1.315563E-1,3.6902435E-2,-4.120477E-2,6.31828E-2,-1.2086696E-1,8.046212E-2,2.307516E-2,-1.3278449E-1,1.1828245E-1,-1.5142341E-1,-1.0911538E-1,-1.4477965E-1,1.0958332E-1,1.7329134E-2,1.958033E-3,9.2671126E-2,7.251233E-2,1.3529836E-2,-7.539858E-2,6.638214E-2,8.292189E-2,-1.7325391E-1,-1.0020614E-2,-1.5567599E-1,1.24029234E-1,-1.2776214E-1,-1.2751329E-1,5.0449405E-2,-1.5120432E-2,7.739135E-2,-2.8662827E-2,-1.4696865E-1,9.774683E-2,-1.6940041E-1,-1.111634E-1,9.132546E-2,-1.2266144E-1,-1.4499538E-1,-1.492488E-1,7.838151E-2,-1.6802636E-1,-1.442708E-1,2.6023386E-3,8.591321E-2,1.653819E-2,-7.62093E-2],"categories":[],"categories_nodes":[],"categories_segments":[],"categories_sizes":[],"default_left":[0,0,0,0,0,0,0,0,0,0,0,0,0,0,0,0,0,0,0,0,0,0,0,0,0,0,0,0,0,0,0,0,0,0,0,0,0,0,0,0,0,0,0,0,0,0,0,0,0,0,0,0,0,0,0,0,0,0,0,0,0,0,0,0,0,0,0,0,0,0,0,0,0,0,0,0,0,0,0,0,0,0,0,0,0,0,0,0,0,0,0,0,0,0,0,0,0,0,0,0,0,0,0,0,0,0,0,0,0,0,0,0,0,0,0,0,0,0,0,0,0,0,0,0,0,0,0,0,0,0,0,0,0,0,0,0,0,0,0,0,0,0,0,0,0,0,0,0,0,0,0,0,0,0,0,0,0,0,0,0,0,0,0,0,0,0,0,0,0,0,0,0,0,0,0,0,0,0,0,0,0,0,0,0,0,0,0,0,0,0,0,0,0,0,0,0,0,0,0,0,0,0,0,0,0,0,0,0,0,0,0,0,0,0,0,0,0,0,0,0,0,0,0,0,0,0,0,0,0,0,0,0,0,0,0,0,0,0,0,0,0,0,0,0,0,0,0,0,0,0,0,0,0,0,0,0,0,0,0,0,0,0,0,0,0,0,0,0,0,0,0,0,0,0,0,0,0,0,0,0,0,0,0,0,0,0,0,0,0,0,0,0,0,0,0,0,0,0,0,0,0,0,0,0,0,0,0,0,0,0,0,0,0,0,0,0,0,0,0,0,0,0,0,0,0,0,0,0,0,0,0,0,0,0,0,0,0,0,0,0,0,0,0,0,0,0,0,0,0,0,0,0,0,0,0,0,0,0,0,0,0,0,0,0,0,0,0,0,0,0,0,0,0,0,0,0,0,0,0,0,0,0,0,0,0,0,0,0,0,0,0,0,0,0,0,0,0,0,0,0,0,0,0,0,0,0,0,0,0,0,0,0,0,0,0,0,0,0,0,0,0,0,0,0,0,0,0,0,0,0,0,0,0,0,0,0,0,0,0],"id":2,"left_children":[1,3,5,7,9,11,13,15,17,19,21,23,25,27,29,31,33,35,37,39,41,43,45,47,49,51,53,55,57,59,61,63,65,67,69,71,73,75,77,79,81,83,85,87,89,91,93,95,97,99,101,103,-1,105,107,109,111,113,115,117,119,121,123,125,127,129,131,133,135,137,139,141,143,145,147,149,-1,151,153,155,157,159,161,163,165,167,169,171,173,175,177,179,181,183,185,187,189,191,193,195,197,199,201,203,205,-1,-1,-1,-1,207,209,211,213,215,217,-1,219,221,223,225,227,229,231,233,235,237,239,241,243,-1,-1,245,247,249,251,253,255,257,259,261,263,265,267,269,271,273,275,277,279,281,283,285,287,289,291,293,295,297,299,301,303,305,307,309,311,313,315,317,319,321,-1,323,325,327,329,331,333,335,337,339,341,343,345,347,349,351,353,-1,355,357,359,361,363,365,-1,367,369,371,373,375,377,379,381,-1,-1,-1,-1,383,385,387,389,391,-1,393,395,397,399,401,403,405,407,409,411,413,415,-1,417,419,421,423,425,427,429,431,433,435,437,-1,-1,-1,-1,-1,-1,-1,-1,-1,-1,-1,-1,-1,-1,-1,-1,-1,-1,-1,-1,-1,-1,-1,-1,-1,-1,-1,-1,-1,-1,-1,-1,-1,-1,-1,-1,-1,-1,-1,-1,-1,-1,-1,-1,-1,-1,-1,-1,-1,-1,-1,-1,-1,-1,-1,-1,-1,-1,-1,-1,-1,-1,-1,-1,-1,-1,-1,-1,-1,-1,-1,-1,-1,-1,-1,-1,-1,-1,-1,-1,-1,-1,-1,-1,-1,-1,-1,-1,-1,-1,-1,-1,-1,-1,-1,-1,-1,-1,-1,-1,-1,-1,-1,-1,-1,-1,-1,-1,-1,-1,-1,-1,-1,-1,-1,-1,-1,-1,-1,-1,-1,-1,-1,-1,-1,-1,-1,-1,-1,-1,-1,-1,-1,-1,-1,-1,-1,-1,-1,-1,-1,-1,-1,-1,-1,-1,-1,-1,-1,-1,-1,-1,-1,-1,-1,-1,-1,-1,-1,-1,-1,-1,-1,-1,-1,-1,-1,-1,-1,-1,-1,-1,-1,-1,-1,-1,-1,-1,-1,-1,-1,-1,-1,-1,-1,-1,-1,-1,-1,-1,-1,-1,-1,-1,-1,-1,-1,-1,-1,-1,-1,-1],"loss_changes":[3.0337312E5,1.3990866E5,1.2525181E5,1.4766629E4,3.9415844E4,2.8992547E4,1.7501936E4,3.3517773E3,8.346172E3,4.6640938E3,9.817056E3,2.2513703E4,3.1552168E3,1.8872326E4,3.3354754E4,4.2109253E2,1.1214812E3,8.575254E2,1.5001913E3,3.70125E2,5.9521875E2,1.5965354E3,1.5945791E3,5.9421875E2,6.989914E3,3.0620312E2,1.1568136E3,9.6222516E4,7.7685805E4,1.2286619E4,2.8906328E4,3.2131006E2,8.117521E2,1.3357373E2,2.5171948E2,3.6354785E2,4.807422E2,2.9421872E2,1.1314934E3,1.6875E2,4.1860938E2,4.649524E2,2.871875E2,6.6062494E2,4.416797E2,4.7671722E2,1.0814346E3,1.006875E2,3.648037E2,1.8039849E3,5.892617E3,5.8980554E2,0E0,2.1748291E1,1.4895264E1,2.1696105E4,2.0092E4,3.562697E4,1.3810625E4,3.7714834E3,6.077534E3,4.830996E3,4.6009204E3,9.187697E2,1.3093982E2,7.188794E1,6.3904175E1,3.8764175E1,8.940457E1,5.1137207E1,2.0153491E2,1.392041E2,1.7840527E2,2.7372754E2,1.3482002E3,1.869747E2,0E0,1.875857E2,1.6449535E2,4.0687256E1,3.3980225E1,1.3749902E2,5.768567E2,2.3622046E2,4.792627E1,2.6004688E2,4.778125E1,3.443258E2,3.370162E2,3.3201154E2,3.1551807E2,1.0219194E2,2.2095178E2,9.792224E2,2.0888965E2,3.63125E1,5.877539E1,3.2464258E2,4.1782227E0,6.335239E2,9.7403564E2,2.6507578E3,5.5874023E3,1.6153467E2,9.427032E0,0E0,0E0,0E0,0E0,5.1691836E3,2.2190781E3,1.4328125E1,1.7986287E4,1.3994292E4,4.4078125E2,0E0,3.9961016E3,9.6763477E2,2.751844E3,1.7405322E3,3.2896228E3,2.5317634E3,7.968047E2,3.3253418E1,2.5107092E3,2.0913773E2,2.004632E2,1.0399878E2,5.4843414E1,0E0,0E0,7.379901E0,9.639084E0,3.8418907E1,1.7120098E1,1.3349294E2,8.705371E1,2.2482143E1,2.1450264E1,1.0716553E2,6.921936E0,3.711717E2,3.2999585E2,1.20859375E2,8.046863E1,1.6781201E2,1.0341406E2,1.5253271E2,2.70854E2,7.6190674E1,2.720905E2,7.219824E1,1.0422748E2,1.0358631E2,1.3899075E2,3.3215088E1,9.2883255E1,3.096045E1,9.641418E0,1.1974609E2,2.589209E1,6.127881E1,1.0463803E2,1.6395262E2,5.0108337E1,3.46438E1,5.2525757E1,2.3204688E2,2.3661572E2,2.090625E1,0E0,2.327468E2,2.1315851E2,8.705217E1,1.1886615E2,8.752339E1,2.8438007E2,1.0204502E3,1.0341199E2,9.9081924E1,8.408108E1,5.4560547E0,9.7280945E1,1.991084E2,2.2407936E2,1.6212158E2,7.4404297E0,0E0,1.190625E1,9.198877E1,3.7001953E0,2.0168903E2,5.5089844E1,2.6869019E1,0E0,9.978011E2,2.4913086E1,1.1799922E3,2.2762576E3,6.769844E2,2.8217023E2,1.4703878E4,3.8131133E3,0E0,0E0,0E0,0E0,3.8570156E3,1.082769E4,2.4808691E2,1.7060825E3,2.2871826E2,0E0,3.6944941E3,7.4136606E3,7.7132275E3,1.2219033E4,4.0816013E2,1.7682812E2,3.9115435E3,5.074664E3,8.583633E2,2.7215256E3,8.506476E2,2.3838228E3,0E0,1.1595831E3,7.8174316E2,1.8461582E3,6.427417E1,4.0316138E2,6.892627E2,5.9296875E1,3.2528973E2,6.496582E0,1.5512883E3,8.894778E2,0E0,0E0,0E0,0E0,0E0,0E0,0E0,0E0,0E0,0E0,0E0,0E0,0E0,0E0,0E0,0E0,0E0,0E0,0E0,0E0,0E0,0E0,0E0,0E0,0E0,0E0,0E0,0E0,0E0,0E0,0E0,0E0,0E0,0E0,0E0,0E0,0E0,0E0,0E0,0E0,0E0,0E0,0E0,0E0,0E0,0E0,0E0,0E0,0E0,0E0,0E0,0E0,0E0,0E0,0E0,0E0,0E0,0E0,0E0,0E0,0E0,0E0,0E0,0E0,0E0,0E0,0E0,0E0,0E0,0E0,0E0,0E0,0E0,0E0,0E0,0E0,0E0,0E0,0E0,0E0,0E0,0E0,0E0,0E0,0E0,0E0,0E0,0E0,0E0,0E0,0E0,0E0,0E0,0E0,0E0,0E0,0E0,0E0,0E0,0E0,0E0,0E0,0E0,0E0,0E0,0E0,0E0,0E0,0E0,0E0,0E0,0E0,0E0,0E0,0E0,0E0,0E0,0E0,0E0,0E0,0E0,0E0,0E0,0E0,0E0,0E0,0E0,0E0,0E0,0E0,0E0,0E0,0E0,0E0,0E0,0E0,0E0,0E0,0E0,0E0,0E0,0E0,0E0,0E0,0E0,0E0,0E0,0E0,0E0,0E0,0E0,0E0,0E0,0E0,0E0,0E0,0E0,0E0,0E0,0E0,0E0,0E0,0E0,0E0,0E0,0E0,0E0,0E0,0E0,0E0,0E0,0E0,0E0,0E0,0E0,0E0,0E0,0E0,0E0,0E0,0E0,0E0,0E0,0E0,0E0,0E0,0E0,0E0,0E0,0E0,0E0,0E0,0E0,0E0,0E0,0E0,0E0,0E0,0E0,0E0,0E0,0E0],"parents":[2147483647,0,0,1,1,2,2,3,3,4,4,5,5,6,6,7,7,8,8,9,9,10,10,11,11,12,12,13,13,14,14,15,15,16,16,17,17,18,18,19,19,20,20,21,21,22,22,23,23,24,24,25,25,26,26,27,27,28,28,29,29,30,30,31,31,32,32,33,33,34,34,35,35,36,36,37,37,38,38,39,39,40,40,41,41,42,42,43,43,44,44,45,45,46,46,47,47,48,48,49,49,50,50,51,51,53,53,54,54,55,55,56,56,57,57,58,58,59,59,60,60,61,61,62,62,63,63,64,64,65,65,66,66,67,67,68,68,69,69,70,70,71,71,72,72,73,73,74,74,75,75,77,77,78,78,79,79,80,80,81,81,82,82,83,83,84,84,85,85,86,86,87,87,88,88,89,89,90,90,91,91,92,92,93,93,94,94,95,95,96,96,97,97,98,98,99,99,100,100,101,101,102,102,103,103,104,104,109,109,110,110,111,111,112,112,113,113,114,114,116,116,117,117,118,118,119,119,120,120,121,121,122,122,123,123,124,124,125,125,126,126,127,127,128,128,131,131,132,132,133,133,134,134,135,135,136,136,137,137,138,138,139,139,140,140,141,141,142,142,143,143,144,144,145,145,146,146,147,147,148,148,149,149,150,150,151,151,152,152,153,153,154,154,155,155,156,156,157,157,158,158,159,159,160,160,161,161,162,162,163,163,164,164,165,165,166,166,167,167,168,168,169,169,171,171,172,172,173,173,174,174,175,175,176,176,177,177,178,178,179,179,180,180,181,181,182,182,183,183,184,184,185,185,186,186,188,188,189,189,190,190,191,191,192,192,193,193,195,195,196,196,197,197,198,198,199,199,200,200,201,201,202,202,207,207,208,208,209,209,210,210,211,211,213,213,214,214,215,215,216,216,217,217,218,218,219,219,220,220,221,221,222,222,223,223,224,224,226,226,227,227,228,228,229,229,230,230,231,231,232,232,233,233,234,234,235,235,236,236],"right_children":[2,4,6,8,10,12,14,16,18,20,22,24,26,28,30,32,34,36,38,40,42,44,46,48,50,52,54,56,58,60,62,64,66,68,70,72,74,76,78,80,82,84,86,88,90,92,94,96,98,100,102,104,-1,106,108,110,112,114,116,118,120,122,124,126,128,130,132,134,136,138,140,142,144,146,148,150,-1,152,154,156,158,160,162,164,166,168,170,172,174,176,178,180,182,184,186,188,190,192,194,196,198,200,202,204,206,-1,-1,-1,-1,208,210,212,214,216,218,-1,220,222,224,226,228,230,232,234,236,238,240,242,244,-1,-1,246,248,250,252,254,256,258,260,262,264,266,268,270,272,274,276,278,280,282,284,286,288,290,292,294,296,298,300,302,304,306,308,310,312,314,316,318,320,322,-1,324,326,328,330,332,334,336,338,340,342,344,346,348,350,352,354,-1,356,358,360,362,364,366,-1,368,370,372,374,376,378,380,382,-1,-1,-1,-1,384,386,388,390,392,-1,394,396,398,400,402,404,406,408,410,412,414,416,-1,418,420,422,424,426,428,430,432,434,436,438,-1,-1,-1,-1,-1,-1,-1,-1,-1,-1,-1,-1,-1,-1,-1,-1,-1,-1,-1,-1,-1,-1,-1,-1,-1,-1,-1,-1,-1,-1,-1,-1,-1,-1,-1,-1,-1,-1,-1,-1,-1,-1,-1,-1,-1,-1,-1,-1,-1,-1,-1,-1,-1,-1,-1,-1,-1,-1,-1,-1,-1,-1,-1,-1,-1,-1,-1,-1,-1,-1,-1,-1,-1,-1,-1,-1,-1,-1,-1,-1,-1,-1,-1,-1,-1,-1,-1,-1,-1,-1,-1,-1,-1,-1,-1,-1,-1,-1,-1,-1,-1,-1,-1,-1,-1,-1,-1,-1,-1,-1,-1,-1,-1,-1,-1,-1,-1,-1,-1,-1,-1,-1,-1,-1,-1,-1,-1,-1,-1,-1,-1,-1,-1,-1,-1,-1,-1,-1,-1,-1,-1,-1,-1,-1,-1,-1,-1,-1,-1,-1,-1,-1,-1,-1,-1,-1,-1,-1,-1,-1,-1,-1,-1,-1,-1,-1,-1,-1,-1,-1,-1,-1,-1,-1,-1,-1,-1,-1,-1,-1,-1,-1,-1,-1,-1,-1,-1,-1,-1,-1,-1,-1,-1,-1,-1,-1,-1,-1,-1,-1,-1,-1],"split_conditions":[1E0,2E1,2.0937E4,1E0,4E0,2.3763E5,7E0,4E0,4E0,5E0,8.548316E-5,8.77E2,6.6672736E-1,4.5264E4,8.9112E4,2.8E1,2.017E3,2.5212193E-1,4.8998673E-3,4.0619867E-4,4.1E1,2.9861365E4,8.3E1,3.245E3,2.009E3,1.8413994E-5,3.55E2,9.898643E-4,3.873739E-4,9.898643E-4,4.6199493E-4,8E0,4.974727E4,2.016E3,5E0,5E0,1.18752E3,5E0,1.51E3,5E1,8.825423E3,8.493755E2,1.17E2,2.0937E4,1.4679567E2,2.4630409E-3,1.0773513E-3,4.74E2,1.83E2,2.1910448E1,6.587308E4,1.67125E-5,-1.4762197E-1,1.4644435E-5,5.10879E5,4.7854E4,1.0790742E4,2.03786E5,8.7553516E2,3.4289E4,8.556969E3,1.5257716E3,4.5264E4,8.556969E3,7E0,2.015E3,2.014E3,8E0,1.51E3,2E0,1.5E1,1.6539921E3,8.7E2,5E0,2.8167214E3,2.5036794E-1,9.774555E-2,9.0251E2,6E0,1.6041131E4,2.01E2,5.640353E-3,3.198E3,1.2916E4,5.918003E4,5.279588E4,3E0,2.009E3,4.036687E-6,1.2964591E-5,7.4181975E-5,2.183422E3,1.02E3,2.365E3,3.193E3,2.159676E1,1.8368697E-3,4.8998673E-3,1.00924626E-4,8E0,7E0,1.4687E5,4.22E2,2.90688E5,2.2424336E2,-5.3486597E-2,-1.4270878E-1,1.1100067E-1,1.6314386E-1,6.4358977E4,7.2402E4,2.9861365E4,1.333E3,3.6542961E3,1.25777E5,-1.446377E-1,1.10138E5,7.30445E4,1.8268721E3,7.9691E4,8.47E2,7.147935E-5,2.03786E5,4.6771855E-4,9E0,3.024E4,4.7E1,2.3493404E-4,2.18E2,-2.588954E-2,-1.410924E-1,2E0,2.9536788E5,5E0,2.013E3,8.271371E-3,6E0,2.5171965E-1,6.7439006E-4,2.1363178E-3,2.018E3,1.18752E3,1.3889207E3,1.804483E-3,5E0,2.595271E-1,5.32E2,9E0,6.2E3,1.18752E3,9.9729285E2,9.197357E-3,8E0,2.997173E-2,2.5562567E-1,9.3408093E2,2.5635396E3,1.3271191E3,2.260129E3,5.7E1,5.491057E3,9E0,6.3781484E4,2.03E2,1.09629844E-4,9E0,3.3013E4,1.2091232E-5,1.4015247E5,1.744E3,-5.2008696E-2,3.2979886E-5,1E0,8E0,5.936E3,2.51681E5,7.4181975E-5,2.8923985E-5,2.51681E5,8.0225256E-4,5E0,2.017E3,6.878579E-3,1.9E1,3E0,5E-1,2.951679E5,1.2895988E-1,8.9E1,1.0259901E0,1.3E1,4.7E1,2.4001E4,1.8806E4,1.4123748E-1,2.5E1,1.2E1,4.2E1,3.36E3,6.6882E4,5E-1,1.282E3,1.9491736E-5,3.576695E-2,-1.4563864E-1,1.371933E-1,6.573487E-2,3.873739E-4,9.0014E2,1.0672105E-5,1.1230788E4,3.81921E3,-1.4592093E-1,7.447018E4,4.6876064E-3,7.2076896E-6,7.0185125E4,2.5635396E3,2.9861365E4,3.799562E-4,9.3559007E-4,3.873739E-4,9.0014E2,2.2349916E-4,7.713638E4,-1.4537698E-1,6.1228994E-4,1.7543325E6,4.6876064E-3,1.4435E4,1.1E1,1.8227E5,2.9861365E4,4.1714442E-4,9.1664E4,2.2771596E4,2.07541E5,-1.43207265E-2,-9.473651E-2,2.5525996E-2,8.783368E-2,-2.3229375E-2,-1.2047957E-2,-4.173627E-2,-1.2641807E-1,-1.3684393E-2,3.8524874E-2,6.7917205E-2,1.3759014E-1,-1.2322974E-2,4.7187977E-3,-1.6459925E-2,1.6417764E-2,1.5106293E-2,-1.3338124E-2,-4.4518135E-2,2.6310295E-2,4.764753E-2,-2.1119615E-2,2.1172592E-3,-4.0109657E-2,3.5208434E-2,2.3562623E-2,5.779192E-2,8.157901E-2,-1.65845E-2,-7.936586E-2,-6.593965E-2,-2.8404713E-2,-5.6139514E-2,-7.378659E-2,-8.491394E-2,-1.4300953E-1,-6.545895E-2,-9.694272E-2,-1.0185637E-1,-1.3335629E-1,-8.4946565E-2,-1.1641944E-1,-6.211981E-2,-2.9430535E-2,1.0400844E-2,2.9616239E-2,-2.043238E-2,1.0156295E-2,-5.934323E-2,-9.0647966E-2,-3.5156004E-2,-8.412381E-2,7.656657E-3,-1.7838053E-2,-7.0402506E-3,-4.508943E-2,-7.794603E-2,-5.9810866E-2,-8.606165E-2,-1.8769503E-2,-1.160117E-1,-8.443592E-2,-8.729793E-2,-1.2655142E-1,-9.344921E-2,-1.1836878E-1,-1.1984117E-1,-1.3913336E-1,-5.841243E-2,-1.1397179E-1,-5.0348103E-2,1.27473315E-2,-8.798399E-2,-1.0549133E-2,-6.69897E-2,-1.458563E-1,-8.549477E-2,-1.4304441E-1,-1.1339668E-1,-1.4979338E-2,-1.2474769E-1,-1.414496E-1,-1.1648367E-1,-3.676584E-2,-1.4079252E-1,-1.4427386E-1,-4.4674715E-3,-1.1424599E-1,2.3598751E-2,7.785419E-2,4.795919E-3,-1.2608694E-1,-1.3024117E-1,-4.344834E-3,7.279817E-2,-3.9720565E-2,-1.3692898E-1,7.002752E-2,8.622721E-2,-4.0018883E-2,2.1124462E-2,1.4008766E-1,-1.3016111E-2,-5.749589E-2,2.4770564E-4,1.21565446E-1,-7.688851E-2,-1.1744674E-1,-2.75445E-2,-6.8398684E-2,-1.05948575E-1,2.028748E-2,-2.8666072E-2,4.3693878E-2,-1.1016826E-1,-1.5989587E-2,-1.4369425E-1,-8.510046E-2,1.4392507E-1,1.3948086E-1,1.3119416E-1,9.719923E-2,1.3209604E-1,1.4116025E-1,8.7290294E-2,2.4526473E-2,1.2415204E-1,1.2005774E-2,1.311083E-1,5.2184068E-2,9.1207236E-2,-1.4209977E-1,6.343265E-2,9.809245E-2,5.817645E-3,4.9617216E-2,6.346346E-2,-7.8271024E-2,1.1695257E-1,1.4933972E-3,-1.4217758E-1,3.8847707E-2,8.102322E-2,-9.5742024E-2,-5.648186E-2,9.1277555E-2,5.082991E-2,-5.679956E-3,-8.047522E-2,3.8708348E-2,-1.0358697E-1,-1.4106965E-1,2.6997743E-2,-1.256783E-1,-1.4734761E-1,-5.9562203E-2,-1.315563E-1,3.6902435E-2,-4.120477E-2,6.31828E-2,-1.2086696E-1,8.046212E-2,2.307516E-2,-1.3278449E-1,1.1828245E-1,-1.5142341E-1,-1.0911538E-1,-1.4477965E-1,1.0958332E-1,1.7329134E-2,1.958033E-3,9.2671126E-2,7.251233E-2,1.3529836E-2,-7.539858E-2,6.638214E-2,8.292189E-2,-1.7325391E-1,-1.0020614E-2,-1.5567599E-1,1.24029234E-1,-1.2776214E-1,-1.2751329E-1,5.0449405E-2,-1.5120432E-2,7.739135E-2,-2.8662827E-2,-1.4696865E-1,9.774683E-2,-1.6940041E-1,-1.111634E-1,9.132546E-2,-1.2266144E-1,-1.4499538E-1,-1.492488E-1,7.838151E-2,-1.6802636E-1,-1.442708E-1,2.6023386E-3,8.591321E-2,1.653819E-2,-7.62093E-2],"split_indices":[42,50,50,50,39,34,48,39,39,5,29,50,28,45,34,13,0,28,29,29,50,51,50,34,0,28,45,29,29,29,29,6,38,0,6,50,20,5,20,34,38,51,34,50,19,29,29,34,45,51,51,28,0,29,34,34,38,34,38,34,38,38,45,38,48,0,0,48,20,6,13,38,34,50,38,28,0,19,50,51,50,29,21,34,38,19,39,0,29,29,29,19,20,19,50,51,29,29,29,45,48,34,45,34,19,0,0,0,0,38,51,51,45,38,45,0,34,38,38,45,45,29,34,28,48,19,34,29,34,0,0,12,38,6,0,29,6,28,29,29,0,20,19,29,5,28,34,34,20,20,19,29,50,29,28,19,38,38,51,50,51,6,19,34,28,34,19,29,38,34,0,29,26,11,19,50,29,29,50,29,5,0,29,11,11,26,19,0,34,52,45,50,34,34,0,34,6,45,34,45,26,34,29,0,0,0,0,29,19,28,38,19,0,19,28,29,51,38,51,28,29,29,19,29,51,0,28,38,28,45,6,34,51,28,34,38,34,0,0,0,0,0,0,0,0,0,0,0,0,0,0,0,0,0,0,0,0,0,0,0,0,0,0,0,0,0,0,0,0,0,0,0,0,0,0,0,0,0,0,0,0,0,0,0,0,0,0,0,0,0,0,0,0,0,0,0,0,0,0,0,0,0,0,0,0,0,0,0,0,0,0,0,0,0,0,0,0,0,0,0,0,0,0,0,0,0,0,0,0,0,0,0,0,0,0,0,0,0,0,0,0,0,0,0,0,0,0,0,0,0,0,0,0,0,0,0,0,0,0,0,0,0,0,0,0,0,0,0,0,0,0,0,0,0,0,0,0,0,0,0,0,0,0,0,0,0,0,0,0,0,0,0,0,0,0,0,0,0,0,0,0,0,0,0,0,0,0,0,0,0,0,0,0,0,0,0,0,0,0,0,0,0,0,0,0,0,0,0,0,0,0,0,0,0,0,0,0,0,0],"split_type":[0,0,0,0,0,0,0,0,0,0,0,0,0,0,0,0,0,0,0,0,0,0,0,0,0,0,0,0,0,0,0,0,0,0,0,0,0,0,0,0,0,0,0,0,0,0,0,0,0,0,0,0,0,0,0,0,0,0,0,0,0,0,0,0,0,0,0,0,0,0,0,0,0,0,0,0,0,0,0,0,0,0,0,0,0,0,0,0,0,0,0,0,0,0,0,0,0,0,0,0,0,0,0,0,0,0,0,0,0,0,0,0,0,0,0,0,0,0,0,0,0,0,0,0,0,0,0,0,0,0,0,0,0,0,0,0,0,0,0,0,0,0,0,0,0,0,0,0,0,0,0,0,0,0,0,0,0,0,0,0,0,0,0,0,0,0,0,0,0,0,0,0,0,0,0,0,0,0,0,0,0,0,0,0,0,0,0,0,0,0,0,0,0,0,0,0,0,0,0,0,0,0,0,0,0,0,0,0,0,0,0,0,0,0,0,0,0,0,0,0,0,0,0,0,0,0,0,0,0,0,0,0,0,0,0,0,0,0,0,0,0,0,0,0,0,0,0,0,0,0,0,0,0,0,0,0,0,0,0,0,0,0,0,0,0,0,0,0,0,0,0,0,0,0,0,0,0,0,0,0,0,0,0,0,0,0,0,0,0,0,0,0,0,0,0,0,0,0,0,0,0,0,0,0,0,0,0,0,0,0,0,0,0,0,0,0,0,0,0,0,0,0,0,0,0,0,0,0,0,0,0,0,0,0,0,0,0,0,0,0,0,0,0,0,0,0,0,0,0,0,0,0,0,0,0,0,0,0,0,0,0,0,0,0,0,0,0,0,0,0,0,0,0,0,0,0,0,0,0,0,0,0,0,0,0,0,0,0,0,0,0,0,0,0,0,0,0,0,0,0,0,0,0,0,0,0,0,0,0,0,0,0,0,0,0,0,0,0,0,0,0,0,0,0,0,0,0,0,0,0,0,0,0,0,0,0,0,0,0],"sum_hessian":[1.0844189E6,3.776931E5,7.0672575E5,2.1040634E5,1.6728675E5,1.9029045E5,5.1643528E5,1.3635552E5,7.405083E4,1.437596E5,2.352716E4,1.8560312E5,4.6873345E3,4.0355425E5,1.1288104E5,6.3194133E4,7.316138E4,4.589509E4,2.8155742E4,1.805031E4,1.2570928E5,1.0933882E4,1.2593278E4,6.0141715E4,1.2546141E5,4.156194E3,5.311407E2,2.3905767E5,1.6449658E5,5.3090598E4,5.979044E4,6.2507004E4,6.871274E2,4.8484008E4,2.4677373E4,2.463141E4,2.126368E4,1.6297923E4,1.1857818E4,6.002834E3,1.2047477E4,2.7120122E3,1.22997266E5,5.318541E3,5.615341E3,5.3564897E3,7.236789E3,5.5029875E4,5.111842E3,3.181595E4,9.364545E4,4.140807E2,3.742113E3,1.4385963E2,3.8728104E2,1.8042839E5,5.8629285E4,4.821691E4,1.16279664E5,4.1112633E4,1.1977964E4,2.6313932E4,3.347651E4,3.4652512E3,5.9041754E4,5.1230585E2,1.7482152E2,3.798616E4,1.0497848E4,7.033637E2,2.397401E4,1.0749795E4,1.3881615E4,9.403222E3,1.1860457E4,1.6050726E4,2.4719664E2,4.407947E3,7.4498716E3,3.8281707E3,2.1746636E3,8.381455E3,3.6660222E3,1.1647532E3,1.5472592E3,2.8581482E4,9.441579E4,4.456221E3,8.6231995E2,5.6168036E2,5.0536606E3,3.1935625E3,2.162927E3,3.4279043E3,3.8088845E3,4.711296E4,7.9169136E3,3.0056458E3,2.106196E3,5.227214E3,2.6588736E4,3.684247E4,5.680299E4,3.217623E2,9.231837E1,3.2294918E1,1.1156472E2,8.7829185E1,2.9945187E2,1.7246933E5,7.9590615E3,2.5524795E4,3.3104492E4,3.0086482E4,1.813043E4,1.9234327E3,1.14356234E5,3.4629203E4,6.483432E3,4.2436206E3,7.734343E3,1.5924977E3,2.4721434E4,1.7195933E3,3.1756918E4,1.9540334E3,1.5112178E3,5.8803242E4,2.3851035E2,4.492623E1,4.673796E2,6.884028E1,1.0598124E2,3.6974465E4,1.0116952E3,6.361564E3,4.1362837E3,1.401354E2,5.632283E2,2.3313719E4,6.602916E2,3.6619497E3,7.0878457E3,1.2375619E4,1.5059962E3,4.9176343E3,4.485587E3,4.666294E3,7.194163E3,7.656971E3,8.393755E3,2.521112E3,1.8868348E3,4.6933057E3,2.756566E3,3.21773E3,6.104407E2,1.7313173E3,4.433462E2,5.7319985E3,2.6494563E3,2.0067329E3,1.6592893E3,8.5562384E2,3.0912936E2,1.2576638E3,2.8959525E2,2.6826416E4,1.755065E3,9.436881E4,4.697135E1,9.672531E2,3.488968E3,4.347969E2,4.2752307E2,3.3889624E2,2.227841E2,4.312834E3,7.408265E2,1.6957533E3,1.4978092E3,4.8916193E2,1.6737651E3,1.8798392E3,1.5480652E3,1.7693453E3,2.0395392E3,1.770099E3,4.534286E4,2.9799707E3,4.936943E3,1.6159886E3,1.389657E3,4.9037146E2,1.6158247E3,5.391727E2,4.688041E3,2.3391645E4,3.1970908E3,3.646349E4,3.7898117E2,1.5778747E4,4.102424E4,3.7544895E1,2.842174E2,5.7943047E1,3.437532E1,1.4445672E5,2.8012607E4,5.7479253E3,2.2111362E3,1.8688478E3,2.3655947E4,1.3752573E4,1.9351918E4,1.5895528E4,1.4190954E4,1.5539204E2,1.7975037E4,1.6049444E4,9.830679E4,2.9770059E4,4.859143E3,2.131402E3,4.35203E3,3.7198586E3,5.2376215E2,1.6305863E3,6.1037563E3,5.1237646E2,1.0801212E3,5.116341E3,1.9605094E4,3.4881906E2,1.3707742E3,2.7033836E4,4.7230815E3,1.6918857E3,2.6214764E2,6.335337E2,8.776841E2,6.633131E3,5.2170113E4,1.4743567E2,9.107467E1,3.4154778E1,3.46855E1,3.5353397E1,7.062784E1,9.526962E2,3.6021766E4,8.885541E2,1.2314111E2,4.834715E3,1.5268489E3,1.23118935E2,4.0131648E3,9.19998E1,4.813561E1,9.890746E1,4.643208E2,9.452857E3,1.386086E4,1.8284744E2,4.7744415E2,2.789883E3,8.720667E2,4.429571E3,2.658275E3,8.094486E3,4.281134E3,1.3007417E3,2.0525447E2,2.644043E3,2.2735916E3,3.4764587E3,1.00912823E3,1.9175197E3,2.7487744E3,3.5402063E3,3.653957E3,5.6893555E3,1.9676157E3,3.5516943E3,4.8420605E3,8.0695056E2,1.7141615E3,1.4955997E3,3.9123508E2,2.8379736E3,1.855332E3,1.2223479E3,1.5342181E3,1.8610698E3,1.35666E3,2.4242122E2,3.6801944E2,3.0764883E2,1.4236685E3,1.0142537E2,3.4192084E2,2.8901934E3,2.841805E3,1.3311079E3,1.3183485E3,1.6759172E2,1.8391412E3,1.4501794E3,2.091098E2,2.9414728E2,5.6147656E2,9.2392166E1,2.167372E2,1.01528465E2,1.1561354E3,2.4086632E2,4.8728935E1,9.425385E3,1.7401031E4,1.4256743E3,3.2939062E2,2.5173502E4,6.919531E4,8.0540576E2,1.618474E2,2.866133E3,6.2283496E2,3.9808432E2,3.671258E1,3.639214E2,6.3601677E1,2.8283777E2,5.605848E1,1.5937016E2,6.341393E1,3.8030278E3,5.0980615E2,5.8585598E1,6.822409E2,1.1904125E3,5.0534082E2,1.4589092E3,3.890009E1,5.9799652E1,4.2936227E2,8.143302E2,8.5943494E2,1.789106E3,9.073319E1,1.1411464E3,4.069188E2,1.6260942E3,1.43251E2,2.0040352E3,3.5504135E1,3.479161E4,1.0551252E4,2.1244727E3,8.5549805E2,1.9699116E3,2.9670315E3,1.0584232E3,5.575655E2,1.355792E3,3.386489E1,4.489344E2,4.143707E1,3.30493E2,2.0867972E2,1.843816E2,4.5036597E3,5.7590825E3,1.7632562E4,1.5270573E3,1.6700336E3,3.6100273E4,3.6321567E2,3.0536588E2,7.361527E1,1.1036798E4,4.7419497E3,1.268634E3,3.9755605E4,1.353709E5,9.085806E3,7.2499375E3,2.076267E4,1.9515267E3,3.7963984E3,1.3959956E3,8.151407E2,1.6191332E3,2.4971463E2,1.2765279E4,9.8729395E2,1.0574161E4,8.777757E3,1.4769873E3,1.4418541E4,7.26628E3,6.9246743E3,8.723386E1,6.815819E1,1.1056224E3,1.6869416E4,4.5057734E3,1.1543671E4,4.5623403E3,9.374445E4,2.7909398E4,1.8606608E3,1.3017664E3,3.557377E3,2.0382603E3,9.3141815E1,3.3123528E3,1.039677E3,3.035452E2,2.2021693E2,1.4346426E3,1.9594377E2,3.2493545E3,2.8544019E3,3.8137302E1,4.7423917E2,1.0411959E3,3.8925346E1,4.997193E3,1.1914797E2,1.0457065E3,1.8559387E4,2.9909558E2,4.9723488E1,2.8306104E2,1.0877131E3,2.535562E4,1.6782183E3,8.980494E2,3.8250322E3],"tree_param":{"num_deleted":"0","num_feature":"53","num_nodes":"439","size_leaf_vector":"1"}},{"base_weights":[-1.6365476E-3,-6.7410624E-1,3.578122E-1,-2.0579112E-1,-1.371169E0,1.0056887E0,1.2062524E-1,7.951349E-3,-5.3870034E-1,-1.5416348E0,-2.0197779E-1,1.4442303E0,6.850485E-1,2.1066071E-1,-2.0196658E-1,-1.5353228E-1,1.4809807E-1,-7.922397E-1,-1.09360985E-1,-1.0874808E0,-1.583975E0,3.5626316E-1,-1.0524168E0,9.79035E-1,1.5273153E0,7.6757747E-1,-1.2455212E0,4.606257E-2,4.5183697E-1,3.3108798E-1,-6.796265E-1,-1.4564534E-1,-8.4674287E-1,4.443041E-2,2.6176676E-1,-7.117592E-1,-1.0071002E0,1.1816235E-1,-2.8801352E-1,-8.9296204E-1,-1.2136457E0,-1.4146358E0,-1.5969523E0,-4.903375E-2,6.627807E-1,-8.068351E-1,-1.4255921E0,1.131886E0,-2.1131514E-1,1.5385281E0,-1.0093495E0,3.0891845E-1,8.946429E-1,-1.5633174E0,9.4345367E-1,3.817704E-1,-1.0027324E0,-5.4141575E-1,8.626627E-1,5.697078E-1,-4.877147E-1,-1.4401004E0,-1.2070144E-1,1.656767E-1,-1.6182315E-1,-1.4951955E0,7.863346E-1,-2.1449639E-1,5.1056784E-2,2.4900259E-1,7.8443563E-1,-5.451423E-1,-8.105305E-1,-1.1927326E0,-8.240472E-1,9.041829E-2,9.5606154E-1,-5.64217E-1,-9.462861E-2,-8.149358E-1,-1.2843181E0,-1.299745E0,-7.2365236E-1,-1.4628295E0,-8.732514E-1,-1.5586929E0,-1.6188384E0,1.0445624E-1,-7.449257E-1,1.1042271E0,4.334782E-1,-5.16407E-1,-1.0469664E0,-1.4922144E0,4.3958017E-1,1.4803963E0,1.0026026E0,-1.6595488E0,8.54858E-1,1.580637E0,1.3040588E0,-1.2878376E0,9.55093E-2,3.760078E-1,-1.8182519E-1,5.866905E-1,1.0415144E0,-7.074617E-1,-1.3910705E-1,-1.3271078E-1,1.6963608E0,4.4957075E-1,-1.0909368E0,-1.5113709E0,-4.1206402E-1,7.950157E-2,-1.5847021E0,-1.3644247E-1,9.041301E-1,6.604492E-1,-2.918612E-1,-1.3945829E0,6.0174107E-3,7.837177E-1,-1.506827E0,-1.4447837E0,-2.9381845E-2,-2.8664228E-1,6.795334E-1,-1.5858068E-1,-9.467151E-1,-4.278508E-2,-1.5765544E0,1.4546989E-1,1.0886333E0,4.664354E-2,-4.4432232E-1,5.7398614E-2,-1.7624234E-1,-1.7274584E-1,2.6177233E-1,5.466463E-1,9.5897305E-1,-5.5341583E-1,4.0412992E-1,-7.5174165E-1,-1.0074222E0,-9.85156E-1,-1.3225445E0,-1.1476831E0,-3.9815292E-1,-1.2371523E-1,1.3696206E-1,1.0617915E-1,7.943023E-1,-3.8387474E-1,-8.550377E-1,-7.6965344E-1,-5.943858E-2,-6.882787E-1,-9.827631E-1,-5.0330322E-2,-1.324188E0,-1.2205006E0,-1.4991704E0,-1.0063264E0,2.1927215E-1,-1.3031781E0,-1.575264E0,1.2515873E-1,-1.0194083E0,-1.3378457E0,-1.572958E0,-1.359934E-1,-2.7309237E-2,2.227644E-1,-3.8757157E-1,-1.383375E-1,-1.266719E0,8.939931E-1,1.3153267E0,-4.59223E-1,5.473765E-1,-8.4315675E-1,-2.2283845E-1,-1.2129405E0,-6.9156927E-1,-1.5304316E0,-0E0,1.22794546E-1,-1.05851315E-1,1.3043307E-1,1.4070083E0,5.382475E-1,1.1412128E0,-7.9794735E-1,-1.5221085E-1,-1.0863034E0,1.4863508E0,1.5980906E0,1.482589E0,1.1217312E0,1.531526E0,-1.4989017E0,-6.648162E-1,1.4686007E-3,5.079683E-1,5.045545E-1,-9.43241E-1,1.121356E0,-8.008037E-1,1.2703654E0,8.986452E-1,-1.3837302E-1,6.265298E-1,1.0233236E-1,1.5270887E-1,5.2501494E-1,9.9865764E-2,-1.4312955E0,-2.4000394E-1,-1.0109024E0,-1.636277E0,-1.3120805E0,2.02535E-1,3.2706982E-1,-1.3969205E-1,9.301489E-2,-1.5999278E0,6.552173E-1,1.0257436E0,7.2726166E-1,2.3533452E-1,7.276185E-2,-1.680411E0,-1.6284713E0,1.9878273E-1,-6.215021E-1,6.0588247E-1,-1.3466504E-1,1.3458005E0,-9.8912686E-1,-1.6008064E0,-1.6222184E0,-3.7673208E-1,8.1965834E-2,-6.7249835E-1,-4.107582E-3,-6.1578337E-2,2.1503557E-2,8.138368E-2,-1.0188289E-2,-1.7816633E-2,-4.6283986E-2,-1.1222945E-1,-7.793992E-2,-1.3574341E-1,-9.197619E-3,3.492408E-2,-3.3980352E-3,1.22515574E-1,1.8488375E-2,-8.324559E-3,-0E0,-4.1648313E-2,2.4359586E-2,4.6260958E-3,-1.8575106E-2,3.249153E-2,1.2800509E-2,-2.8241042E-2,1.8991936E-2,3.382384E-2,5.7852637E-2,1.4347006E-2,6.735929E-2,9.10006E-2,-4.5438495E-2,-1.24483496E-1,1.1964875E-1,-6.2447723E-2,-5.5647045E-2,-7.440783E-2,-8.097325E-2,-1.3991928E-1,-8.4586345E-2,3.686423E-2,-5.5370674E-2,-1.14829324E-1,-1.07163556E-1,-7.8206316E-2,-5.649279E-2,-6.7653256E-3,-3.0001889E-3,-2.8366918E-2,9.3723565E-2,1.0167085E-2,2.2617396E-2,7.4088424E-2,-1.601111E-2,-5.6296304E-2,-8.298309E-2,-5.2830476E-2,-2.9813075E-2,-8.8516675E-2,2.3593288E-3,-2.1752184E-2,-6.529963E-2,-3.878929E-2,-5.27389E-2,-9.007304E-2,-8.411247E-2,-1.2005011E-1,-1.1824744E-1,-9.578425E-2,-1.1415491E-1,-1.3350682E-1,-9.819598E-2,-5.518985E-2,4.6787728E-2,-1.555916E-2,-1.129788E-1,3.5326455E-2,-7.8754365E-2,-1.3316995E-1,-3.2267E-2,4.378478E-2,3.5060637E-2,-9.4765306E-2,-1.2202084E-1,-7.533312E-2,-1.1451162E-1,-1.3308105E-1,1.0686848E-2,6.294918E-2,-9.105441E-2,1.0722626E-2,-1.0197723E-3,-1.1665635E-1,-1.21308096E-1,2.0821285E-2,4.915301E-2,8.422519E-2,9.963655E-2,1.3306472E-1,2.7706934E-2,-8.146888E-2,-1.5207353E-1,4.8579164E-2,-4.1673064E-2,-8.621435E-2,-2.97959E-2,5.48695E-2,-6.8459876E-2,-1.1048562E-1,-6.803471E-3,-7.1069844E-2,-1.00189954E-1,-1.3618256E-1,5.9763648E-2,-5.0766785E-2,1.1974403E-1,5.6039985E-2,1.0483233E-1,-1.3102429E-1,8.2435675E-2,1.0333552E-1,-1.3558993E-1,1.1859129E-3,1.2008072E-1,-1.8366103E-1,1.4505191E-1,-1.7609334E-1,1.348911E-1,1.18650876E-1,1.1746871E-1,1.3380077E-1,7.145329E-2,1.1213269E-1,1.3010249E-1,8.6475216E-2,-8.476836E-2,-1.3371533E-1,-8.8763505E-2,-1.5601976E-2,2.2729982E-2,-1.306429E-1,4.696961E-2,-5.397626E-2,4.934025E-2,-1.4043337E-1,-1.610815E-1,-5.8395E-2,1.10265546E-1,-1.4605709E-2,-1.1847077E-1,5.85933E-3,7.594264E-2,1.1648498E-1,5.5579662E-2,8.134767E-2,1.40058E-1,-1.363683E-1,4.7456227E-2,-8.335755E-3,-7.324184E-2,3.7089802E-2,-9.726621E-2,-1.3189813E-1,2.5403714E-2,-1.4150979E-1,-1.3878869E-1,3.9009776E-2,-3.8739536E-2,-1.378001E-1,-1.21663846E-1,5.869608E-2,-4.262869E-2,7.2448045E-2,-1.2460395E-1,4.656567E-2,1.1227707E-1,-1.4133161E-1,-1.3507725E-1,2.5440492E-3,4.0598877E-2,1.0116155E-1,-6.820828E-2,9.153221E-2,6.445344E-2,1.0713057E-2,5.123659E-2,-1.0655104E-1,-1.4127593E-1,2.4519121E-2,-1.4307657E-1,-9.7305976E-2,-1.0722567E-1,-1.3746917E-1,1.1568525E-1,-1.23333946E-1,-1.0834945E-1,2.8829442E-2,1.0551531E-1,3.1403314E-2,1.1976135E-1,-1.4564393E-3,-2.3640653E-2,-1.374023E-1,-1.1167299E-1,-1.3627088E-1,-1.17024906E-1,-1.4122824E-1,6.565608E-2,-1.510277E-1,3.359641E-3,1.022715E-1,1.9323919E-2,-7.346045E-2],"categories":[],"categories_nodes":[],"categories_segments":[],"categories_sizes":[],"default_left":[0,0,0,0,0,0,0,0,0,0,0,0,0,0,0,0,0,0,0,0,0,0,0,0,0,0,0,0,0,0,0,0,0,0,0,0,0,0,0,0,0,0,0,0,0,0,0,0,0,0,0,0,0,0,0,0,0,0,0,0,0,0,0,0,0,0,0,0,0,0,0,0,0,0,0,0,0,0,0,0,0,0,0,0,0,0,0,0,0,0,0,0,0,0,0,0,0,0,0,0,0,0,0,0,0,0,0,0,0,0,0,0,0,0,0,0,0,0,0,0,0,0,0,0,0,0,0,0,0,0,0,0,0,0,0,0,0,0,0,0,0,0,0,0,0,0,0,0,0,0,0,0,0,0,0,0,0,0,0,0,0,0,0,0,0,0,0,0,0,0,0,0,0,0,0,0,0,0,0,0,0,0,0,0,0,0,0,0,0,0,0,0,0,0,0,0,0,0,0,0,0,0,0,0,0,0,0,0,0,0,0,0,0,0,0,0,0,0,0,0,0,0,0,0,0,0,0,0,0,0,0,0,0,0,0,0,0,0,0,0,0,0,0,0,0,0,0,0,0,0,0,0,0,0,0,0,0,0,0,0,0,0,0,0,0,0,0,0,0,0,0,0,0,0,0,0,0,0,0,0,0,0,0,0,0,0,0,0,0,0,0,0,0,0,0,0,0,0,0,0,0,0,0,0,0,0,0,0,0,0,0,0,0,0,0,0,0,0,0,0,0,0,0,0,0,0,0,0,0,0,0,0,0,0,0,0,0,0,0,0,0,0,0,0,0,0,0,0,0,0,0,0,0,0,0,0,0,0,0,0,0,0,0,0,0,0,0,0,0,0,0,0,0,0,0,0,0,0,0,0,0,0,0,0,0,0,0,0,0,0,0,0,0,0,0,0,0,0,0,0,0,0,0,0,0,0,0,0,0,0,0,0,0,0,0,0,0,0,0,0,0,0,0,0,0,0,0,0,0,0,0,0,0,0,0,0,0,0,0,0,0,0,0,0,0,0,0,0,0,0,0,0,0,0,0,0,0,0,0],"id":3,"left_children":[1,3,5,7,9,11,13,15,17,19,21,23,25,27,29,31,33,35,37,39,41,43,45,47,49,51,53,55,57,59,61,63,65,67,69,71,73,75,77,79,81,83,85,87,89,91,93,95,97,99,101,103,105,107,109,111,113,115,117,119,121,123,125,127,129,131,133,135,137,139,141,143,145,147,149,151,153,155,157,159,161,163,165,167,169,171,173,175,177,179,181,183,185,187,189,191,193,195,197,199,201,203,-1,205,207,209,211,213,-1,-1,215,217,219,221,223,225,227,-1,229,231,233,235,237,239,241,243,245,247,249,251,253,-1,255,257,259,261,263,265,267,269,271,273,275,277,279,281,283,285,287,289,291,293,295,-1,297,299,301,303,305,307,309,-1,311,313,315,317,319,321,323,325,327,329,331,-1,-1,333,335,337,339,341,343,345,347,349,351,353,355,357,359,-1,-1,-1,361,363,365,367,-1,369,371,373,375,377,379,381,383,385,387,389,391,393,395,397,399,-1,401,-1,-1,403,405,407,409,411,413,415,417,419,-1,421,423,425,427,429,431,433,435,437,439,441,443,-1,445,447,449,451,453,455,457,-1,-1,-1,-1,-1,-1,-1,-1,-1,-1,-1,-1,-1,-1,-1,-1,-1,-1,-1,-1,-1,-1,-1,-1,-1,-1,-1,-1,-1,-1,-1,-1,-1,-1,-1,-1,-1,-1,-1,-1,-1,-1,-1,-1,-1,-1,-1,-1,-1,-1,-1,-1,-1,-1,-1,-1,-1,-1,-1,-1,-1,-1,-1,-1,-1,-1,-1,-1,-1,-1,-1,-1,-1,-1,-1,-1,-1,-1,-1,-1,-1,-1,-1,-1,-1,-1,-1,-1,-1,-1,-1,-1,-1,-1,-1,-1,-1,-1,-1,-1,-1,-1,-1,-1,-1,-1,-1,-1,-1,-1,-1,-1,-1,-1,-1,-1,-1,-1,-1,-1,-1,-1,-1,-1,-1,-1,-1,-1,-1,-1,-1,-1,-1,-1,-1,-1,-1,-1,-1,-1,-1,-1,-1,-1,-1,-1,-1,-1,-1,-1,-1,-1,-1,-1,-1,-1,-1,-1,-1,-1,-1,-1,-1,-1,-1,-1,-1,-1,-1,-1,-1,-1,-1,-1,-1,-1,-1,-1,-1,-1,-1,-1,-1,-1,-1,-1,-1,-1,-1,-1,-1,-1,-1,-1,-1,-1,-1,-1,-1,-1,-1,-1,-1,-1,-1,-1,-1,-1,-1,-1,-1,-1],"loss_changes":[2.5922894E5,1.21946125E5,1.0739332E5,1.5900461E4,2.9917156E4,2.633089E4,1.4859072E4,3.079747E3,9.509629E3,2.5122188E3,9.072037E3,3.0508906E3,1.7240309E4,1.5876889E4,2.8423488E4,3.443849E2,8.5821155E2,9.4633203E2,1.3190078E3,2.6959766E2,2.5459375E2,1.4337518E3,6.888545E2,2.1840059E3,1.9132031E3,6.045246E3,3.0903027E3,8.3701695E4,6.62035E4,1.030834E4,2.5022639E4,3.149402E2,7.548672E2,6.5260414E1,2.3030371E2,6.553828E2,5.0381445E2,3.3047168E2,9.7010315E2,1.2999316E2,2.8134473E2,2.1771094E2,8.359375E1,5.315127E2,6.622844E2,3.1611816E2,3.755791E2,4.7276855E2,2.114331E3,6.515156E2,1.8116626E2,7.4164575E2,3.6716406E3,3.0383594E2,1.0779459E3,1.798236E4,1.7314645E4,3.0753223E4,1.1841492E4,3.1947314E3,5.3320244E3,3.7044688E3,4.1020195E3,7.1828796E2,1.497937E2,3.671643E1,3.7686493E1,5.7328808E1,5.3486664E1,1.8290918E2,3.1433228E1,1.1765527E2,2.8671875E2,1.9429688E2,1.0369707E3,1.3775523E2,1.814624E1,3.9040234E2,2.5315562E2,7.502197E1,1.593042E1,8.359668E1,2.7314496E2,1.3286719E2,1.0445502E2,1.19578125E2,5.3578125E1,2.3707664E2,2.8281482E2,9.4352295E1,4.4094293E2,1.9774469E2,1.434353E2,1.6426904E2,1.874381E2,6.8251953E0,4.9654785E2,7.0292114E1,9.7092755E2,8.78125E1,4.1561328E2,3.0043854E1,0E0,9.785901E2,1.4168173E3,1.9472055E4,1.7934023E3,4.880171E2,0E0,0E0,1.6753418E1,4.541492E3,2.2930479E3,1.9291562E3,1.4757219E4,1.2842489E4,4.543086E2,0E0,3.4139375E3,1.0484473E3,1.9731254E3,1.5665273E3,2.9033716E3,9.819131E2,1.1715039E3,4.1128516E2,2.2744253E3,1.7353453E2,1.7559528E2,1.1778015E2,3.3685776E1,0E0,5.7718506E0,5.176381E0,5.857489E1,1.1406458E1,1.1289444E1,1.905465E1,2.5510565E1,5.3300316E1,1.645122E2,1.7983582E1,5.1156616E0,1.6487744E2,1.5464722E2,2.2831445E2,1.5699707E2,9.206079E1,1.3125537E2,1.13839355E2,2.8359534E2,4.602704E1,1.7508076E2,0E0,1.248941E1,2.5489026E2,8.285278E1,5.9976532E1,1.779384E2,4.0607605E1,4.686963E1,0E0,1.7178589E1,5.5364746E1,1.21154785E1,4.0961548E1,3.2959854E1,2.3985645E2,2.4655273E1,1.917759E1,9.8838684E1,1.2046924E2,8.58125E1,0E0,0E0,1.6421704E2,2.8439795E2,6.482202E1,1.3201227E2,3.50885E1,3.1001099E1,1.9915259E2,2.8345898E2,5.9628967E1,1.2744E2,6.45813E1,7.485104E1,7.927197E1,3.346679E1,0E0,0E0,0E0,1.6014648E1,2.6743955E3,7.990918E1,6.339593E1,0E0,5.478572E2,5.2387463E2,6.449219E1,7.110156E1,3.2283984E2,3.3743164E1,2.1940002E0,1.1922192E1,2.1653457E3,8.665498E2,2.5897638E2,3.0460938E2,4.7067773E3,3.8788018E3,8.978047E2,5.588301E2,0E0,3.845016E2,0E0,0E0,3.5466133E3,1.0153346E4,2.0806348E2,1.7811644E3,5.8689067E3,1.3277344E2,2.9801465E3,7.43412E3,1.0736154E4,0E0,3.6150043E2,2.4839844E2,3.4943838E3,8.95825E3,7.7024414E2,2.8348567E3,1.1871205E3,2.0146484E0,2.7958984E0,1.064712E3,2.433835E3,5.923541E2,0E0,6.616223E1,1.7042944E3,1.1346094E2,1.6513184E1,5.2508185E2,1.2886556E3,8.570842E2,0E0,0E0,0E0,0E0,0E0,0E0,0E0,0E0,0E0,0E0,0E0,0E0,0E0,0E0,0E0,0E0,0E0,0E0,0E0,0E0,0E0,0E0,0E0,0E0,0E0,0E0,0E0,0E0,0E0,0E0,0E0,0E0,0E0,0E0,0E0,0E0,0E0,0E0,0E0,0E0,0E0,0E0,0E0,0E0,0E0,0E0,0E0,0E0,0E0,0E0,0E0,0E0,0E0,0E0,0E0,0E0,0E0,0E0,0E0,0E0,0E0,0E0,0E0,0E0,0E0,0E0,0E0,0E0,0E0,0E0,0E0,0E0,0E0,0E0,0E0,0E0,0E0,0E0,0E0,0E0,0E0,0E0,0E0,0E0,0E0,0E0,0E0,0E0,0E0,0E0,0E0,0E0,0E0,0E0,0E0,0E0,0E0,0E0,0E0,0E0,0E0,0E0,0E0,0E0,0E0,0E0,0E0,0E0,0E0,0E0,0E0,0E0,0E0,0E0,0E0,0E0,0E0,0E0,0E0,0E0,0E0,0E0,0E0,0E0,0E0,0E0,0E0,0E0,0E0,0E0,0E0,0E0,0E0,0E0,0E0,0E0,0E0,0E0,0E0,0E0,0E0,0E0,0E0,0E0,0E0,0E0,0E0,0E0,0E0,0E0,0E0,0E0,0E0,0E0,0E0,0E0,0E0,0E0,0E0,0E0,0E0,0E0,0E0,0E0,0E0,0E0,0E0,0E0,0E0,0E0,0E0,0E0,0E0,0E0,0E0,0E0,0E0,0E0,0E0,0E0,0E0,0E0,0E0,0E0,0E0,0E0,0E0,0E0,0E0,0E0,0E0,0E0,0E0,0E0,0E0,0E0,0E0,0E0,0E0,0E0,0E0,0E0,0E0,0E0,0E0,0E0,0E0,0E0,0E0,0E0,0E0,0E0],"parents":[2147483647,0,0,1,1,2,2,3,3,4,4,5,5,6,6,7,7,8,8,9,9,10,10,11,11,12,12,13,13,14,14,15,15,16,16,17,17,18,18,19,19,20,20,21,21,22,22,23,23,24,24,25,25,26,26,27,27,28,28,29,29,30,30,31,31,32,32,33,33,34,34,35,35,36,36,37,37,38,38,39,39,40,40,41,41,42,42,43,43,44,44,45,45,46,46,47,47,48,48,49,49,50,50,51,51,52,52,53,53,54,54,55,55,56,56,57,57,58,58,59,59,60,60,61,61,62,62,63,63,64,64,65,65,66,66,67,67,68,68,69,69,70,70,71,71,72,72,73,73,74,74,75,75,76,76,77,77,78,78,79,79,80,80,81,81,82,82,83,83,84,84,85,85,86,86,87,87,88,88,89,89,90,90,91,91,92,92,93,93,94,94,95,95,96,96,97,97,98,98,99,99,100,100,101,101,103,103,104,104,105,105,106,106,107,107,110,110,111,111,112,112,113,113,114,114,115,115,116,116,118,118,119,119,120,120,121,121,122,122,123,123,124,124,125,125,126,126,127,127,128,128,129,129,130,130,132,132,133,133,134,134,135,135,136,136,137,137,138,138,139,139,140,140,141,141,142,142,143,143,144,144,145,145,146,146,147,147,148,148,149,149,150,150,151,151,152,152,154,154,155,155,156,156,157,157,158,158,159,159,160,160,162,162,163,163,164,164,165,165,166,166,167,167,168,168,169,169,170,170,171,171,172,172,175,175,176,176,177,177,178,178,179,179,180,180,181,181,182,182,183,183,184,184,185,185,186,186,187,187,188,188,192,192,193,193,194,194,195,195,197,197,198,198,199,199,200,200,201,201,202,202,203,203,204,204,205,205,206,206,207,207,208,208,209,209,210,210,211,211,212,212,214,214,217,217,218,218,219,219,220,220,221,221,222,222,223,223,224,224,225,225,227,227,228,228,229,229,230,230,231,231,232,232,233,233,234,234,235,235,236,236,237,237,238,238,240,240,241,241,242,242,243,243,244,244,245,245,246,246],"right_children":[2,4,6,8,10,12,14,16,18,20,22,24,26,28,30,32,34,36,38,40,42,44,46,48,50,52,54,56,58,60,62,64,66,68,70,72,74,76,78,80,82,84,86,88,90,92,94,96,98,100,102,104,106,108,110,112,114,116,118,120,122,124,126,128,130,132,134,136,138,140,142,144,146,148,150,152,154,156,158,160,162,164,166,168,170,172,174,176,178,180,182,184,186,188,190,192,194,196,198,200,202,204,-1,206,208,210,212,214,-1,-1,216,218,220,222,224,226,228,-1,230,232,234,236,238,240,242,244,246,248,250,252,254,-1,256,258,260,262,264,266,268,270,272,274,276,278,280,282,284,286,288,290,292,294,296,-1,298,300,302,304,306,308,310,-1,312,314,316,318,320,322,324,326,328,330,332,-1,-1,334,336,338,340,342,344,346,348,350,352,354,356,358,360,-1,-1,-1,362,364,366,368,-1,370,372,374,376,378,380,382,384,386,388,390,392,394,396,398,400,-1,402,-1,-1,404,406,408,410,412,414,416,418,420,-1,422,424,426,428,430,432,434,436,438,440,442,444,-1,446,448,450,452,454,456,458,-1,-1,-1,-1,-1,-1,-1,-1,-1,-1,-1,-1,-1,-1,-1,-1,-1,-1,-1,-1,-1,-1,-1,-1,-1,-1,-1,-1,-1,-1,-1,-1,-1,-1,-1,-1,-1,-1,-1,-1,-1,-1,-1,-1,-1,-1,-1,-1,-1,-1,-1,-1,-1,-1,-1,-1,-1,-1,-1,-1,-1,-1,-1,-1,-1,-1,-1,-1,-1,-1,-1,-1,-1,-1,-1,-1,-1,-1,-1,-1,-1,-1,-1,-1,-1,-1,-1,-1,-1,-1,-1,-1,-1,-1,-1,-1,-1,-1,-1,-1,-1,-1,-1,-1,-1,-1,-1,-1,-1,-1,-1,-1,-1,-1,-1,-1,-1,-1,-1,-1,-1,-1,-1,-1,-1,-1,-1,-1,-1,-1,-1,-1,-1,-1,-1,-1,-1,-1,-1,-1,-1,-1,-1,-1,-1,-1,-1,-1,-1,-1,-1,-1,-1,-1,-1,-1,-1,-1,-1,-1,-1,-1,-1,-1,-1,-1,-1,-1,-1,-1,-1,-1,-1,-1,-1,-1,-1,-1,-1,-1,-1,-1,-1,-1,-1,-1,-1,-1,-1,-1,-1,-1,-1,-1,-1,-1,-1,-1,-1,-1,-1,-1,-1,-1,-1,-1,-1,-1,-1,-1,-1,-1],"split_conditions":[1E0,4.1E1,2.0937E4,1E0,4E0,3.193E3,7E0,6E0,4E0,5E0,2.0480642E-4,2.009E3,2.3763E5,4.5264E4,8.9112E4,1.5E1,2.016E3,2.568853E-1,2.0425196E-3,4.7407934E-4,1E1,1.6041131E4,3.193E3,2.737E3,1.35616E5,2.009E3,6.6672736E-1,9.898643E-4,3.873739E-4,9.898643E-4,3.873739E-4,6E0,3.681015E4,5E0,1.5E1,5E0,1.4E3,5E0,1.51E3,2.49E2,1.776405E4,3.3013E4,1.215E3,1.7984E4,2.6898592E-6,1.4022643E-3,2.4E1,6.66E2,3.55E2,2.325E3,1.3E1,7E0,4.22E2,1.8413994E-5,3.55E2,4.7854E4,1.6748838E4,2.03786E5,8.7553516E2,5.1496E4,8.556969E3,8.350654E2,9.1651E4,7.3569214E3,7E0,2.015E3,2.014E3,4E0,8E0,6E0,2.018E3,1.4015247E5,2.49E2,5E0,6.0046724E3,2.017E3,1E0,1.0869827E-2,5E0,1.53E2,5E0,6.0359137E-3,2.441259E4,2.4280349E-5,1.1316939E-5,3.69E2,3E0,5.000194E-1,4.036687E-6,1.5668666E5,1.4679567E2,2.183422E3,1.0447E4,4.6269488E5,3.2E1,1.31E2,1E1,1.647444E-8,1.7338498E-3,4.44E2,6.74E2,6.8E1,9.55093E-2,9.3E1,6.813E3,8.17E2,1.5762E4,1.0672105E-5,-1.3910705E-1,-1.3271078E-1,5.10879E5,5.563356E4,7.2402E4,5.3665746E-4,1.081E3,1.8392613E4,1.25777E5,-1.3644247E-1,2.07832E5,7.30445E4,7.713638E4,7.9691E4,1.544E4,7.147935E-5,1.60199E5,1.7644377E5,1E1,5.2229897E3,5E1,1.18752E3,4.1E1,-4.278508E-2,3.62374E2,3E0,1.5653406E5,3E0,2.015E3,6E0,1.9E1,4E0,2.019E3,2.5562567E-1,2.02E2,5.1E1,2.49E2,2.4630409E-3,4.5711E4,2.0905725E5,1.6120393E2,2.474547E3,1.6415814E4,9E0,1E0,1.0617915E-1,6E0,6E0,1.0275697E3,6E0,9E0,1.5017051E4,2.260129E3,-5.0330322E-2,7.1E1,1.3886866E3,3.9578687E3,3E3,9.5E1,2.019E3,2.44E2,2.5000337E-1,2.95E2,1.282697E5,8.9616884E-7,-1.359934E-1,-2.7309237E-2,5E-1,1E0,8E0,1.9937E4,1.31E2,3.6E1,1.2964591E-5,5E0,9.5E1,5E0,5.7E1,4.7476636E3,6.9636584E-4,2.5901864E-3,1.22794546E-1,-1.05851315E-1,1.3043307E-1,5.265552E3,2.6E1,3.0555184E-5,1.8E1,-1.5221085E-1,3.528E3,1.8708742E-3,2.443E3,8.2E1,9.7438064E-4,8.8701E4,2.30794E5,2.5003713E-1,9.5E1,1.5883291E3,7.5052184E-1,6.2719755E-6,8.431302E-4,2.016E3,2.0480642E-4,2.6824314E-4,-1.3837302E-1,4.27324E5,1.0233236E-1,1.5270887E-1,3.873739E-4,9.0014E2,1.0672105E-5,3E0,1.0790742E4,1.1137098E-3,1.26239875E5,4.6876064E-3,8.356731E-6,-1.3969205E-1,2.5635396E3,7.500261E-1,5E0,9.898643E-4,3.873739E-4,7.036E3,3.3917E4,5.914906E-4,1.0773513E-3,6.1228994E-4,1.2842152E-1,1.5053244E-3,-1.3466504E-1,2.81367E3,1.1230788E4,