tree
version=v4
num_class=1
num_tree_per_iteration=1
label_index=0
max_feature_idx=66
objective=binary sigmoid:1
feature_names=publish_year publish_month publish_quarter deadline_days contract_duration_days buyer_country tender_proceduretype tender_supplytype tender_selectionmethod tender_lotscount tender_recordedbidscount lot_bidscount tender_awardcriteria_count tender_description_length lot_description_length tender_personalrequirements_length tender_technicalrequirements_length tender_economicrequirements_length tender_corrections_count bid_priceUsd tender_digiwhist_price bid_digiwhist_price tender_estimatedpriceUsd tender_finalpriceUsd submission_period corr_singleb corr_proc corr_subm cri corr_buyer_concentration lot_status buyer_buyertype filter_ok filter_losingbids pit_total_entries pit_total_wins pit_win_rate_overall pit_win_rate_country pit_avg_contract_value pit_last_win_years_ago pit_experience_score pit_recency_score pit_is_incumbent pit_country_count pit_is_international pit_buyer_win_count pit_buyer_entry_count pit_win_rate_buyer buyer_loyalty_score category_hhi tender_size_ratio actual_num_competitors competition_baseline buyer_total_past_awards buyer_avg_contract_value buyer_avg_competitors buyer_specialisation had_functionality_gate functionality_threshold_pct requires_local_presence supplier_matches_required_locality requires_past_contract_proof mandatory_cert_count supplier_momentum experience_tier win_momentum buyer_openness_score
feature_infos=[2006:2019] [1:12] [1:4] [10:365] none [2:5] [0:14] [0:4] [0:4] [1:666] [1:1399] [0:516] [0:15] [0:3046] [0:3268] [0:25200] [0:7902] [0:9632] [0:3] [-112907.859375:433862144] [4.5300002098083496:679200000] [4.5300002098083496:357000000] [200.09626770019531:14679567360] [6.7600088119506836:921200192] [10:354] [0:1] [0:1] [0:1] [0:1] [0:1] [0:4] [0:9] none none [0:1472982] [0:1472982] [0:1] [0:1] [0:248786928] [1:11] [0:14.202799797058105] [0.083333335816860199:0.5] [0:1] [0:2] none [0:1472966] [0:1472966] [0:1] [0:1] none [-0.97842991352081299:2763291.5] [2:164] [0.0060975607484579086:0.5] [0:251900] [2.7018363475799561:326348800] [1:252] [0:1] none none none none none none [0:0.5] [0:4] [0:736491] none
tree_sizes=13610 13810 13457 13712 13965 13876 13820 13888 13818 13836 13838 14191 13827 13664 13676 13679 14114 13946 13946 14016 13656 14179 13991 14147 13387 14210 13697 13475 13810 13449 13751 13663 13523 13781 14108 13781 14049 14111 13906 13726 14184 13720 14079 13857 13359 12741 13974 12243 14172 14061 13867 13780 14150 12789 13951

Tree=0
num_leaves=127
num_cat=0
split_feature=50 50 38 50 38 28 34 29 34 34 53 28 29 53 29 50 38 56 29 34 29 29 53 38 38 29 0 56 34 34 5 34 50 38 53 53 34 28 38 29 21 38 34 29 53 34 29 34 34 34 38 34 28 38 53 38 34 34 0 34 56 38 29 50 50 29 29 56 28 34 28 6 53 53 29 34 38 34 29 50 29 34 53 29 34 38 34 53 34 38 34 29 0 30 38 0 28 28 34 21 34 38 34 9 29 50 38 38 38 39 53 0 23 50 0 50 56 38 38 56 34 50 28 0 56 53
split_gain=227086 98584.5 55952.8 43203.6 41798.2 117765 132793 111417 108595 62334.7 61652.1 43558.6 43185.9 81061.1 32042.2 27680 26081.2 25963.4 22066.9 20591.7 119224 90140.5 138499 77596.1 39755.3 17132.6 15972.3 15386.1 94820.5 59460.8 15053.5 14605.9 13557.4 12841.7 12286.2 10931.8 10929.2 14792.9 10247.8 9521.57 8041.46 7168.4 6941.49 6568.52 6479.23 5953.72 5812.06 31196.4 15963.3 4823.17 4779.43 4043.08 3455.36 2600.15 2359.27 2114.11 1919.98 3892.51 1820.31 1872.52 1482.05 1358.63 1311.52 976.728 944.494 944.098 793.025 722.253 616.719 824.842 643.002 609.826 896.573 563.466 548.469 450.562 387.751 363.873 352.029 347.849 330.602 892.874 315.599 285.026 262.039 248.206 237.304 218.289 204.978 202.327 202.206 179.83 167.96 175.22 146.966 128.225 127.576 118.273 117.921 101.58 97.3849 90.433 88.2299 79.0981 78.965 78.6405 72.2441 65.6192 65.3849 39.0462 36.2689 30.3347 28.4446 27.9506 25.2518 16.5277 14.3165 13.944 11.6817 7.27203 7.10879 1.82448 2.30237 1.514 0.552834 0.481683
threshold=5.4899072647094735 0.14982649683952334 18774.448242187504 1.8025823235511782 8331.6586914062518 0.00090894222375936817 142345.50000000003 4.6167158870957799e-05 1651.5000000000002 12135.500000000002 78989.500000000015 0.6667279601097108 0.0036320424405857925 20021.000000000004 0.001241512247361243 0.02153356280177832 41367.976562500007 0.23685492575168612 0.001077363209333271 48883.000000000007 0.00096512044547125708 0.00029279573936946696 23745.000000000004 2264.2138671875005 2311.5402832031255 0.00098007381893694422 2012.5000000000002 0.22025619447231296 582585.00000000012 413540.50000000006 3.5000000000000004 323340.50000000006 17.768950462341312 113620.89062500001 3.5000000000000004 22.500000000000004 1577.0000000000002 0.0037427644710987811 10513.382812500002 3.2483405448147103e-05 26750.525390625004 8803.5898437500018 1803.5000000000002 6.489971227097159e-08 4998.5000000000009 68569.500000000015 0.011299577075988056 113609.00000000001 22410.000000000004 4.5000000000000009 4753.5314941406259 5.5000000000000009 0.00090894222375936817 9146.9672851562518 2580.0000000000005 180250.25781250003 204833.00000000003 180420.00000000003 2015.5000000000002 432.50000000000006 0.053266510367393501 7036.1572265625009 6.3662479078629999e-05 51.587898254394538 15.520390033721926 4.0441231249133132e-05 0.004145839251577855 0.2060763165354729 0.00090894222375936817 1138.5000000000002 0.00035306063364259904 10.500000000000002 47757.500000000007 34317.500000000007 7.5826544616575128e-06 250.50000000000003 12637.239746093752 332.50000000000006 0.00015999189781723547 93.275318145751967 0.0040029059164226064 33301.000000000007 937.50000000000011 0.0003836451360257343 28904.000000000004 3993.0043945312505 39.500000000000007 1221.5000000000002 166.50000000000003 2156.640502929688 1.5000000000000002 0.00013193500490160662 2014.5000000000002 3.0000000000000004 17876.097656250004 2015.5000000000002 0.66689899563789379 0.0007930660794954748 1651.5000000000002 129911.00000000001 9.5000000000000018 347997.01562500006 1.5000000000000002 28.500000000000004 0.0040029059164226064 9.0230908393859881 454.82875061035162 67990.660156250015 307990.89062500006 1.5000000000000002 15.500000000000002 2012.5000000000002 10225271.000000002 17.768950462341312 2012.5000000000002 734.64263916015636 0.057234926149249084 530266.93750000012 771910.53125000012 0.012219804339110853 660.50000000000011 3.6776616573333745 0.4000025093555451 2016.5000000000002 0.0016574290348216893 73950.000000000015
decision_type=2 2 2 2 2 2 2 2 2 2 2 2 2 2 2 2 2 2 2 2 2 2 2 2 2 2 2 2 2 2 2 2 2 2 2 2 2 2 2 2 2 2 2 2 2 2 2 2 2 2 2 2 2 2 2 2 2 2 2 2 2 2 2 2 2 2 2 2 2 2 2 2 2 2 2 2 2 2 2 2 2 2 2 2 2 2 2 2 2 2 2 2 2 2 2 2 2 2 2 2 2 2 2 2 2 2 2 2 2 2 2 2 2 2 2 2 2 2 2 2 2 2 2 2 2 2
left_child=1 4 3 19 11 6 10 9 17 26 25 12 27 34 -10 -12 32 -9 42 21 23 30 -23 -21 -22 -6 -7 28 -1 -29 -3 33 40 46 -14 88 39 41 -11 74 51 -38 43 -13 -41 -39 47 -4 -48 62 -44 65 60 -54 -37 64 57 -8 59 -35 -53 85 82 68 73 106 -15 -60 70 -70 -51 121 114 75 -5 104 110 91 -77 90 81 -75 115 98 -82 102 94 -85 -20 -67 -64 107 93 111 -65 -87 -74 -88 -79 -81 -78 105 -42 -93 -18 -95 -2 -66 113 -84 -63 112 -57 116 -73 -34 -94 -103 120 -115 -110 125 -123 -120 -58 -33
right_child=16 2 31 36 5 7 56 8 14 38 15 18 13 66 -16 -17 55 -19 35 20 24 22 -24 -25 -26 -27 -28 29 -30 -31 -32 71 49 58 -36 54 37 45 -40 44 61 -43 50 -45 -46 -47 48 -49 -50 63 -52 52 53 -55 -56 92 124 -59 67 -61 -62 76 79 86 77 89 -68 -69 69 -71 -72 72 96 80 -76 78 100 83 -80 99 84 -83 109 87 -86 95 97 -89 -90 -91 -92 103 108 101 -96 -97 -98 -99 -100 -101 -102 117 -104 -105 -106 -107 -108 -109 118 -111 -112 -113 -114 119 -116 -117 -118 -119 123 -121 -122 122 -124 -125 -126 -127
leaf_value=-1.3816754258814379 -1.4170917422760276 -1.3829875563915226 -1.2844357727472051 -1.1768986338526757 -1.4362314575562376 -1.5024436890257222 -1.741602938531378 -1.4452238737999268 -1.3852954267244955 -1.5054097235597046 -1.6277310828941653 -1.2478718974476373 -1.3985069493121456 -1.6164607473325312 -1.2625230301176107 -1.4583555524266365 -1.2365911461302306 -1.6245286309605367 -1.4081478766826858 -1.3371590680304291 -1.6612980308416532 -1.3539640824590309 -1.7059425212658639 -1.7134002540607898 -1.2748031022590802 -1.2953263311528329 -1.3833325016317028 -1.3877722165885871 -1.7499656298943009 -1.1824488293841453 -1.2360513328987675 -1.7642044104483403 -1.5673623660907623 -1.1739435076687157 -1.4945195941925413 -1.6128321538553263 -1.4862817325343474 -1.5462508991850898 -1.6912665388855599 -1.4200871321182533 -1.4120722782030293 -1.3082403710448767 -1.6708631391176998 -1.4671420603309906 -1.6133275646278185 -1.7118362511565468 -1.3523652101169148 -1.6175298042871353 -1.1313456859409703 -1.6829342407712784 -1.3176420397344888 -1.6779090112914725 -1.6742656760500687 -1.5675929283609771 -1.7609424762959114 -1.5920955386516593 -1.7539216681521246 -1.3319690255001078 -1.1299734245101325 -1.2888146403104532 -1.5340525873900841 -1.4014211657536577 -1.5289694007709793 -1.7057364871457812 -1.3710076743562554 -1.5264103852106397 -1.7639298145996278 -1.2457472450028704 -1.6685056473916378 -1.7378082987746744 -1.5567296382812326 -1.7642044104483403 -1.3939713372276368 -1.2358111896306441 -1.2789444124083391 -1.6286055004284208 -1.3543133929997602 -1.4839952432407051 -1.3958337637408449 -1.636724617938808 -1.4199992792909411 -1.7055015743184685 -1.2475775615675428 -1.6414729855992913 -1.0953792645097828 -1.2834638704062304 -1.7286661143538042 -1.4262459434895212 -1.6838783581731831 -1.4549624706044613 -1.5975532253097133 -1.4510202723107362 -1.122343176180854 -1.1772420713822445 -1.5218726520338186 -1.4751542875021058 -1.0750120211849392 -1.7566843494951703 -1.7086746630819267 -1.7476682518196416 -1.244148537629024 -1.1941175342675878 -1.5884959060673176 -1.2483014546511111 -1.396843793973318 -1.3630484489748076 -1.1873380114067604 -1.1577513740294147 -1.1116103463499458 -1.1247195196572815 -1.3557378224871701 -1.2912448581623583 -1.388531612895084 -1.20373169372938 -1.6222043878023917 -1.7642044104483403 -1.1958466951755913 -1.1211454708024626 -1.1039873430538722 -1.2884447234146823 -1.1577513740294147 -1.7642044104483403 -1.6868550981481814 -1.0803196221952969 -1.7640715418701436 -1.7545469687628439
leaf_weight=190771.39658793807 14.205808922648428 7048.247525960207 30165.649697095156 1153.6096837371588 25500.568167850375 23647.186830714345 785.4204595386982 36310.88017077744 27565.666282534599 3185.7915053069592 23745.767250955105 1829.79511757195 39513.126344799995 340.42993502318859 60605.490496173501 13483.1593195647 149.53426146507263 8977.6297228932381 1125.9212574064732 7473.1027192771435 2554.0026432424784 64357.739708825946 11789.706301793456 14112.423315048218 33312.986126437783 11013.012621343136 17431.372884377837 57934.485611408949 6441.3452887684107 16055.421320125461 52541.182025447488 467.63206946849823 7.5151875019073469 3339.0779930055141 16986.177232146263 1195.5182543545961 10810.446332708001 4597.230362996459 15556.072753578424 16543.366480141878 28.006624713540077 2477.5985004454851 1632.3797565996647 3640.2184952646494 1706.0208692699671 3342.7005806714296 5468.1417271494865 2733.2039996385574 6232.5440680235624 1395.510479927063 431.74872666597366 765.69108253717422 10351.222663879395 2535.5881377756596 4837.3913225829601 11.460225582122805 47.954291731119156 280.64106664061546 5143.0272475033998 2036.1365524828434 3837.2279507219791 448.54203785955906 708.51846881210804 809.63634788990021 18.811255738139153 2154.5225397795439 7182.9436050206423 529.75949181616306 2452.6583778560162 4072.423822581768 484.84319427609444 56.834036156535149 18.646153554320335 255.69942916929722 791.58835788071156 76.365909576416016 92.631512820720673 28.156202241778374 239.60972857475281 413.88421423733234 25.786452397704124 41.99981264770031 68.721393391489983 52.230479016900063 157.77479083836079 32.822802841663361 1789.9031880944967 214.48179523646832 24.555003508925438 422.5556546151638 834.40545481443405 118.08587117493153 47.63070122897625 39.484264627099037 40.69640950858593 593.66646641492844 27.903621152043343 5376.8624229282141 79.919589504599571 89.458797827363014 313.84442716836929 32.868431970477104 258.1852799654007 20.071864262223244 33.557055503129959 41.792860686779022 86.334139227867126 40.654559731483459 111.07354892790318 34.699135810136795 236.61156414449215 10.425873026251791 13.125827237963675 14.956531077623366 13.890184372663496 7.6948695033788681 46.849874600768089 80.514657855033875 31.368877336382866 22.80192294716835 40.654559731483459 7.424874082207678 6.3749968707561493 103.82835684716702 18555.990835487843 51.059239074587822
leaf_count=788171 63 29199 99508 2743 117270 122156 5666 169780 114742 16538 148144 5463 168944 2091 188547 64560 432 55763 4907 28026 16668 250620 81450 98398 107142 37356 72265 242381 46929 38939 151547 3464 43 7855 86594 7306 54348 25473 105515 73791 123 8678 10787 17704 10433 23262 21219 16813 12388 9366 1547 5106 68704 14513 35698 68 351 1040 10162 6793 20861 1929 3821 5592 76 11572 53191 1572 16158 29246 2730 421 79 737 2574 477 361 141 1019 2614 115 290 205 332 265 108 12714 968 165 2011 4990 558 91 94 217 2928 42 39483 554 650 927 83 1524 60 143 166 213 90 202 67 925 35 55 39 86 57 119 153 55 76 90 55 43 161 137433 374
internal_value=-1.41429 -1.40446 -1.35893 -1.37921 -1.42527 -1.452 -1.53903 -1.40993 -1.36194 -1.517 -1.4809 -1.40337 -1.39639 -1.46614 -1.30091 -1.56639 -1.62649 -1.48077 -1.56234 -1.36045 -1.40783 -1.3404 -1.40846 -1.58314 -1.30232 -1.39373 -1.4519 -1.37993 -1.3937 -1.34322 -1.25343 -1.27441 -1.64359 -1.26921 -1.42737 -1.68073 -1.46671 -1.51401 -1.65967 -1.41699 -1.59373 -1.45309 -1.44946 -1.39379 -1.43815 -1.61596 -1.29178 -1.31211 -1.23464 -1.70306 -1.59698 -1.61166 -1.6282 -1.65328 -1.73159 -1.30998 -1.75698 -1.63377 -1.17809 -1.21746 -1.55798 -1.41338 -1.5706 -1.72052 -1.36978 -1.50362 -1.75726 -1.14079 -1.69803 -1.71176 -1.65039 -1.71943 -1.52454 -1.31352 -1.21843 -1.38381 -1.34231 -1.46614 -1.45209 -1.58829 -1.24063 -1.30208 -1.26541 -1.5208 -1.14098 -1.49839 -1.74409 -1.46839 -1.41403 -1.5147 -1.56606 -1.36248 -1.16686 -1.23175 -1.69694 -1.46511 -1.20278 -1.74969 -1.65014 -1.65644 -1.26925 -1.19678 -1.57123 -1.42157 -1.26596 -1.27278 -1.2198 -1.22521 -1.13131 -1.20636 -1.38564 -1.42619 -1.48342 -1.18623 -1.73632 -1.66695 -1.15879 -1.1423 -1.10599 -1.25489 -1.12397 -1.76235 -1.72847 -1.08581 -1.76405 -1.76325
internal_weight=970505 927545 290909 234612 636635 286693 93412.5 193280 133460 59820.4 73742.5 349943 335225 64022.7 88171.2 37228.9 42960.7 45288.5 14717.5 193189 57452.5 135737 76147.4 21585.5 35867 36513.6 41078.6 271203 197213 73989.9 59589.4 56297.3 40759.1 55647.5 56499.3 7183.39 41422.6 21228 18741.9 20194.6 22171.7 13288 7534.14 5470.01 18249.4 7939.93 44599.5 32898.9 11700.7 18587.4 2064.13 20167.3 17489.7 12886.8 6032.91 2201.58 19670 1066.06 11048 5375.21 4602.92 2004.31 2164.9 16422.5 1552.74 2677.62 7523.37 5672.79 8405.44 6525.08 1880.35 649.765 117.274 980.327 1945.2 499.067 1091.63 572.412 315.976 2046.27 481.26 297.699 118.631 374.788 183.561 912.681 8017.1 266.712 1150.48 2577.08 1542.92 197.624 648.837 229.672 850.333 626.489 46.5498 7166.77 108.076 503.343 406.476 194.66 286.192 138.158 183.091 81.2771 100.54 59.4658 419.164 103.421 685.154 35.0119 24.5861 132.239 70.7242 15.2101 94.4806 113.383 286.925 37.7585 151.728 532.491 13.7999 135.197 18603.9 518.691
internal_count=4280734 4013169 1145226 964352 2867943 1357126 511820 845306 528832 316474 367330 1510817 1427240 310820 303289 212704 267565 225543 83577 763050 250234 512816 332070 126424 123810 154626 194421 1116420 835100 281320 180746 180874 259821 176310 255538 48076 201302 111761 122053 89541 131868 63026 35501 23167 84224 48735 149928 116321 33607 127953 12334 123043 109184 83217 43004 7744 144490 6706 26382 14648 25967 8825 12447 115506 6257 13859 55282 11734 57500 45404 12096 4564 628 3478 5317 2071 4142 2779 1496 12075 1407 1027 372 1995 380 4683 58006 1300 5072 13583 8811 784 1487 654 5809 3036 121 52197 695 3264 1288 496 1647 618 575 260 276 166 833 272 2854 158 123 325 507 100 210 236 508 115 292 3936 98 216 137784 3838
is_linear=0
shrinkage=1


Tree=1
num_leaves=126
num_cat=0
split_feature=45 5 54 39 5 54 50 54 50 34 34 45 29 45 29 0 34 45 29 29 45 28 34 19 29 50 38 50 0 29 34 54 29 65 39 45 29 19 50 0 19 19 50 50 21 28 34 45 38 38 65 38 29 0 0 29 29 65 65 50 38 38 34 50 29 29 54 29 29 29 19 28 29 38 34 0 65 50 29 29 50 29 38 29 50 19 50 38 65 0 65 29 34 65 38 29 29 38 34 34 39 0 50 28 34 50 38 50 29 28 0 29 54 19 45 38 45 34 29 38 28 29 50 29 29
split_gain=1.05239e+06 382016 296650 199153 95759.5 81181.5 60272.4 52439.7 44252.9 53841.2 43369.3 40949.6 84091.4 54036.9 45259.8 37640.2 37039.4 35811.7 32088.4 29055.5 27739.1 25169.8 18226.3 15637.6 14691.7 13411.6 12824.3 9451.15 8310.8 8047.35 7625.57 7466.39 7454.19 6799.51 4065.25 3602.27 3590.24 3746.19 3066.77 3010.06 2806.36 2795.72 2649.45 3239.96 2977.42 2206.41 2186.21 7870.81 1977.97 1961.39 1863.34 1580.09 1518.1 1998.76 1779.47 1390.3 1818.48 1308.92 1167.02 1079.97 1159.23 1055.32 1002.98 982.409 935.132 877.905 1546.56 861.339 835.9 781.807 767.952 712.174 625.541 607.917 575.154 529.687 444.423 438.183 436.676 427.861 378.732 350.537 331.816 327.113 283.378 279.316 273.595 266.247 263.21 259.425 248.763 232.408 944.417 221.446 218.077 206.433 206.216 203.734 190.479 184.276 237.91 179.777 178.99 178.34 173.618 131.269 127.433 109.485 96.7278 87.5653 79.6073 65.5396 152.717 53.998 50.7342 44.6426 42.0308 32.832 30.9069 12.5895 6.79225 4.36033 3.60186 1.81916 0.210862
threshold=1.0000000180025095e-35 3.5000000000000004 66177.765625000015 3.5000000000000004 3.5000000000000004 66177.765625000015 6.3758046627044687 6217.6062011718759 0.044712848961353309 855.50000000000011 670006.50000000012 1898.5000000000002 0.00010748097702162342 28584.000000000004 0.00043374973756726837 2012.5000000000002 1.0000000180025095e-35 348.50000000000006 0.00093064017710275959 3.4379795579297938e-06 42213.000000000007 0.0073171656113117942 13947.500000000002 3153.335083007813 0.00010748097702162342 6.9259395599365243 22773.315429687504 0.10075908154249193 2007.5000000000002 1.0000000180025095e-35 123051.50000000001 68292.835937500015 1.0951159765681952e-05 479.75000000000006 2.5000000000000004 376.50000000000006 0.0012853793450631203 1004.7596130371095 20.507015228271488 2015.5000000000002 19642.784179687504 6850.7719726562509 0.098232578486204161 3.9165477752685551 10002.000000000002 0.0010255468077957632 1751.5000000000002 17.500000000000004 6626.3264160156259 9146.9672851562518 3.5356999635696416 2311.5402832031255 1.4647541775048014e-05 2015.5000000000002 2007.5000000000002 2.6758558533401815e-06 7.2960679972311495e-05 409.75000000000006 134.25000000000003 51.587898254394538 3768.830444335938 60742.980468750007 4.5000000000000009 0.035894680768251426 0.0010772405657917263 1.2471748959796971e-05 20423.490234375004 0.0088132177479565161 0.00058615911984816204 8.5517123807221665e-05 46456.185546875007 0.00090894222375936817 0.01580592151731253 195129.12500000003 113609.00000000001 2008.5000000000002 4.5278000831604013 5.4899072647094735 0.0016099975327961149 0.0010385717032477262 0.029524158686399463 0.00015999189781723547 11230.853027343752 6.8393983383430182e-05 0.14982649683952334 1057.809753417969 0.0081326887011528032 7036.1572265625009 0.93750000000000011 2015.5000000000002 112.75000000000001 0.0077713949140161285 15489.500000000002 12.583350181579592 128951.75390625001 0.0036320424405857925 0.0048310246784240016 9991.8437500000018 6273.0000000000009 5973.0000000000009 2.5000000000000004 2012.5000000000002 1.8025823235511782 0.25016939640045172 3095.5000000000005 0.02756572607904673 1361.396667480469 265.46284484863287 2.2628920959277823e-07 0.50078955292701732 2016.5000000000002 1.6063174371083736e-05 22154.720703125004 6393.3481445312509 6.5000000000000009 52350.646484375007 1024.5000000000002 5.5000000000000009 8.6133525201148597e-07 10702.932128906252 0.6667279601097108 0.00089115204173140239 734.64263916015636 2.2628920959277823e-07 0.004145839251577855
decision_type=2 2 2 2 2 2 2 2 2 2 2 2 2 2 2 2 2 2 2 2 2 2 2 2 2 2 2 2 2 2 2 2 2 2 2 2 2 2 2 2 2 2 2 2 2 2 2 2 2 2 2 2 2 2 2 2 2 2 2 2 2 2 2 2 2 2 2 2 2 2 2 2 2 2 2 2 2 2 2 2 2 2 2 2 2 2 2 2 2 2 2 2 2 2 2 2 2 2 2 2 2 2 2 2 2 2 2 2 2 2 2 2 2 2 2 2 2 2 2 2 2 2 2 2 2
left_child=1 5 4 58 57 16 8 30 11 18 15 14 13 -13 22 35 36 29 32 -19 -14 -20 -4 -16 31 27 38 63 120 -11 46 52 -10 -17 40 -9 69 67 45 -36 -29 79 78 44 -44 51 75 -48 -45 -47 81 -8 53 -5 -54 108 -57 77 65 60 62 74 -27 86 -43 66 88 -38 85 110 113 -52 -39 -72 90 -6 -68 84 80 -30 -18 -40 83 -32 95 106 -7 117 -3 107 -28 92 -63 -65 -91 -2 98 -62 -70 111 118 -76 -86 -71 -87 -80 -59 -61 -33 -84 -1 112 -60 -67 -98 -113 -93 -79 -101 -89 124 -122 123 -12 -26
right_child=2 3 6 24 7 25 26 10 9 17 122 12 20 -15 23 33 42 19 21 -21 -22 -23 -24 -25 28 59 61 34 41 -31 82 55 -34 -35 39 -37 37 72 50 -41 -42 64 43 48 -46 49 47 -49 -50 -51 71 -53 54 -55 -56 56 -58 68 99 89 97 91 -64 93 -66 70 76 -69 96 103 73 -73 -74 -75 101 -77 -78 87 105 -81 -82 -83 109 -85 102 104 -88 119 -90 94 -92 116 -94 -95 -96 -97 114 -99 -100 100 -102 -103 -104 -105 -106 -107 -108 -109 -110 -111 -112 115 -114 -115 -116 -117 -118 -119 -120 -121 121 -123 -124 -125 -126
leaf_value=0.18065982171191922 0.46717407080097539 -0.026928468252184808 0.19748066927269253 0.19629281840004406 0.40930461803120843 -0.003668891971055984 0.024926540712589176 0.21787161216065687 0.39220373744494275 0.35682323617257722 -0.083941966602575135 0.20215663502974796 0.16384888096631581 -0.048429245105190269 -0.086532287326258575 0.40262214609590868 -0.036052796003318448 0.075091086647501484 -0.0081897566795075174 0.22856923823787831 0.27735139041402013 0.28973203277083498 -0.067386001428084305 0.17094652853017422 0.18007240447891459 0.098000611027607626 0.29349131549881102 0.16775663756717604 -0.021676440544140956 0.016657285450985052 0.21802449805330915 0.41572704680589062 0.31480486073345909 0.32738000922627186 0.18662862912841313 0.26087926865482947 0.084610122842978433 0.15700444208746964 0.33362972048679929 0.22665784703140146 0.25378872685302439 0.19225045214840467 0.036333715040769134 -0.035877236411832859 0.13283773575756794 -0.049693849466550213 -0.0084053198738869399 0.39798508565907181 0.10819978752247342 0.091208241689556949 -0.022625066090413239 0.15624042379173458 0.18270611679618612 0.36670148778645112 0.024066129660720144 0.24331463390647065 0.39409873680215268 0.42335350441079811 -0.10791232737096838 0.10124015900972017 0.12259516518978837 0.3118606448667039 -0.0070931719361166934 0.10432741441676391 0.024915857317230602 -0.10981124588974082 0.028218141527046599 0.012688750552886584 0.41866039832781438 0.18075361699205811 -0.074433335924948482 -0.090358020911877918 0.11660319384921122 0.047631938100582881 -0.10137784322579185 0.4412405489880139 -0.042772390322732438 0.52637205245138075 -0.062770318593770247 -0.093793625405485775 0.017505248429640088 0.032089406179711732 -0.10501079921882288 -0.11503202107836875 0.4563213723890569 0.2745544730576634 0.07210004872047833 0.46181470997526614 -0.097620667071172035 -0.062208780118300736 0.15862296885002786 0.30817234998025261 0.015529259531660188 0.13982949867567346 0.38999330700305129 0.49654410600707133 0.42866186292969521 0.21798786007987708 0.33574292489860674 -0.11027964215421332 0.19496126916443893 0.15879172840131553 0.47659806401492794 0.15624143104945162 0.060362861920400426 -0.029455094804559285 0.31952063364305383 -0.045061803492223662 0.37108219808266107 0.23063816012540317 0.22166468432932582 -0.11140309260081195 -0.084886440067398705 -0.097447182283033118 0.45435368783195551 -0.10171084556244989 0.3868229091419807 0.56118967380196527 -0.11581641078215292 0.42263717557429853 0.1971791405730694 0.18634981365001371 -0.05419318363919827 -0.1152167551620546 0.18326756215498871
leaf_weight=483.56873616576195 5263.5689320266247 495.33458736538887 20868.437823548913 9659.4630896151066 6337.4938495308161 484.01558418571949 1617.3902405202389 22958.926045000553 21668.013742148876 664.06232224404812 16.694025337696075 13897.931410625577 27300.694343805313 17117.265491604805 12306.209032580256 13070.919320069253 1767.3832702636719 11516.290644526482 4250.8090322464705 242559.19943146408 64613.50321611017 6235.0804552212358 2604.701334014535 2535.6152926683426 1294.8008702099323 1342.0746411383152 168.36076164245605 46893.028331935406 1235.9515714645386 9315.6810285523534 75.133135989308357 882.90814144909382 22720.21040789783 59142.858005702496 29574.180998846889 71164.737248793244 4104.9384823143482 10723.129430502653 123.80984884500504 38594.695996388793 3641.9903129190207 578.56255447864532 40504.100886672735 7726.4207004010677 3065.2419320940971 3211.101659655571 443.86503291130066 9880.0097355395555 954.18777925521135 1213.2744926065207 2170.9736510813236 1649.9745320826769 1856.2163641005754 655.10140389204025 954.20229883491993 2320.0576567202806 1029.1325041502714 150.21753951907158 7488.0113007426262 147.06234373152256 550.37897516787052 811.77488835155964 2039.3557757288218 2993.0845753997564 613.11667697876692 18816.990396924317 1039.9692634642124 2324.7316308617592 1356.3943773657084 4601.4824062287807 1881.9254218041897 3815.1049874573946 5012.6207169294357 450.76165542006493 87.036728844046593 17171.641890138388 3218.7334498912096 456.65308766067028 1477.251338660717 1802.8472407907248 3522.0176021456718 47.561943411827087 222.88004595041275 40.427048414945602 23327.727871879935 104.26984137296677 3470.5624312609434 144.53620851039886 8984.7300498336554 1062.0886135399342 441.71302102506161 79.062526613473892 108.69655437767506 3284.4468863010406 9.5913801640272123 3586.4664165079594 1069.8659900426865 313.06899866461754 301.89930728077888 11115.544013768435 22.114667825400829 32.517403647303581 4654.5536286830902 6223.9222503900528 49.859762623906136 3680.7308155298233 352.7402376383543 66.076531067490578 848.01544590294361 7.1500298976898184 3314.5776448249817 16083.61847076565 3906.8863140493631 3781.0111321806908 1904.833302333951 5750.1312242895365 258.80497631430626 512.10973793268204 46908.847479052842 147.93633310496807 451.6244083493948 1244.8700051009655 8.7149478197097761 2371.1257820874453 214.61058740317822
leaf_count=1777 6831 2759 82163 34073 12147 2660 9304 81787 35030 1698 119 52122 107162 110192 80375 22005 10136 55066 24725 784985 183733 17078 17360 10214 4764 6771 525 176817 6749 48203 276 1459 51705 142608 108199 224045 18975 43752 270 127905 10895 2084 198076 49694 12325 22415 2444 17978 4125 6405 14850 7719 6825 1377 4800 7331 1903 236 47608 797 2569 1697 13420 13409 3503 124202 5261 12585 2208 16903 11644 29465 22626 1956 635 25856 18435 599 8847 12121 18274 287 1589 281 28033 304 16669 184 55969 7640 2033 166 611 13587 11 4610 1721 1028 705 76497 84 155 5810 24168 240 20943 883 461 1761 30 11014 104961 23892 23874 2539 36235 314 808 311901 182 1754 4653 65 16658 798
internal_value=0.182159 0.0564896 0.248106 -0.0581568 0.332802 0.132733 0.206049 0.305582 0.212026 0.232405 0.283981 0.171718 0.19828 0.0638585 0.0864979 0.289726 0.0680779 0.214722 0.317498 0.221613 0.243638 0.168959 0.16809 -0.0425439 0.182297 0.18057 0.0248359 0.186744 0.0704832 0.0392923 0.412221 0.227971 0.352587 0.340999 0.194249 0.250389 0.14328 0.119325 -0.00735159 0.209292 0.173957 -0.0164004 0.0239512 0.0326294 0.0431231 0.032398 0.416728 0.380513 -0.02004 -0.011055 -0.0570059 0.0912383 0.190356 0.207116 0.128844 0.325153 0.289647 0.460114 -0.105605 0.0365948 0.0595489 0.24907 0.0346181 0.0996838 0.106157 -0.0918589 -0.0726965 0.058606 0.416109 0.179591 -0.102419 -0.0657933 0.144135 -0.0508458 0.158736 0.432631 -0.0254366 0.466225 -0.0194507 -0.0644619 -0.000390463 0.249941 -0.0290092 0.10151 0.464351 0.316458 0.0628264 0.520944 -0.093927 -0.0392426 0.195842 0.301449 0.276867 0.122902 -0.0581616 0.479076 0.430242 0.157183 0.403565 -0.111428 -0.114638 -0.0306146 0.459694 0.166661 0.205265 -0.0389966 0.350532 0.0558842 0.393855 -0.0945778 0.216444 -0.105822 -0.100018 -0.107743 0.445113 -0.108851 0.368418 0.544777 -0.114756 0.441998 0.185134 0.189233 -0.114777 -0.114998 0.180527
internal_weight=1.13185e+06 389538 742307 155586 246296 233952 496011 202913 480174 318929 168734 161244 122929 31015.2 38315 166337 99486.3 264055 54874.1 254075 91914.2 10485.9 23473.1 14841.8 25641.5 134466 15837.2 128936 7436.38 9979.74 34178.6 18205.1 44388.2 72213.8 118704 94123.7 36789 22165.4 13849.2 68168.9 50535 4230.48 62697.3 52250 43569.3 7691.74 33833 10323.9 8680.61 4424.38 6157.45 3267.36 13125 10314.6 2810.42 5080.11 3349.19 43383.6 129945 5529.7 4244.88 1987.97 3381.43 10232.1 1191.68 38669.5 13738.8 6429.67 5290.08 14623.6 24930.7 5986.08 15735.8 2332.69 729.628 23509.1 4258.7 38093.6 10447.4 3038.8 5289.4 171.372 345.59 115.56 36832.3 657.087 3954.58 1261.24 9480.06 1284.82 610.074 1258.34 920.471 6277.53 1071.68 8850.04 4632.99 863.448 1658.29 91275.2 58046.5 119.554 27982.3 10825.4 154.13 5157.98 502.958 213.139 1730.92 230.03 3798.15 33228.6 11394.9 22598 2974.7 21833.7 337.868 968.763 58024.4 292.473 3205.91 1696.49 2396.53 2387.82 1509.41
internal_count=4280734 1918291 2362443 941233 603781 977058 1758662 547888 1661811 1018490 487287 643321 453209 162314 190112 470445 474220 889952 128538 840051 290895 41803 99523 90589 95955 502838 96851 470141 36426 49901 60601 59529 86735 164613 423816 305832 151800 97938 90715 236104 187712 24457 322420 264220 210401 45843 58425 20422 53819 28820 44872 17023 47075 35450 11625 12454 9234 55893 845278 32697 23788 6136 20191 46325 5587 244100 82424 31560 8836 53862 161676 44315 66378 13600 3348 38003 23696 47057 58200 18870 28410 557 2176 557 45284 1663 19329 1773 58728 8909 2558 2788 2308 26996 7651 11441 7173 3597 2913 601178 388482 790 33843 41071 544 29790 1119 1258 3220 1619 12791 212696 71500 148076 4260 141196 480 1407 388398 366 11969 6407 16842 16777 5562
is_linear=0
shrinkage=0.0944097


Tree=2
num_leaves=123
num_cat=0
split_feature=42 53 53 41 51 34 28 53 53 28 41 56 34 28 56 28 28 28 28 28 34 34 28 28 56 34 5 34 28 28 34 53 41 34 5 51 53 53 28 53 34 28 53 34 5 28 21 26 56 53 34 28 34 28 28 28 34 21 34 34 53 28 34 5 53 56 53 53 56 34 56 28 21 5 56 34 28 53 53 34 34 28 21 34 28 56 34 21 34 51 53 41 21 28 11 34 28 53 28 41 56 28 28 11 34 56 14 34 53 53 34 9 56 56 51 34 56 51 28 56 53 34
split_gain=647094 365837 236136 94567.7 43291.8 91553.6 45757.2 41655.7 32525.5 31041.9 29712.6 18327 13831.8 174737 96452.8 53541.8 57670.6 52104.5 50818.3 14112 11593.8 10539.2 9111.17 18919.4 8728.82 7888.76 7690.9 7445.1 7365.93 6702.73 6529.53 6482.13 6211.98 6210.72 5349.11 4102.55 3696.83 3581.11 3259.13 3188.98 3004.5 3833.82 2779.57 2462.67 2280.6 2317.79 2353.55 2024.72 1968.39 2857.85 1760.83 1621.34 1614.72 1569.8 1569.48 1443.67 1304.19 1073.21 1055.45 2566.49 952.944 888.529 872.663 865.615 853.206 767.879 733.777 695.483 632.679 631.653 572.734 572.431 564.193 557.787 545.487 508.622 478.452 464.397 454.48 442.366 409.454 377.607 457.341 333.238 305.548 283.228 280.412 258.209 229.879 216.315 207.506 197.69 192.255 185.458 165.142 163.095 162.514 157.475 157.23 153.522 143.241 141.546 349.782 134.843 130.474 126.215 118.677 95.544 86.9229 77.0336 76.2555 70.206 68.9187 59.3096 41.671 33.9583 28.0005 15.3299 9.672 6.91913 1.98467 0.0237859
threshold=1.0000000180025095e-35 51.500000000000007 17639.500000000004 0.22500000149011615 6.5000000000000009 88840.500000000015 9.6834428404690711e-05 1.0000000180025095e-35 937.50000000000011 0.0073171656113117942 0.18333333730697635 0.23018309473991397 169942.50000000003 0.00011550073759281078 0.3172821998596192 0.0042117061093449601 0.6667279601097108 0.00032502003887202596 0.0042117061093449601 0.75033238530159008 198294.00000000003 233117.50000000003 0.00023984568542800846 0.0042117061093449601 0.2060763165354729 198294.00000000003 3.5000000000000004 180420.00000000003 0.00057206588098779332 0.25000001490116125 48883.000000000007 20900.500000000004 0.22500000149011615 88840.500000000015 3.5000000000000004 9.5000000000000018 78989.500000000015 3247.0000000000005 0.25014537572860723 6.5000000000000009 198294.00000000003 2.6774939215101771e-05 34317.500000000007 1188.5000000000002 3.5000000000000004 0.25274755060672766 2157.724975585938 0.75000000000000011 0.1628522798418999 19244.000000000004 6814.5000000000009 0.25460809469223028 128020.50000000001 9.6834428404690711e-05 3.8448593841167174e-05 0.2515693753957749 451217.50000000006 3000.0100097656255 159755.00000000003 208935.50000000003 942.00000000000011 0.66667869687080394 78.500000000000014 3.5000000000000004 1.0000000180025095e-35 0.74792161583900463 584.50000000000011 8.5000000000000018 0.13010657578706744 52.500000000000007 0.027923715300858024 0.25023838877677923 3093.7500000000005 3.5000000000000004 0.38787168264389044 1651.5000000000002 0.25169935822486883 47757.500000000007 218665.00000000003 507.50000000000006 507.50000000000006 0.25044140219688421 1187.4299926757815 166.50000000000003 0.21238288283348086 0.3172821998596192 9639.0000000000018 10429.500000000002 27.500000000000004 6.5000000000000009 427.50000000000006 0.41666667163372045 39011.000000000007 0.25000627338886267 1.0000000180025095e-35 1751.5000000000002 4.436952440300957e-05 171.50000000000003 0.00035306063364259904 0.29166667163372045 0.54671028256416332 1.154503206635127e-05 1.0686808764148738e-05 71.500000000000014 100005.50000000001 0.38787168264389044 1.0000000180025095e-35 855.50000000000011 139.50000000000003 14.500000000000002 855.50000000000011 112.50000000000001 0.01374143920838833 0.03294216841459275 5.5000000000000009 116.50000000000001 0.15122897922992709 9.5000000000000018 1.0157673386856916e-06 0.024155479855835441 775.00000000000011 670006.50000000012
decision_type=2 2 2 2 2 2 2 2 2 2 2 2 2 2 2 2 2 2 2 2 2 2 2 2 2 2 2 2 2 2 2 2 2 2 2 2 2 2 2 2 2 2 2 2 2 2 2 2 2 2 2 2 2 2 2 2 2 2 2 2 2 2 2 2 2 2 2 2 2 2 2 2 2 2 2 2 2 2 2 2 2 2 2 2 2 2 2 2 2 2 2 2 2 2 2 2 2 2 2 2 2 2 2 2 2 2 2 2 2 2 2 2 2 2 2 2 2 2 2 2 2 2
left_child=1 7 8 24 12 11 40 32 52 35 44 30 14 20 19 28 -17 43 -19 31 27 29 85 -24 26 -11 38 -14 -15 58 53 -4 73 37 71 -8 -32 -31 84 51 41 -7 -21 -16 45 67 -47 -35 49 -28 55 80 63 -6 77 -41 101 -53 79 -60 93 112 66 64 107 -62 91 -9 88 87 -68 83 -40 81 -22 -66 -71 103 -50 -10 -12 106 -83 97 -3 -13 90 -70 111 114 -65 -36 108 -56 -90 96 -64 -5 -52 -97 116 102 -23 -26 -88 -42 -1 -2 -73 -102 -85 -34 -58 -54 -75 -94 -46 -91 -79 -103 121 -115
right_child=2 3 4 34 5 6 9 10 21 25 39 22 13 15 17 16 -18 18 -20 42 74 56 23 -25 54 -27 48 -29 -30 33 36 -33 68 47 62 -37 -38 -39 72 50 105 -43 -44 -45 100 46 -48 -49 78 -51 98 57 113 -55 60 -57 61 -59 59 -61 65 -63 95 86 75 -67 70 -69 69 76 -72 92 -74 89 -76 -77 -78 118 -80 -81 -82 82 -84 110 -86 -87 104 -89 94 117 -92 -93 115 -95 -96 99 -98 -99 -100 -101 109 119 -104 -105 -106 -107 -108 -109 -110 -111 -112 -113 -114 120 -116 -117 -118 -119 -120 -121 -122 -123
leaf_value=0.17602357151328168 0.37717085991107907 0.072597394812638549 0.23703428412412608 0.018938795032613066 0.25272947872151474 -0.087084368893235134 0.14691998178471999 0.16271479315915441 0.3106537284240839 0.070279320520547112 0.071260762619337809 0.19512910682149537 -0.092846472117113332 0.22405901583703811 0.09033051115178925 -0.0031543082091935932 0.30928859297844657 -0.058156204577611052 0.23370842439872236 0.20465290229994787 -0.11341348897532193 -0.10407775013557108 -0.064544252165324389 0.18160444639473708 0.1634080615727681 -0.063858756142115849 0.23280856822902227 0.29435272070834329 0.28721767642786894 0.28008093783563359 0.016303612815073705 0.18725654018465129 0.091497131060265399 -0.099177573205465108 0.10357828718826398 0.054702734203395567 0.17956107567027238 0.2326891103840735 -0.039378281458434181 0.029855573685463332 -0.11525453513048531 0.12561997742066616 -0.082074806897517602 0.21892689476658378 0.33015910623375849 0.053431363038984436 0.13586271580182158 0.16506407141806534 0.10569523073908502 0.12812044593859354 -0.0085113617064802739 -0.0048004764331133496 0.10638410114521533 0.21870314507066002 0.25691168988497354 -0.013411723466297773 0.1631421260990796 0.055661559244798646 -0.086138216149523161 0.33680920110789397 -0.089235539438125303 0.36584653129417516 -0.086201782667018306 0.35747721943902366 0.32682156520875671 0.034864937344555848 -0.058919687621792553 0.12993320920009196 0.11821834791514724 0.12535147788899706 -0.10058153772386151 -0.04870347164698087 0.04238082212956959 0.182179191756872 0.0071199877770628242 0.29272274225345996 0.15094714259385827 -0.018103805150764568 0.29130835350501416 0.2869396526014395 0.030501921049954292 0.15352686683080932 0.17149386566691099 -0.03874153908688277 0.1471042595697982 0.26655886914626103 0.3183894476348525 0.14102028076604733 0.14038740770556196 0.10534319503362026 0.33730226201812591 -0.036041026056219651 0.027200003323574799 0.073037892185670014 -0.030336642964399006 0.093117093023880965 -0.10690904741284285 -0.021205623761200589 -0.094416888559846174 -0.11272136734522452 0.29641863402170343 -0.090511453227043126 0.38060008708323906 0.33914365131462304 0.20805456902489253 -0.023513205954061436 0.21550534637695315 0.44191479861074723 -0.073271882485060502 0.066753467284081006 -0.093428165326929366 -0.091944911188260217 -0.097961789963371848 -0.1181937640142299 0.14855850481721161 -0.039467057122842236 0.262838444060643 0.049358939562609866 -0.12403397953505978 -0.11484925132841931 -0.074593780977846344 -0.11355018468424657
leaf_weight=22545.079233035445 2009.185556024313 627.30884835124016 25264.819401875138 2212.6963912323117 23520.958340987563 2193.4417042732239 32907.994919851422 13926.461349159479 10749.013667546213 5956.474827170372 16352.98570472002 630.44411332905293 735.01536542922258 20784.344822131097 1484.0972127318382 14164.362132802606 8381.3233304843307 30909.642901770771 6422.0432062298059 353.91262108832598 14345.616036631167 46.572416737675667 5325.0957807004452 5830.6027588248253 325.10223245620728 11362.216398879886 4032.8701227009296 1112.6686144173145 79081.834561504424 18869.18346889317 1787.646747238934 302510.80718289316 724.8007725328207 604.27725927531719 96.305234096944332 4946.2367108017206 4008.2599069401622 57575.232347369194 1950.6593522280455 15999.565065078437 12710.027883075178 1151.9474461600184 2029.0161568075418 12566.555028796196 536.90932409465313 5597.4720673114061 6884.1336311548948 451.63531023263931 126.14271534979343 5485.784423686564 215.21020460873842 6390.8467163443565 13.302942313253878 24855.987475827336 84.119377464056015 12050.586500428617 10.454376772046087 4430.8638643547893 219.46674704551697 306.43016754090786 2115.5019506067038 101.10559223592281 3944.7811659798026 14626.473287165165 51162.039167694747 562.58763749152422 3469.9057327657938 9847.2861756235361 39393.65623126924 11979.790881194174 19298.490135543048 2903.5939178615808 1224.5615230053663 337.9978032708168 342.65198531746864 4220.6059545353055 14254.940560981631 9.1810933351516706 1731.9602607190609 20163.81621979177 2537.7284716665745 24808.424571871758 25718.433211639524 613.09050253778696 2250.9869302213192 2299.2414790838957 1665.0580961257219 4986.863092251122 59.947678402066231 900.61990411579609 6591.8910900652409 1471.9986852779984 279.15518752485514 116.74890094995499 320.4725700840354 32.312272295355797 23517.860721573234 1436.3074587583542 1614.771550424397 64643.736363902688 22.267430484294891 124.19103594124317 18.560823351144791 44.20949113368988 101.34226603806019 135.0838644951582 699.64602951705456 226.01345896720886 2300.496533587575 31.336327582597733 361.14455400407314 19.085206225514412 65.234135016798973 48.700528025627136 11804.940692961216 90.075965374708176 61.361944437026978 45.813121676445007 47.071386128664017 644.1359780356288 11.560481354594229 12.319243699312208
leaf_count=67166 2068 2524 52371 11207 51480 12971 106136 46082 13661 24784 74757 1789 4339 51768 5738 71307 12138 174464 14845 924 95631 338 29911 16992 1021 65260 10423 2372 135775 32012 7764 876518 3012 3677 451 20758 12580 131660 10190 79823 86971 4220 10925 33446 999 26224 26181 1608 505 19010 1341 33785 65 63759 190 66595 39 21965 1144 404 13881 107 26237 15424 50221 2584 21610 35207 146131 43390 132295 16634 5429 1022 1616 5957 49188 41 2842 32365 12547 79420 78547 3401 7308 4963 2459 19016 286 3293 7280 8864 1483 499 2079 135 162786 7743 11265 461705 43 860 23 47 290 681 1861 307 13595 129 2202 122 384 310 38814 562 146 190 261 4418 74 92
internal_value=0.147536 0.048909 0.194198 -0.069496 0.167468 0.120787 0.0460191 0.117328 0.286753 0.0869712 0.0684192 0.198957 0.179991 0.205494 0.170703 0.244406 0.112996 0.0503775 -0.00794772 0.189429 -0.0825639 0.253346 0.103019 0.0641071 0.117408 -0.0177242 0.14408 0.140323 0.274073 0.256161 0.223902 0.191093 0.147086 0.241246 -0.10009 0.13487 0.129207 0.244387 0.0581076 0.0271921 -0.0935346 -0.013842 -0.03949 0.205344 0.134987 0.13184 0.0988957 0.013844 0.189825 0.172475 0.00541375 0.0490933 0.332274 0.235247 -0.0232748 0.0112676 -0.0501833 0.0199552 0.292929 0.160305 -0.0482901 0.182722 -0.10583 0.33271 0.326531 -0.0631657 -0.0899298 0.149136 0.126527 0.127646 -0.0942323 -0.0345199 -0.00784692 0.164067 -0.110602 0.324223 0.139259 0.145955 0.278707 0.295186 0.0657853 0.167254 0.162672 -0.0099595 0.130866 0.251188 0.348201 0.120781 0.0562625 0.146106 0.351209 -0.0274674 -0.0548934 0.15004 -0.00343347 -0.11003 -0.103935 0.0031373 -0.0843142 -0.112619 0.310007 -0.0995874 0.0340394 0.184445 0.312059 -0.11429 0.177212 0.383717 -0.0595641 0.162158 -0.0590136 0.0867907 -0.0618972 -0.0768727 0.149494 0.0109362 0.323254 0.102633 -0.106745 -0.110915 -0.110461 -0.117256
internal_weight=1.25326e+06 402507 850748 147407 660110 139622 71363.4 255100 190638 55172.9 96499.8 68258.2 520489 138948 381541 122412 22545.7 51382.3 37331.7 330159 16536 109949 14085.4 11155.7 20734.8 17318.7 17430.3 1847.68 99866.2 108939 54172.9 327776 158601 77500.3 126672 37854.2 5795.91 76444.4 6053.52 59592.6 16190.5 3345.39 2382.93 14050.7 36907.2 36255.4 12481.6 1055.91 11376.8 9518.65 29880.1 29712.4 80688.5 48376.9 3304.52 28050.2 1010.25 10821.7 31438.7 525.897 2878.96 176.794 116475 80602.6 57617.8 2678.09 24336.7 23773.7 71739.6 70615.3 22768.4 10196.6 3175.22 86861 14688.3 55382.6 26234.7 425.564 1858.1 30912.8 18890.7 73771.6 50526.9 4623.24 2878.3 2929.69 22984.8 44380.5 1124.31 13089.4 21218.4 1568.3 5573.32 200.868 380.42 92138.7 27462.6 3649 1829.98 64676 651.875 833.46 65.1332 369.312 1766.4 12845.1 23244.7 2235.2 5204.09 53.6038 974.235 743.886 75.6885 85.8832 12142.9 369.231 598.271 946.433 56.2525 768.327 72.5803 61.0198
internal_count=4280734 1918291 2362443 947665 2055196 511019 321781 970626 307247 216938 437089 189238 1544177 374946 1169231 270988 83445 228493 189309 940738 103958 222700 53655 46903 76755 90044 58231 6711 187543 216531 135583 928889 533537 168957 870910 126894 20344 163672 25451 302078 104843 17191 11849 39184 135011 133694 52405 5285 32780 29433 159024 143054 84547 115239 18524 146418 6169 55750 47574 1548 17154 530 814083 84006 58553 16465 163220 81289 263224 257725 153905 56827 15619 270313 97247 56178 92578 1370 3347 46026 87304 226994 157967 24553 9832 6752 25453 165147 5499 43319 22704 9315 32274 689 2365 650863 189023 18950 12606 461840 1317 5639 361 1068 2749 87652 69027 2375 30229 172 5603 3134 423 541 39836 2045 1145 3483 302 5278 476 402
is_linear=0
shrinkage=0.0944097


Tree=3
num_leaves=126
num_cat=0
split_feature=42 53 53 39 53 54 0 34 65 46 56 34 56 46 56 54 56 53 34 25 0 0 56 39 5 34 5 46 34 56 34 46 46 46 56 56 56 56 54 34 56 0 34 56 53 54 5 65 46 53 20 53 65 34 13 34 53 0 56 0 65 46 13 0 56 65 13 56 53 65 53 34 46 10 56 34 26 53 0 53 53 56 5 5 46 54 34 53 53 53 56 39 20 26 34 34 34 56 53 56 65 34 56 26 53 53 46 34 46 53 34 34 0 0 21 34 56 56 54 46 25 56 56 26 46
split_gain=440733 285968 150649 80691.2 29206.7 28252.7 22654.2 22338.9 20271.3 11109.3 64400.1 35400.2 16717.8 14256.9 19295.7 9471.02 8815.49 8236.16 7674.54 7521.21 7287.63 6434.3 6360.57 5341.03 5206.46 5018.08 4972.85 4847.11 27851.2 6149.49 4395.33 3365 3078.76 2794.73 11269.4 3676.75 2685.6 2581.58 2184.7 2035.35 1916.6 1829.14 1659.71 1527.56 1330.33 1558.65 1288.37 1259.01 1863.49 1158.11 1088.07 1059.57 902.394 794.2 779.352 769.449 721.111 694.696 550.721 515.157 612.12 1559.03 501.374 528.835 424.16 421.425 368.825 368.187 357.916 333.186 326.859 318.214 1986.09 303.438 300.846 277.291 276.054 232.088 222.824 207.681 203.346 200.264 195.075 191.595 190.497 177.818 168.248 162.476 140.277 139.393 138.393 138.295 135.596 135.026 132.282 123.15 119.905 100.419 98.1417 97.593 90.3205 93.1699 78.9451 61.7468 58.3936 52.3619 49.6952 92.5215 45.384 38.7976 34.1549 17.578 17.4502 13.0172 11.087 5.95681 4.74065 3.89528 2.97201 2.12185 0.32813 0.102468 0.0761777 0.070349 0.0128287
threshold=1.0000000180025095e-35 51.500000000000007 17639.500000000004 3.5000000000000004 1.5000000000000002 66177.765625000015 2011.5000000000002 670006.50000000012 0.31665000319480902 1049.5000000000002 0.1628522798418999 1751.5000000000002 0.032510982826352126 4832.0000000000009 0.01833334565162659 6217.6062011718759 0.032510982826352126 937.50000000000011 96939.500000000015 1.0000000180025095e-35 2011.5000000000002 2014.5000000000002 0.23685492575168612 3.5000000000000004 3.5000000000000004 159755.00000000003 3.5000000000000004 4953.0000000000009 18716.500000000004 0.073609735816717162 13947.500000000002 87958.000000000015 90.500000000000014 376.50000000000006 0.23745843768119815 0.046052603051066406 0.1628522798418999 0.022578440606594089 66177.765625000015 6814.5000000000009 0.17275620251894 2016.5000000000002 4366.0000000000009 0.74792161583900463 2444.0000000000005 45217.613281250007 3.5000000000000004 168.25000000000003 376.50000000000006 1.0000000180025095e-35 2960.430053710938 6.5000000000000009 39.250000000000007 464039.50000000006 19.500000000000004 11474.500000000002 1671.5000000000002 2010.5000000000002 0.072732642292976393 2008.5000000000002 942.75000000000011 348.50000000000006 19.500000000000004 2015.5000000000002 0.0081501589156687277 18.166649818420414 21.500000000000004 0.021182077005505565 8.5000000000000018 1617.7500000000002 1.0000000180025095e-35 16518.000000000004 5109.5000000000009 295.00000000000006 0.25769236683845526 42.500000000000007 0.75000000000000011 72.500000000000014 2015.5000000000002 1671.5000000000002 2319.5000000000005 0.0036293976008892064 3.5000000000000004 3.5000000000000004 77.500000000000014 13447.686523437502 1751.5000000000002 39.500000000000007 4194.5000000000009 8768.5000000000018 0.31429263949394232 2.5000000000000004 2200.0500488281255 0.75000000000000011 2.5000000000000004 349.50000000000006 14.500000000000002 0.92314112186431896 72.500000000000014 0.30192247033119207 1337.7500000000002 2587.0000000000005 0.54671028256416332 0.75000000000000011 8.5000000000000018 14.500000000000002 31.500000000000004 15489.500000000002 28.500000000000004 8365.0000000000018 2195.5000000000005 177.50000000000003 2017.5000000000002 2012.5000000000002 392.91999816894537 5412.0000000000009 0.29033222794532781 0.01833334565162659 10239.939941406252 71058.000000000015 1.0000000180025095e-35 0.1281097233295441 0.2060763165354729 0.75000000000000011 348.50000000000006
decision_type=2 2 2 2 2 2 2 2 2 2 2 2 2 2 2 2 2 2 2 2 2 2 2 2 2 2 2 2 2 2 2 2 2 2 2 2 2 2 2 2 2 2 2 2 2 2 2 2 2 2 2 2 2 2 2 2 2 2 2 2 2 2 2 2 2 2 2 2 2 2 2 2 2 2 2 2 2 2 2 2 2 2 2 2 2 2 2 2 2 2 2 2 2 2 2 2 2 2 2 2 2 2 2 2 2 2 2 2 2 2 2 2 2 2 2 2 2 2 2 2 2 2 2 2 2
left_child=1 4 6 24 23 7 15 20 46 10 11 16 13 37 -15 59 -7 69 32 42 33 40 26 49 85 38 73 28 -22 -29 -13 53 -19 34 -4 -35 -23 -11 47 51 -14 78 -12 90 76 -46 50 74 -49 62 68 75 56 109 70 -21 67 -53 -55 60 79 -62 65 -64 -58 -1 -52 -26 -6 108 -43 84 -73 77 -8 -10 -28 -5 114 -2 97 -71 104 96 -61 100 89 -84 -82 -54 99 -88 -80 -33 -85 98 -51 -45 -87 -24 101 -3 113 -92 -41 -104 107 -40 -17 -27 -97 -108 -56 -48 -25 -102 121 -20 -75 123 -121 124 -123 -118 -9
right_child=2 3 5 22 8 9 25 116 39 12 19 30 21 14 -16 17 -18 18 117 55 27 36 43 41 52 31 44 29 -30 -31 -32 93 -34 35 -36 -37 -38 -39 106 82 -42 54 -44 80 45 -47 102 48 -50 83 66 57 86 58 112 -57 64 -59 -60 71 61 -63 63 -65 -66 -67 -68 -69 -70 81 -72 72 -74 118 -76 -77 -78 -79 92 -81 88 -83 87 94 -86 95 91 -89 -90 -91 103 -93 -94 -95 -96 110 -98 -99 -100 -101 115 -103 105 -105 -106 -107 111 -109 -110 -111 -112 -113 -114 -115 -116 -117 119 -119 -120 120 -122 122 -124 -125 -126
leaf_value=0.10149053514060112 0.25183432611247109 -0.03737200194669027 0.18331960553857227 0.086405647700384461 0.10576330604194711 0.21292254780585124 0.26277898599797589 -0.1104406678671887 0.04547889330467679 0.12741824110658734 -0.048456224213912179 0.035652180608646424 0.15602929084869871 0.083310512874900114 -0.10349633559827277 0.27870875395520461 0.14074344121592508 0.13536672211411732 -0.097618178600038047 0.17125913734668133 0.20718058734209241 0.13139278206366642 -0.074716729391085909 0.11988018046854802 0.023072221292578961 -0.040285658321936459 0.18521864728953485 0.090802744131552426 -0.024344878596002321 0.23014669820717509 -0.08387449527564271 0.25613115064044867 0.18240016136185 0.093334229893291043 0.0065148545506945616 0.17387443068975267 0.14700259924562739 0.22151778326045629 0.28571119472083845 -0.0044767206278895156 0.2144480794125509 0.15366930933229783 -0.11138065019593051 -0.024637455765659493 0.07498135126904043 0.15994426791059221 0.2507025154983335 0.21768742209496447 0.25711136779540245 0.083194409150289444 0.12595147709697155 -0.060812617840766102 -0.0926763653121149 0.24661366424661274 0.2129208908962775 -0.07623768072678784 -0.034134844386280831 0.012563199865510237 -0.078010893801051917 0.24331291872214228 -0.12169407392688236 0.19891398879445057 0.14062628764123528 -0.030034744730128446 -0.096954102647906298 0.11572183178776703 0.18141600559633861 -0.060493306655074935 0.081787911551570225 0.062147911771316892 0.12300083564547687 -0.10156732784743353 0.24833294881380563 0.22549017086721093 0.2262794317963544 0.024225011891610061 0.24772740922088241 0.039752987714154642 0.13028312281437901 0.22186036878586962 0.20088124048955341 0.2416495024298852 -0.10856021080505168 0.26816928517502481 0.26395799193501684 0.032225768661670345 -0.11053184249000421 -0.041994701714873323 0.085448544640967281 -0.10691966534706175 -0.10868329002195788 0.079873141078110471 0.14984365266508778 0.38187724555071878 -0.065002239506188678 -0.042899864942437957 0.05806591417257212 0.081349498180947999 -0.013792104598931565 -0.019927910823857274 -0.079677366537332456 0.23571606917075208 0.23675922440574632 -0.016832593767909798 -0.060894338324599666 0.053716241084167601 0.28640674969254498 0.16510774976891782 0.29701443184316212 -0.093871939173661489 -0.10982115019414489 0.29739507600079457 0.24321364934800657 0.20891372771215008 0.12381994411663995 -0.10823172612718927 -0.12212921671515529 -0.11388312574225175 0.26458462555049095 -0.10576157253422004 -0.11402197354992483 -0.11219490329923956 -0.11025044503022084 -0.11708518159840335 -0.10931615471305632
leaf_weight=43839.522744208574 3131.2354988306761 7415.9922244921327 8928.3077342063189 1173.9460217654705 13711.223183244467 23043.170656472445 60772.85543563962 186.54729041457176 13510.753583908081 5432.3216975703835 13577.634699560702 6367.2827478796244 8139.8978287503123 23448.82990565151 6239.918676301837 2243.1204400658607 43653.226434037089 18980.573176905513 159.2502363845706 1412.766637340188 32278.754470914602 215851.24569842219 700.5065691024065 7502.2951216101646 559.69054898619652 156.09592406451702 1316.5033179372549 3036.995333775878 5406.7533140480518 40043.811251282692 4816.4603237137198 359.19479113817215 35806.906716346741 5558.825523763895 5019.9067572206259 55421.194828614593 180292.07662778348 4981.6817102730274 7383.7026546448469 394.0422945022583 13000.069069474936 31063.136666893959 5154.5436536744237 201.34538979828358 2571.0933237075806 7652.8194021731615 575.364620834589 18267.924468755722 25750.432635486126 3001.9704235866666 10123.828143134713 1201.8831998854876 10135.942167267203 130.78875832259655 218.81979891657829 121.59961628913879 1010.4696629419923 26674.281340785325 72.346199028193951 8636.3908409923315 149.64985170960426 1398.8739963471889 245.92246886342764 473.33941312134266 18458.298788361251 32146.330027244985 1194.7276984006166 2930.7645994275808 9323.8483318388462 58.239543929696083 3440.5619832575321 165.20091639459133 1159.0438821315765 32.076644212007523 2081.7556652873755 9194.8655680418015 1207.1012543439865 4992.5985170155764 9924.447882771492 6024.400684684515 120.36477038264275 1135.7246099561453 1094.4166394919157 11.51209384202957 7394.6568196564913 589.9306989684701 59928.512553602457 465.99298384040594 425.70523101836443 15473.450293473899 813.53740049153566 34.019577518105507 4633.5428105592728 96.578327238559723 137.34100725501776 234.38778780400753 3880.2049191147089 131.85966719686985 1377.9267870187759 494.22708565741777 134.57689459621906 11.152073770761488 23.937392055988312 70.922297805547714 279.50947378575802 33.318478152155876 1595.9919847548008 57.13515904545784 2613.803373798728 527.04998260736465 95.743198700249195 6940.231669254601 751.92456458508968 75.11392705142498 42055.302067801356 126.16694407910109 766.32417492568493 746.15296186506748 37.706062376499176 75.044460311532021 99.949634842574596 778.46829093247652 233.43200029432774 25.4642643481493 175.48776963353157
leaf_count=153281 3174 42455 21796 4414 48037 42710 52674 1533 62743 16657 77182 25226 20985 85254 36322 2120 116092 48626 1170 3364 58752 672826 4538 22977 3150 1114 3033 9437 23001 67984 28865 437 78016 17982 21092 136706 489846 10304 6777 2086 24056 82518 31255 1063 9567 19424 933 25682 30584 12809 34177 7691 73266 195 466 698 6323 137049 450 9918 811 2087 811 2925 134682 106207 3134 19213 34545 192 11263 802 1336 69 2772 44705 2171 20899 28652 9256 296 1715 8375 36 8137 2956 461705 3339 1606 115609 5877 135 12531 118 880 1404 17459 447 7630 2926 850 36 40 356 1765 134 1403 159 2439 2883 662 6733 1393 155 127510 834 4456 5467 69 574 735 6050 1786 167 1503
internal_value=0.1242 0.0429024 0.160281 -0.066437 0.0995305 0.139445 0.229758 0.174666 0.0547814 0.129425 0.100604 0.139616 0.13561 0.077387 0.0440478 0.193635 0.165681 0.172966 0.161601 -0.0493108 0.179019 0.141205 0.0998672 0.120981 -0.0972266 0.255879 0.119933 0.198692 0.173964 0.220324 -0.0158239 0.0743107 0.166106 0.157812 0.119688 0.166533 0.138497 0.172432 0.257863 0.0178367 0.191954 0.135757 -0.0657712 -0.0288931 0.15373 0.138578 0.110434 0.252995 0.24075 0.103407 0.107837 0.0217316 -0.103229 -0.0328938 0.152958 0.151645 -0.0866091 0.0093996 0.130999 0.239115 0.222827 0.16793 0.106769 0.0283159 -0.0936937 0.107511 0.131806 -0.0470937 0.0960588 0.277576 0.150611 0.249162 0.204683 0.0508498 0.26157 0.0368719 0.215118 0.0486344 0.12624 0.232111 0.0754269 0.232894 -0.0703521 0.0667348 0.252836 -0.0319915 -0.107688 -0.0886814 0.110892 -0.101282 -0.0730092 -0.110424 0.136509 0.282777 -0.0392352 -0.00894842 0.0690268 0.0173049 3.28268e-06 -0.0520522 -0.0388793 -0.036962 0.236522 -0.101318 -0.0278888 0.130242 0.290425 0.284785 0.28856 -0.0816277 -0.0623081 0.295341 0.236385 0.245877 0.123224 -0.0934941 -0.114823 -0.111022 0.246614 -0.119888 -0.11048 -0.111259 -0.111746 -0.121967 -0.109896
internal_weight=1.33923e+06 411663 927563 140459 271203 713568 213995 158035 87877.1 555533 98146.7 77880.1 457386 40102.8 29688.7 89803.2 66696.4 61743.8 55692.9 20266.5 155695 417283 21942.3 183326 118517 124192 18983.8 80766.3 37685.5 43080.8 11183.7 1342.05 54787.5 74928.2 13948.2 60980 396143 10414 122850 52815.7 21140 99590 18732.2 2958.47 12747.5 10223.9 35061.4 106873 44018.4 83736.1 34353.6 50581.8 108531 886.281 35474.4 1534.37 22959.2 27876.2 203.135 28059.5 10704.2 1548.52 76705.1 719.262 19468.8 75985.9 11318.6 3490.46 23035.1 6050.89 34503.7 17355.3 1324.24 6236.33 62854.6 22705.6 2523.6 6166.54 64115.6 9155.64 879.275 1193.96 2233.96 7031.03 16031 9985.88 85571.9 1560.41 546.07 25609.4 2079.19 59962.5 14558 455.773 148.853 2297.99 6882.18 333.205 1967.86 1194.73 7687.89 7427.14 707.734 884.46 673.552 57.2559 15977.1 7440.84 4856.92 683.146 330.131 8536.22 970.744 650.479 49557.6 260.744 2340.72 905.403 69.7827 966.783 174.994 1373.94 1011.9 791.788 362.035
internal_count=4280734 1918291 2362443 947665 970626 2055196 307247 373554 388908 1681642 325392 212893 1356250 148537 121576 175266 158802 139745 133279 112499 356750 1207713 76755 581718 870910 131981 59646 159174 81753 77421 54091 5197 126642 197576 42888 154688 1162672 26961 126784 267753 45041 287310 108437 17109 34195 28991 121155 111712 56266 294408 119893 252188 814083 4642 95640 4062 163368 144740 645 35521 15328 2898 263224 3736 141005 259488 37311 22363 82582 6466 93781 20193 2138 25451 55446 107448 5204 25313 191670 12430 3412 1907 15565 31184 18055 56827 650715 11714 1902 188875 13697 461840 41183 555 916 12652 30268 1510 10586 7464 44175 42491 1262 6233 3851 174 15072 6936 4559 3997 2066 8136 1859 1088 150487 1684 16804 6637 138 5932 1309 10872 7836 4623 3036
is_linear=0
shrinkage=0.0944097


Tree=4
num_leaves=127
num_cat=0
split_feature=45 53 53 41 50 51 35 29 45 29 29 35 53 35 53 29 29 53 65 35 45 45 35 50 50 35 35 50 19 45 35 29 45 53 29 45 19 50 50 35 29 29 19 21 45 65 21 50 29 29 53 19 29 45 50 35 29 50 19 29 53 65 21 29 65 19 53 29 65 65 53 11 29 50 29 35 19 11 53 50 19 29 29 53 19 29 35 35 45 53 19 29 35 19 53 65 53 50 53 45 65 19 41 50 50 50 35 29 29 19 50 19 7 50 35 53 53 35 35 51 19 19 35 29 19 53
split_gain=318454 227386 111548 69638.2 37878.3 25305.7 56491.3 55574.1 29685.9 161813 115413 68542.6 46310.3 40061.9 21055.7 18378.9 18087.7 16559.1 15102.3 10417.1 10271.2 10170.2 9260.31 6989.37 5139.79 5117.81 4978.94 4760.44 4246.71 3845.36 27578.8 4256.94 11599.9 3632.28 3600.92 3367.88 2613.4 2370.25 2761.58 2215.54 2088.43 2048.27 1820.93 1597.57 1447.33 1200.26 1097.2 1786.8 1079.44 3020.95 1560.66 935.304 3134.1 904.839 853.024 849.336 798.425 789.536 983.057 777.908 722.505 718.424 679.855 674.543 737.742 646.357 620.762 583.126 572.538 571.902 510.731 617.89 489.449 486.328 456.742 442.589 435.86 431.321 430.26 411.488 374.889 359.924 322.168 280.075 276.445 275.556 274.616 267.077 297.218 613.059 266.487 237.653 234.913 191.481 182.349 170.968 169.541 167.527 158.759 145.278 132.868 130.285 126.501 123.98 101.01 80.1576 60.4513 57.0503 315.894 54.0993 53.2684 47.4943 46.0615 46.0566 44.5403 43.0433 21.4605 12.2381 10.9651 3.0502 2.52096 0.285191 0.0521907 0.0205015 0.0103321 0.00889358
threshold=1.0000000180025095e-35 51.500000000000007 17639.500000000004 0.22500000149011615 5.1060431003570566 6.5000000000000009 113609.00000000001 0.00098007381893694422 42213.000000000007 0.00096512044547125708 0.00036453918437473481 198294.00000000003 78989.500000000015 52975.500000000007 1.5000000000000002 7.6054708188166855e-05 0.00098007381893694422 937.50000000000011 0.31665000319480902 51231.500000000007 15459.000000000002 42213.000000000007 204833.00000000003 5.1060431003570566 0.069973006844520583 104439.50000000001 233117.50000000003 13.656614780426027 186540.60156250003 159.50000000000003 736.50000000000011 0.00025538912450429058 15298.000000000002 397.50000000000006 0.0013291835202835502 39.500000000000007 2012.3245849609377 0.15400136262178424 3.6776616573333745 432.50000000000006 0.0010772405657917263 0.0023718820884823803 1374.5899658203127 15979.330078125002 1024.5000000000002 159.25000000000003 6300.4650878906259 1.6602060794830324 7.2960679972311495e-05 2.7541640520212244e-05 20900.500000000004 46456.185546875007 0.0025739494012668733 376.50000000000006 13.656614780426027 128020.50000000001 0.0012853793450631203 51.587898254394538 1255887.1250000002 0.0066184354946017274 22.500000000000004 5.5499999523162851 36005.000000000007 0.00093064017710275959 273.25000000000006 2212.984008789063 11808.000000000002 0.0009899259894154968 2.1250000000000004 2.5499999523162846 2444.0000000000005 18.500000000000004 0.014229191001504661 0.15400136262178424 2.2806883862358521e-05 23.500000000000004 2451.705932617188 1.5000000000000002 47757.500000000007 0.014104871544986965 1522.285583496094 0.00025538912450429058 0.00089115204173140239 47757.500000000007 113558.47265625001 0.00036453918437473481 1751.5000000000002 6273.0000000000009 35.500000000000007 53.500000000000007 77254.902343750015 1.6063174371083736e-05 113609.00000000001 320576.45312500006 5.5000000000000009 1337.7500000000002 218665.00000000003 265.46284484863287 1.0000000180025095e-35 77.500000000000014 69.750000000000014 1255887.1250000002 0.29166667163372045 93.275318145751967 0.001990035874769092 265.46284484863287 86049.500000000015 3.3704711313475861e-05 3.2483405448147103e-05 132133.83593750003 0.14982649683952334 10752.750000000002 3.0000000000000004 0.17094920575618747 1803.5000000000002 488.50000000000006 4998.5000000000009 464039.50000000006 6452.0000000000009 7.5000000000000009 39630.291015625007 1085.3350219726565 391816.50000000006 3.0329811124829579e-05 352.31480407714849 427.50000000000006
decision_type=2 2 2 2 2 2 2 2 2 2 2 2 2 2 2 2 2 2 2 2 2 2 2 2 2 2 2 2 2 2 2 2 2 2 2 2 2 2 2 2 2 2 2 2 2 2 2 2 2 2 2 2 2 2 2 2 2 2 2 2 2 2 2 2 2 2 2 2 2 2 2 2 2 2 2 2 2 2 2 2 2 2 2 2 2 2 2 2 2 2 2 2 2 2 2 2 2 2 2 2 2 2 2 2 2 2 2 2 2 2 2 2 2 2 2 2 2 2 2 2 2 2 2 2 2 2
left_child=1 14 17 15 5 8 16 22 9 13 11 -10 -11 -4 23 48 19 55 41 -7 -18 -9 -8 24 79 -12 29 28 51 30 34 32 -31 39 -19 -32 70 63 43 56 78 77 72 -39 -33 67 47 -26 49 65 -51 52 -6 107 62 87 80 58 -47 -53 -44 74 75 64 -20 -3 -42 93 97 -40 82 -72 -43 -48 76 -25 -35 112 -38 104 -5 119 -17 92 -76 -79 91 99 89 -89 -58 -63 -30 -29 -65 113 116 -56 -81 100 -2 -69 -88 -70 -1 -59 -90 108 -28 -64 -101 122 -16 -41 -85 -113 -50 -109 -97 -55 -117 -98 125 -124 -83 -57
right_child=2 3 4 33 27 6 7 21 10 12 25 -13 -14 -15 18 36 20 26 37 -21 -22 -23 -24 54 46 -27 53 45 83 31 35 44 -34 61 -36 -37 40 38 69 95 66 42 60 -45 -46 57 73 -49 96 50 -52 59 -54 81 68 111 90 105 -60 -61 -62 86 109 94 -66 -67 -68 101 103 -71 71 -73 -74 -75 84 -77 -78 85 -80 98 -82 124 -84 114 -86 -87 102 88 106 -91 -92 -93 -94 -95 -96 118 121 -99 -100 110 -102 -103 -104 -105 -106 -107 -108 117 -110 -111 -112 115 -114 -115 -116 120 -118 -119 -120 -121 -122 -123 123 -125 -126 -127
leaf_value=-0.10963195538401711 0.22563494324459621 0.15682254102957613 0.15769759666498862 -0.020126037117562178 0.035222656439539736 0.17925040973082101 0.020898344769907987 -0.12362428338051963 0.11286022565435369 0.068401184504101237 0.15719340553627667 -0.10670862995481398 -0.074062978937054713 -0.019157427789140823 0.15050328723540013 0.0046297050517786278 -0.02380996966104857 0.19392685887841174 0.022019998519745669 0.0675030310838447 0.11733960275378093 0.10840762594165053 -0.10450449330214763 0.055481391359542775 0.11004405439510874 0.20266310962704162 -0.090618846320997662 0.047772023582468112 0.14072973644652731 0.17586310227162633 -0.055197769972087342 0.17161125303000857 -0.056706860118696703 -0.061886331339209698 0.10007861266261814 0.063407624991167547 0.11189198497643028 0.039363479954901484 0.01672538316601611 -0.08454499512072601 0.00067154181648081232 0.047537646731571265 0.099692413071110181 0.14167779447742443 0.21516665168368487 -0.042002152495825333 0.12000349063461226 0.06220017715558665 0.12255968794518107 0.10855853217209531 -0.067822123913320972 0.028912793445181557 -0.10001814000046901 0.21713160537170553 0.041047842420717393 -0.1209671226444614 -0.065511050312970692 -0.078585382255566882 0.13981376532678422 0.13440973987500693 0.026516630850667744 -0.086833844755231815 0.11186480360043316 -0.014004965754430601 -0.037021542442656478 0.21370644101175409 -0.1128510906373124 -0.11684073864458655 -0.031136928349912722 -0.039488843466570854 -0.10289329711490365 0.11325079219187906 -0.011120717008427268 0.14767297109856356 -0.097691914999013058 -0.010302441539727749 0.036324748381563923 0.12883138654225337 -0.018826139967843672 0.052406591213636201 0.030027180466008465 -0.12022998254256492 -0.064752154786166263 0.2155458711460462 0.0034335822781512886 0.10464180588512657 0.070078568996268256 0.19622661901488833 0.22516912054597218 0.049402741815072218 0.024222149490023256 -0.10325859223718466 -0.035237620317646649 0.15570877769135824 -0.040498210415974407 -0.096269107828048928 0.25212612361476477 -0.067894106690793099 0.0054163434522802832 0.2389357789036235 0.21636832600179257 0.055341345383432085 -0.10868325724246583 -0.085528786132302873 0.00012656127104959013 -0.10729470390960862 0.15517624309319086 -0.10914197850882908 0.28445987529960759 0.16764001191587402 0.2249517206025777 0.19531866870438214 0.20700045082008253 -0.054549431008389118 0.17872284915849385 -0.11350922992116567 -0.0061536568348040986 0.018690354414620046 -0.10864695787653619 0.18531980437914952 -0.028309385049309011 0.24536786284815271 -0.11677616075788121 -0.11113094283319402 -0.1170725572737015 -0.11796935490068847
leaf_weight=78.945678725838661 63123.200540974736 8008.5613694190979 254067.65142171085 3816.4644678682089 5753.1434145495296 55672.668948844075 6885.962831646204 1763.3736725598574 39516.127769947052 40922.181914679706 25892.450152486563 18654.334733679891 40431.108120411634 11953.543496653438 175.23503822088242 1162.4083316475153 7788.8837509602308 38081.617081746459 7273.2966325283051 8581.5153080746531 11206.367049261928 37271.215125896037 22073.095835566521 2453.9557280316949 141673.54222290963 149196.08124269545 179.54304355382919 249.49415627121925 704.17261753976345 33966.492053449154 4640.7417308688164 8442.996271699667 2025.5067955702543 2829.5459600239992 4029.7520229965448 3950.4531406462193 2142.4476374834776 25453.798899576068 2418.1225901246071 1158.0523150488734 1667.2805681824684 3887.9886308759451 11655.964297875762 1437.0499003529549 34946.923826217651 5672.7620183080435 18402.386483058333 7316.8924385309219 44.829067841172218 1135.9236841052771 737.3973456248641 1974.1431197077036 2079.3366138711572 110.45799551904202 1443.7572446316481 25.734545543789864 3530.3517861366272 2596.5040637254715 278.05440711975098 910.23830476403236 1341.0136951208115 11851.471889801323 592.60823595523834 4175.0822702422738 2546.8909011110663 2289.4099097549915 578.22799618542194 153.24133811891079 1870.8998460918665 4845.4548090025783 2362.5167011916637 124.07569037377834 1881.4274508059025 8178.0055491775274 4965.3507010862231 1450.3474877402186 469.61913061887026 6921.8975681811571 250.69816132634878 7468.9156696647406 2037.7109879255295 20.784934118390083 1225.3235533386469 577.54974599182606 253.23430232703686 10664.330172047019 35.308467537164688 1737.4544861018658 2668.4259592443705 296.77552787959576 321.88217160850763 23267.166258968413 74.803179234266281 354.84747430682182 5199.2505614310503 772.03428106755018 1072.8042814731598 137.82353201508522 700.99491965770721 8309.8086695075035 17647.06680598855 52.6199881285429 51070.582105085254 466.69731443375349 1401.0192963182926 1301.2322398126125 114.71242760121822 537.35515669733286 22.524628229439259 209.90767619013786 3430.1289528310299 9.4753160551190394 483.54468338191509 752.8868150562048 593.81232649087906 6.3523187488317472 15.551059067249296 6.7591874822974196 3671.7063901945949 35.498571395874023 6.037400983273983 58.699491932988167 13.043914765119554 10.231793418526648 16.6271583288908 13.421261936426161
leaf_count=442 50981 18408 549550 22250 24757 104618 28536 10614 110281 126626 57230 116190 214420 55652 419 4939 35235 53555 35716 29001 30014 102800 140711 10340 406258 228266 1510 1036 1626 56180 19291 14409 8779 19962 9990 12075 6539 114325 13293 8495 7550 15471 38538 4695 42252 33076 48831 26027 129 3550 3408 8379 12644 149 6481 153 22495 17133 681 2888 5356 88591 1768 21819 16398 3693 4089 1036 10672 31217 15171 393 9156 20771 39054 7364 2633 18964 1032 28212 10676 128 6819 713 1612 32574 134 2293 2618 867 1799 186473 395 813 30290 5929 918 925 3461 7042 17150 166 424534 3372 6337 8948 230 4141 38 457 2825 38 677 4929 1161 47 63 33 31344 60 48 54 86 83 110 86
internal_value=0.107028 0.0379843 0.136361 -0.0635596 0.118876 0.122651 0.0882538 0.024409 0.13161 0.114118 0.157661 0.042448 -0.00240092 0.149751 0.0857465 0.0864063 0.140399 0.19417 0.0481087 0.164326 0.0594621 0.0979257 -0.0746859 0.103291 0.10716 0.195939 0.172251 0.000441349 0.0395645 0.173807 0.153497 0.18678 0.162775 -0.0945212 0.184946 -0.000659948 -0.0138891 0.0159607 0.0308789 -0.0530054 0.0368359 0.0944475 0.0725485 0.0448312 0.206691 -0.0460538 0.110847 0.107694 0.157805 0.149408 0.0391296 0.0162447 -0.000680549 -0.0454707 0.0202207 0.223649 -0.0246336 -0.0551406 -0.0335067 0.062205 0.0921422 -0.101559 0.0473117 -0.0105845 0.00670742 0.169469 -0.028561 0.0644023 -0.0123149 -0.0207745 -0.0621617 -0.0921082 0.0284089 0.128517 -0.0754021 0.0310444 -0.0479065 0.116972 0.0981984 0.0400772 -0.00266879 0.142429 -0.0309753 0.167703 -0.0927848 0.114163 -0.104143 0.223908 0.202236 0.174806 -0.0580132 -0.0977157 0.123832 0.111149 -0.0286988 -0.0963416 0.24355 0.0315543 0.0483747 0.225037 0.22361 -0.0728295 -0.10856 -0.0419962 -0.00572828 -0.0881698 0.222284 -0.0916456 -0.0488086 0.126453 0.23485 -0.0758972 0.191972 -0.0727271 0.196879 0.0438483 0.0894092 -0.107554 -0.106496 0.209395 -0.0719921 0.251776 -0.117835 -0.114295 -0.118827 -0.11994
internal_weight=1.40151e+06 417887 983628 133680 755203 731877 151243 67993.6 580633 347374 233259 58170.5 81353.3 266021 284207 22876.2 83249.4 228426 90360.3 64254.2 18995.3 39034.6 28959.1 193847 185221 175089 131014 23326 12667.2 130084 50702.6 79381.9 35992 110803 42111.4 8591.19 9512.98 53348.9 34154.4 16061.1 4638.65 37011.4 18766.4 26890.8 43389.9 10658.8 175571 148990 13363.2 12171.3 1873.32 10716.9 7832.48 929.551 8626 97411.9 9706.41 9848.55 5950.82 2884.38 12997 94742.3 4706.82 19194.5 9820.19 10298 2245.51 810.203 3919.18 7263.58 4874.32 2486.59 5769.42 26580.4 8517.75 3904.3 3299.17 18245 2393.15 9649.88 5854.18 183.369 2387.73 1950.34 5218.59 17586.2 86224.5 97327.6 4817.37 2034.23 3852.23 35118.6 778.976 604.342 9374.33 6354.68 1191.88 1581.58 8169.91 92510.2 80770.3 205.861 51105.9 2337.6 1479.96 3897.74 2783.14 746.182 202.068 802.516 11739.9 84.2966 658.78 1910.94 1171.36 21.865 60.3801 544.114 4443.74 145.957 12.3897 1131.5 62.4315 23.2757 37.4121 39.1558
internal_count=4280734 1918291 2362443 947665 2055196 1939744 481529 282661 1458215 946248 511967 226471 341046 605202 970626 76755 198868 307247 388908 133619 65249 113414 169247 581718 540339 285496 222700 115452 52563 216531 94911 121620 64959 870910 63545 31366 46532 267753 163530 107917 19210 121155 68521 119020 56661 62889 501887 432285 30223 29059 6958 48668 37401 6169 41379 84547 57220 59838 33757 11267 43894 762993 19929 104223 52114 22101 11639 3051 21450 44510 27322 15564 24627 69602 63261 17704 22595 52634 7571 38452 32926 447 11758 3895 40666 51538 699732 84006 6008 3160 24294 275064 2021 1849 52109 50697 1164 7406 31673 77998 68131 1202 424668 14044 6779 26081 2848 5722 1548 2225 9867 541 1096 13424 1874 133 192 4174 37273 209 95 972 408 169 238 239
is_linear=0
shrinkage=0.0944097


Tree=5
num_leaves=127
num_cat=0
split_feature=42 5 39 5 50 50 29 39 52 55 50 19 50 52 50 29 19 29 29 50 19 50 19 19 19 39 19 6 50 19 55 29 19 29 50 19 29 39 6 19 29 29 19 6 29 19 6 39 19 19 29 29 6 29 50 19 6 19 50 50 19 55 19 50 29 29 14 29 29 19 19 19 39 50 29 55 29 29 19 50 19 19 19 19 10 19 19 50 29 29 29 29 50 19 39 19 19 29 55 19 25 50 19 50 39 52 50 50 50 29 29 50 29 19 50 50 29 39 55 19 19 50 50 19 29 29
split_gain=241491 143941 97965.6 50213.5 32534.9 21821.5 21606.4 14387.3 11237 7615.61 6314.35 5937.85 7817.16 5546.11 5164.7 5125.58 4898.65 5013.94 4834.25 4546.23 4521.7 4460.07 3204.38 2594.98 2425.31 2385.85 2225.22 1734.33 1297.56 2321.36 1262.43 1223.17 1028.01 3229.16 913.956 1416.42 852.56 838.21 834.143 814.933 797.236 779.21 778.289 659.809 629.048 987.056 594.425 582.378 484.528 478.806 881.384 655.964 391.467 462.925 384.348 342.33 339.039 306.087 300.893 295.077 248.804 236.816 225.815 199.967 195.083 192.706 170.256 156.897 155.863 179.585 146.442 143.11 124.296 117.386 116.932 167.265 101.542 100.997 98.766 75.3539 165.842 74.3894 72.9987 71.5569 67.9954 67.2825 61.0164 52.9313 46.1502 46.1317 41.1409 35.7957 34.0816 29.5024 24.7064 24.4069 19.2077 18.9913 17.2728 15.376 13.7159 11.0732 12.272 11.8773 9.45248 7.99994 7.43335 7.20787 6.94195 6.68348 6.63521 6.17906 5.58882 4.80801 4.37561 4.07854 3.7745 3.3146 1.9714 1.71841 1.4114 1.35471 1.12549 0.887654 0.784904 0.694775
threshold=1.0000000180025095e-35 3.5000000000000004 3.5000000000000004 3.5000000000000004 4.4414000511169442 0.098232578486204161 7.8174460213631405e-05 4.5000000000000009 0.15476191043853763 1.0037128925323489 0.0011507646413519981 116.74499893188478 0.022279662080109123 0.15476191043853763 12.198834896087648 0.004428211599588395 61744.173828125007 1.0000000180025095e-35 0.00010748097702162342 8.2226185798645037 153919.85937500003 0.06594629213213922 53975.039062500007 273.41999816894537 25389.360351562504 1.5000000000000002 902.16302490234386 4.5000000000000009 41.429647445678718 722138.12500000012 1.0037128925323489 0.0004147571162320674 34443.261718750007 0.004145839251577855 9.0230908393859881 15319.115234375002 1.5205240288196366e-05 1.5000000000000002 8.5000000000000018 1030.6538696289065 0.0036320424405857925 0.0030122663592919712 5610.3400878906259 9.5000000000000018 0.0023721461184322838 1303.7750244140627 12.500000000000002 1.5000000000000002 239861.91406250003 883.70291137695324 3.0601460139223495e-06 7.6054708188166855e-05 10.500000000000002 0.0068789401557296523 139.55729675292972 39630.291015625007 3.5000000000000004 722138.12500000012 2.6389749050140385 2.1677781343460087 61744.173828125007 1.0086854100227358 86642.746093750015 139.55729675292972 5.524207335838583e-05 0.00050303436000831436 1.0000000180025095e-35 4.0441231249133132e-05 1.6417161532444882e-06 570.96243286132824 239861.91406250003 3138082.0000000005 1.5000000000000002 0.06594629213213922 0.0009899259894154968 1.018019497394562 2.6758558533401815e-06 0.0043474917765706786 61744.173828125007 28.067951202392582 77254.902343750015 239861.91406250003 902.16302490234386 186540.60156250003 2.5000000000000004 286.75999450683599 12304.751953125002 734.64263916015636 0.0001042433868860826 0.0001042433868860826 0.00062669673934578906 0.0010385717032477262 0.14820376038551333 3466.965209960938 2.5000000000000004 3138082.0000000005 4954.1809082031259 1.2471748959796971e-05 1.0037128925323489 1522.285583496094 1.0000000180025095e-35 5.4899072647094735 50148.210937500007 0.14982649683952334 1.5000000000000002 0.15476191043853763 1.8025823235511782 0.15400136262178424 1.8025823235511782 0.00045302778016775852 6.5996962803183137e-05 0.79679203033447277 0.012994574382901193 57628.478515625007 15.520390033721926 0.067979592829942717 0.00018280951917404312 1.5000000000000002 1.1235822439193728 11744.326660156252 69302.718750000015 1.6602060794830324 0.064018212258815779 179.83499908447268 0.00054395530605688702 0.021752183325588707
decision_type=2 2 2 2 2 2 2 2 2 2 2 2 2 2 2 2 2 2 2 2 2 2 2 2 2 2 2 2 2 2 2 2 2 2 2 2 2 2 2 2 2 2 2 2 2 2 2 2 2 2 2 2 2 2 2 2 2 2 2 2 2 2 2 2 2 2 2 2 2 2 2 2 2 2 2 2 2 2 2 2 2 2 2 2 2 2 2 2 2 2 2 2 2 2 2 2 2 2 2 2 2 2 2 2 2 2 2 2 2 2 2 2 2 2 2 2 2 2 2 2 2 2 2 2 2 2
left_child=1 7 36 77 5 6 11 9 22 19 15 12 -5 -12 20 -8 17 -10 42 21 32 38 23 -7 -23 -13 46 56 29 40 44 64 33 -6 35 41 37 73 -1 -33 -16 -11 49 -34 66 -46 85 63 -18 51 -51 -4 53 -28 60 82 74 65 70 -24 -21 91 -37 -30 -32 -22 -29 81 69 -39 -57 -31 -60 76 93 -76 -3 88 -75 80 -36 -44 116 -54 -63 -20 -70 -56 92 -69 -84 -58 97 -9 -81 -59 105 115 101 111 -49 103 119 123 -101 -90 -105 118 -107 117 -99 -94 114 -111 -109 -2 -38 -98 122 -103 -104 -114 -100 -79 -48 -120
right_child=3 2 18 4 14 8 10 27 16 34 13 25 -14 -15 28 -17 48 -19 26 54 57 24 59 -25 -26 -27 52 30 47 71 31 39 43 -35 79 62 55 68 -40 -41 -42 -43 67 -45 45 -47 124 100 -50 50 -52 -53 83 -55 87 58 61 95 72 -61 -62 84 -64 -65 -66 -67 -68 89 86 -71 -72 -73 -74 78 75 -77 -78 98 -80 94 -82 -83 90 -85 -86 -87 -88 -89 96 -91 -92 -93 99 -95 -96 -97 109 110 107 104 -102 102 120 106 -106 108 -108 112 -110 113 -112 -113 121 -115 -116 -117 -118 -119 125 -121 -122 -123 -124 -125 -126 -127
leaf_value=0.11718339035458589 0.096331513443343564 -0.031560208693949897 0.1437097710067782 0.056302875079375744 0.036130665532700217 0.14968172689146558 0.044771364118961016 0.085240791784254727 0.15781140645441552 0.017992612694269477 0.087905926458641925 0.034574018580870933 0.15133310731667426 0.1240447631535869 -0.0063464754810807029 0.1439295148068217 0.16856265729482126 0.12778763893415004 -0.1085446238143058 -0.0090183843060409313 0.095752357227591622 0.069271872714553942 0.19002759876599595 0.091186984221161949 0.13331114674918795 0.19679343704726837 0.044949343297011911 0.1063095412021446 -0.053358638446200854 0.10526422332069769 0.12824182148200564 0.018521526501257761 0.081623126655765849 -0.102980555044279 -0.046349860963283598 0.070046361174878363 -0.10547476252168145 0.32956872488533606 0.0087176643583588304 0.071096907765156397 -0.084256080289366889 -0.017709737180466714 0.16206947023716914 -0.0025510842163135191 0.078011975653573942 0.1019028960394941 0.088318227313296041 0.1297719748407303 0.19944031688853833 0.11267302761357691 0.064376731608540488 -0.053529855395272288 0.072810716157112182 -0.053577429026223367 -0.051292737312082649 -0.068174597675176057 0.050921612767483658 0.1729073699518362 -0.097412280383779429 0.13475757634757934 0.038045106313576722 -0.044882248403004608 0.16878648449293523 -0.091069734388566609 0.093905769488312585 0.15256089489454452 0.14642308859900305 0.10481282235332831 -0.075230045528347944 0.065962889221749407 -0.015133196559171651 0.18097510117986867 0.10567848979034727 -0.086257276369484964 0.069779608296820936 -0.014427698442655637 -0.07680151811829336 0.20991982506958401 -0.044302293474992975 -0.072136706723473928 0.048836121753439363 0.21484129953524453 -0.097793984468434625 0.13878924491932948 0.14156033782796235 -0.062789918001887934 0.095408972453773389 -0.10267066952099832 0.15923992035276066 0.20594731205047154 -0.10392313146812091 0.022725676993445694 0.18638501354895229 0.12726173787915568 0.0075151075520732812 0.20010018786583825 0.17576470794252602 0.1602857772967399 0.18977947235428305 0.16115251083326712 0.20321690794300565 0.2219094395452913 0.19974022480808096 0.19797183722411613 0.20106499191391419 0.19372383999083148 0.20299743783211427 0.19323266997953151 0.20023015363122401 0.18991037244348224 0.18144677375779125 0.19805434736896085 0.19618652500011358 0.17930132931937276 0.17164785546669728 0.13979594681580582 -0.10854693581695511 0.19874151614799357 0.20043454902289862 0.21260660312199181 0.18532161413466081 0.1993605476645734 0.19851409914519855 0.20416215619043626 0.069282553365509564 0.2038955744829192
leaf_weight=665.82763038575649 38.06521999835968 659.19640791416168 3910.6704310774803 23799.368884511292 7158.1719973236322 7302.602545902133 20252.602873027325 454.91392566263676 56650.50905855 15308.010041035712 48002.924395434558 52140.274577021599 11416.41949056834 178968.56897555292 5147.8637009784579 6029.8035101741552 13468.945506215096 397065.69519912452 919.18312289565802 5998.2793956249952 1064.2509843632579 95996.199509315193 3445.1067137494683 90938.927375048399 5577.4416378065944 820.83262220025063 3127.5028462037444 47446.987727716565 2918.3961926177144 624.17011062800884 2426.0999735891819 3646.983501881361 3547.8631627112627 1877.3730185031891 1352.1300816684961 2379.1327851861715 4564.1188602298498 25.200929820537567 12423.441457271576 9402.9533998370171 1515.2662262395024 8459.9208829626441 2261.7882122844458 1083.5188708230853 24694.615138992667 41013.17639733851 163.61492545902729 40.910525366663933 6824.8386007621884 13020.995751470327 4543.0973007008433 156.29438149183989 3408.3908786326647 491.89682870358229 424.87197693437338 1978.9528056830168 526.63597951829433 907.07812869548798 4453.7747571915388 1147.8251129314303 1201.8033524900675 548.79726335406303 226.05747893452644 2196.6346616894007 3761.5630279034376 1064.6769831031561 962.2167251855135 521.72986999154091 92.404799543321133 268.05637176334858 606.02488362789154 345.82015523314476 27.023101329803467 28912.628304295242 874.66531020402908 276.78526891767979 1343.2206527888775 254.21365122497082 508.92196956276894 884.8657383993268 185.53425844013691 266.10026496648788 18924.978838406503 153.09503823518753 18.007073655724525 416.15110240876675 23.409386843442917 308.50347355008125 58.721458375453949 43.556885421276093 20159.033072039485 1686.5280270278454 2652.2237853109837 221.40048643946648 36.126858614385128 435.41737154126167 521.88900281488895 348.30328096449375 206.0413668602705 311.2724819034338 50.814314678311348 284.901377171278 109.71856124699116 14233.366131141782 63.714167594909668 23571.898158937693 3215.9761660397053 5224.7315552979708 1558.2785449177027 4184.671355843544 212.74398463964462 477.22214674949646 3956.3857724815607 418.8667401522398 85.072434321045876 38.915582478046417 16275.437380149961 62.682212650775909 1622.7623708099127 467.22268611192703 134.92212121188641 1719.458144903183 363.38764405250549 3901.2283284664154 21.889970563352108 758.664943754673
leaf_count=2279 65 5234 7317 85452 28430 14211 68879 1264 86414 75269 140799 195254 25676 408202 26875 13073 19992 846939 6416 32927 2842 328384 4161 247778 13998 1489 11777 121307 18413 1671 5907 15086 11659 11612 9310 9928 39515 65 55713 31551 10001 45124 4084 4687 73620 109235 472 95 7219 31517 14160 649 11216 3409 2861 14610 1584 1174 44128 2357 5585 2472 653 15215 10936 2145 1949 1373 667 1508 3995 417 156 238624 2572 1169 11335 200 4103 6537 911 366 162112 379 47 2686 118 2472 68 63 175069 5645 2395 554 209 388 529 398 183 358 64 238 94 11183 49 19721 2566 4295 1260 3635 207 374 3132 389 105 51 144039 49 1336 404 128 1405 310 3132 71 601
internal_value=0.0939507 0.0338576 -0.0477414 0.118808 0.113072 0.116232 0.097315 0.0711474 0.127429 0.0510546 0.111329 0.0570658 0.0871102 0.116402 0.0162863 0.0675206 0.133566 0.131536 0.0919739 0.061322 0.0502044 0.0661042 0.0991385 0.0955351 0.0727883 0.0370882 0.031454 0.0932014 -0.0289868 -0.00419927 0.095169 0.0727964 0.0257644 0.00722664 0.00739611 0.0125284 -0.0949991 -0.0822783 0.0142351 0.056404 -0.0240639 0.00528477 0.113274 0.0619304 0.0989405 0.0929241 -0.0722862 -0.0653254 0.178947 0.10694 0.100181 0.13613 0.0534252 0.031559 -0.00779473 -0.101044 0.0362556 0.146424 -0.0813898 0.176215 -0.00116277 0.0154903 0.0786142 -0.0695536 0.107368 0.124162 0.107107 0.15757 0.0519935 0.0886157 -0.0557395 0.132257 -0.0961875 -0.0840262 0.0678388 0.0495379 -0.0619081 0.195356 -0.0855316 -0.0476561 -0.0348647 0.167625 -0.103361 0.0756469 -0.0389591 -0.0942854 -0.040739 -0.0729055 0.191694 0.112606 -0.100955 0.0294351 0.182346 0.0989969 -0.0690123 0.181727 0.192969 0.162276 0.198815 0.186 0.170459 0.200427 0.210156 0.199978 0.167934 0.194046 0.198898 0.196201 0.194127 0.187738 0.16831 0.188165 0.195088 0.188945 0.192887 0.118304 -0.107874 0.178228 0.200344 0.21613 0.191788 0.197148 0.195354 0.204514 0.086072 0.201537
internal_weight=1.44095e+06 421639 132248 1.01931e+06 948253 918275 341431 289390 576844 151428 253254 88176.9 35215.8 226971 29978.2 26282.4 474010 453716 33426 122596 17138.4 114663 102834 98241.5 101574 52961.1 8701.72 137962 12839.9 7633.12 133355 19237.6 13666.9 9035.55 28831.8 26373.1 98822.4 31833 13089.3 13049.9 6663.13 23767.9 24724.2 4631.38 114117 65707.8 1520.84 5206.76 20293.8 21631.1 17564.1 4066.96 7180.89 3619.4 7933.46 66989.3 4607.73 3471.42 7065.78 4592.93 7200.08 2779.97 2605.19 5115.03 6187.66 2128.93 48409.2 3093.18 409.071 293.257 2584.98 969.99 4480.8 31424 1827.76 1151.45 2002.42 71057.5 29421.6 2458.66 1537.66 2527.89 59923.6 3561.49 566.804 1335.33 115.814 733.375 34519.5 565.287 39084 2213.16 4142.46 676.314 920.993 1342.5 30377 638.028 36538.1 3504.43 91.7248 22601.5 996.765 21604.8 374.987 25188.9 17449.3 13936.5 25130.2 5188.11 561.047 3129.45 10985.6 4603.54 5309.8 76.9808 20839.6 584.571 2950.86 752.124 244.641 5675.84 569.429 4155.44 185.505 2381.43
internal_count=4280734 1918291 941233 2362443 2303583 2167895 938824 977058 1229071 592160 630953 307871 111128 549001 135688 81952 960564 933353 95955 444219 62937 400374 268507 261989 342382 196743 36426 384898 72751 38964 369591 63480 56388 40042 147941 130974 845278 261654 57992 46637 36876 120393 59529 16346 306111 182855 9645 33787 27211 53643 45677 7966 26781 15186 43845 583624 15307 6549 62889 6518 38512 9748 10581 33628 16843 4987 123256 5886 2358 1573 18605 2088 44284 259296 5559 3741 16569 58860 242727 16967 10221 4450 520735 11595 2519 9102 785 5333 29548 1436 337181 7229 3897 1818 6746 1562 25651 721 29312 3176 159 17945 864 17081 407 21049 13749 11367 20981 4602 605 2769 8937 4024 4400 116 183554 578 2430 642 222 4537 493 3332 543 1937
is_linear=0
shrinkage=0.0944097


Tree=6
num_leaves=126
num_cat=0
split_feature=45 35 35 65 50 50 56 45 65 51 35 56 56 56 56 6 56 56 6 65 50 45 38 56 28 56 35 28 50 50 11 56 6 56 56 28 56 38 56 38 56 56 56 56 19 56 51 11 41 28 38 6 56 65 6 56 28 38 41 56 35 56 56 38 28 28 38 50 11 28 6 31 38 38 56 11 28 45 28 56 28 38 19 38 6 56 50 38 45 50 35 28 45 65 38 50 38 38 6 45 28 65 6 11 6 19 26 11 28 11 38 28 41 35 28 50 28 19 38 19 38 38 19 28 11
split_gain=186206 101122 39679.5 35119.8 29634 27656.3 24371 22739.6 23990.4 23455.5 40971.7 36013.4 15165.8 16050.3 15118.7 14321.5 11904.8 10251.4 8536.04 7402.62 7309.49 6178.16 5280.32 4430.45 4348.65 4315.38 4169.96 4100.24 3694.8 5664.05 3377.66 3249.2 3207.36 3076.44 3977.47 2852.49 2752.11 2607.09 2550.22 2521.36 5806.62 2123.45 2235.08 2017.42 2577.89 1831.16 1532.82 1524.53 1523.19 1521.26 1498.39 1468.1 1408.09 1324.79 1313.75 1302.47 1259.55 1223.76 1211.94 1092.16 1465.84 1077.69 1262.16 1076.13 1043.67 1007.17 906.541 1213.75 844.511 773.965 698.874 553.304 677.698 532.384 495.133 491.968 475.375 474.458 446.161 419.382 414.868 389.696 375.501 323.962 323.004 322.343 281.898 246.157 235.135 228.528 211.236 208.224 203.344 191.063 183.834 182.757 175.02 158.406 156.085 230.501 155.628 151.459 134.779 133.75 114.526 111.397 107.946 96.1549 86.8834 84.0463 80.523 77.4237 65.1799 48.64 35.3867 31.4094 27.9076 12.2678 26.6738 8.44063 7.67912 34.2215 4.64012 1.47494 0.748157
threshold=1.0000000180025095e-35 507.50000000000006 332.50000000000006 0.35414999723434454 0.015881718136370186 3.6776616573333745 0.13471855968236926 348.50000000000006 3007.2500000000005 6.5000000000000009 206710.50000000003 0.20792861282825473 0.13471855968236926 0.3430419266223908 0.13010657578706744 12.500000000000002 0.13471855968236926 0.3430419266223908 6.5000000000000009 18207.750000000004 0.011889938265085222 110922.50000000001 17554.426757812504 0.13471855968236926 0.0011078543611802163 0.23685492575168612 463003.50000000006 1.0686808764148738e-05 0.15400136262178424 2.7777389287948613 1.5000000000000002 0.13486128300428393 12.500000000000002 0.1283543258905411 0.053266510367393501 6.453619425883518e-05 0.053266510367393501 2311.5402832031255 0.0010600920650176706 9146.9672851562518 0.3172821998596192 0.17673087120056155 0.39942954480648046 0.11744109913706781 1947.2174072265627 0.01410616096109152 5.5000000000000009 3.5000000000000004 0.11805555596947671 1.2622540452866817e-06 7946.2744140625009 12.500000000000002 0.1628522798418999 1337.7500000000002 4.5000000000000009 0.11860652267932893 2.6074631023220722e-06 3993.0043945312505 0.41666667163372045 0.13471855968236926 101465.00000000001 0.13471855968236926 0.13010657578706744 22559.619140625004 1.5568405160593104e-06 3.3694012699925229e-06 12197.275878906252 2.268354177474976 1.5000000000000002 5.0388396175549141e-06 2.5000000000000004 7.0000000000000009 26040.174804687504 100152.46093750001 1.0000000180025095e-35 71.500000000000014 0.45852695405483251 1898.5000000000002 8.7514436017954739e-06 0.23685492575168612 7.8722689522692246e-07 1503.1156005859377 62.664999008178718 3422.3371582031255 3.5000000000000004 0.053266510367393501 0.37926158308982855 4544.2414550781259 11.500000000000002 0.0013050435809418561 4193.5000000000009 0.03289622254669667 944.00000000000011 5188.0000000000009 281571.26562500006 2.268354177474976 70602.933593750015 643129.53125000012 12.500000000000002 11.500000000000002 9.1911001618427707e-06 44.750000000000007 2.5000000000000004 3.5000000000000004 4.5000000000000009 446.32499694824224 1.0000000180025095e-35 57.500000000000007 0.26812483370304113 7.5000000000000009 3515.5012207031255 0.2004823908209801 0.13392857462167743 1651.5000000000002 5.5036645107975357e-07 0.14982649683952334 0.26812483370304113 3053.404907226563 113620.89062500001 7099.9382324218759 154102.21875000003 168630.20312500003 166.24499511718753 4.756240559800063e-05 1.0000000180025095e-35
decision_type=2 2 2 2 2 2 2 2 2 2 2 2 2 2 2 2 2 2 2 2 2 2 2 2 2 2 2 2 2 2 2 2 2 2 2 2 2 2 2 2 2 2 2 2 2 2 2 2 2 2 2 2 2 2 2 2 2 2 2 2 2 2 2 2 2 2 2 2 2 2 2 2 2 2 2 2 2 2 2 2 2 2 2 2 2 2 2 2 2 2 2 2 2 2 2 2 2 2 2 2 2 2 2 2 2 2 2 2 2 2 2 2 2 2 2 2 2 2 2 2 2 2 2 2 2
left_child=1 3 4 41 31 7 14 8 16 17 19 -12 33 25 38 18 20 21 50 -11 -4 -9 24 32 36 47 -19 -18 57 -30 117 43 -10 34 82 -27 92 -38 63 51 -41 52 75 44 45 -2 -36 -14 69 -25 95 -26 54 61 84 88 94 -16 -57 60 73 62 -20 -5 -40 -56 67 81 89 122 116 72 -50 -24 87 79 111 90 80 -43 -54 -32 -6 -69 -1 -46 108 -55 -45 -58 -61 -70 -7 -76 112 102 -62 101 105 -100 -80 -35 -3 -79 -72 -15 -78 -63 -68 -73 -97 -44 -33 -88 -96 -99 -52 120 119 -119 124 -122 -8 -71 -17
right_child=2 15 5 6 12 22 48 9 23 10 11 -13 13 98 28 30 27 26 53 -21 -22 -23 59 49 39 35 -28 -29 29 -31 66 56 -34 97 46 -37 37 -39 64 40 -42 42 76 55 85 -47 -48 -49 71 -51 70 -53 78 74 65 58 68 -59 -60 77 96 107 -64 -65 -66 -67 86 83 91 123 104 109 -74 -75 93 -77 106 103 100 -81 -82 -83 -84 -85 -86 -87 113 -89 -90 -91 -92 -93 -94 -95 114 110 -98 115 99 -101 -102 -103 -104 -105 -106 -107 -108 -109 -110 -111 -112 -113 -114 -115 -116 -117 -118 118 -120 -121 121 -123 -124 -125 -126
leaf_value=0.062714744175921433 0.087697179289502755 -0.061588245844857802 -0.024614158259615795 -0.023089263808046628 0.044877670498008448 0.010712770394770027 0.19248203800313729 0.10200163620788748 -0.024912444572914774 0.12663705712699597 -0.069828672746482898 0.083795857874830487 0.12967931909400121 0.019914758399726281 0.042211958193907072 -0.1011267558780117 0.14919677802187936 0.16595156912986314 -0.081763014753282084 0.073795510534504463 0.1297199602912891 0.12313894148619441 0.066448804435530084 0.086703994851959523 -0.069243598446049992 0.14918391533737765 -0.12962649043479113 -0.037516356620948037 0.067088149903735864 0.010597640491032529 0.078104300945203251 0.3310691611298025 0.12309675086860684 0.18007341344946912 -0.10148662163298833 -0.0047957933148890033 0.0072964838812514532 0.10525765747709964 0.020089098859706795 -0.056562091022750033 0.19985651506273402 0.030414010900937757 0.11501758762947437 -0.01046324049712772 0.14899627088464404 -0.060164241701128843 0.12519571133961643 0.023689433401945979 -0.082690985001162093 -0.10655828456635665 -0.0014583688566471864 0.11571847787442294 0.15431905383704964 -0.10960081069056669 0.13219424865570162 0.19530002173205288 -0.063369121847186155 0.009197883829353503 0.039366564143046102 0.099723600090399087 -0.10029078533981904 -0.10220867730736058 -0.011285412748267071 0.1174853538121288 -0.077774519497945435 0.081908431704600049 -0.03619365194655625 -0.056059022402009322 -0.10488910205723113 -0.14449826390040896 0.23916586186648267 -0.10066222236581646 0.20045353350790199 0.15131128488664991 -0.091879198825312258 0.23139496778831267 -0.040265408732834504 0.15025000889446652 0.22889436107183164 -0.072474564139409642 -0.15129859876094748 0.038000865169458373 0.16972696416877661 0.039895872493769753 0.013518356166681813 0.04924082366382676 0.051148309514685422 0.02290316306532424 0.20327553028549267 0.095121187439110175 -0.090237934374563344 -0.038655171124939325 -0.083961839306681885 -0.10583854130407622 0.08807789732144633 -0.076326558965311153 0.11565546772187082 0.21053511083078957 0.088204339453202996 0.15790507412767724 0.16034308552329948 0.16953186794380179 0.07964402391220464 0.21106992222901999 0.11402199296304667 0.17086250605924641 0.049935769640669196 0.12184708929269805 -0.092919290577072183 -0.072310645565011225 0.052313957146255453 0.075897660444209675 0.18680017301048574 -0.013826769556660632 -0.12953068508548157 0.18837800409091338 -0.10957152179188284 -0.031627969638914274 0.11873137839235014 -0.10892558859112504 0.14619151156163293 -0.10798141031362256 0.22810542066691319 -0.11629353123450427 -0.10757560362971169
leaf_weight=2005.7160135954618 931.0955409258604 72.375113219022751 3048.384314224124 995.82539289444685 215.78583443164825 232.32948686182499 40.626168370246887 390917.55595526099 10173.282528162003 61517.177464798093 28093.60630569607 26365.827507115901 4839.3810269832611 43.719736844301224 15195.944833472371 177.18271347880363 1218.065037727356 33361.357274457812 4783.9540456756949 38368.385546125472 26627.082011312246 180005.20797941089 2287.1347251534462 381.30762185901403 11093.37976462394 1177.5107055157423 430.91745017468929 7522.3762687146664 67462.280215144157 20666.430314801633 3041.4461009055376 37.286021634936333 1497.0079269260168 60568.435224190354 268.56898246705532 12005.343876838684 4903.2159762606025 4784.1590836942196 1052.7523210868239 2384.9882495254278 1174.9260082393885 434.91870402544737 1331.7550536766648 48.673269748687744 918.18170829117298 3766.1714631468058 26571.088708207011 1612.6843903586268 194.05470144748688 7573.3581404089928 43.180814176797867 396.15096848458052 83.279895722866058 176.91941887140274 3627.4496181383729 516.50081433355808 112.35477375984192 29310.730999872088 3176.2454477399588 170.25813398510218 454.041149482131 5430.8746298849583 4301.2210706323385 946.930305339396 12553.884794652462 166570.8601186797 1475.5234969928861 1389.3009865805507 2602.1403560712934 23.245562061667442 788.58170416206121 13903.887354284525 123.16564547270536 925.55848586559296 11858.713363289833 55.469362683594227 281.14358621090651 571.83811756968498 368.17846894264221 1877.1862767934799 75.464932791888714 7449.6512526646256 43447.132890805602 405.04433990269899 2923.1617767810822 421.14996798336506 380.2494270503521 425.5373398438096 798.21434190869331 291.40746147930622 75.230169743299484 505.19704809784889 1559.6290176659822 33224.026631310582 11.150094091892244 186.60046057403088 36.113350346684456 1544.8249541372061 496.38816286623478 2856.2539529204369 1488.8336448967457 15196.384897977114 358.80051651597023 738.47477173060179 71.053238309919834 13318.052296847105 204.10244800150394 17.126140184700489 287.56723014265299 998.91539839655161 56.503691889345646 681.78243811428547 111.03190444409847 140.6846643909812 16.542921930551529 903.92309328913689 41.961961917579174 18.422492742538452 6.3907844871282569 39.781123660504818 5.8445186167955425 24.56997412443161 164.76990394294262 57.167448878288269 1687.5463615581393
leaf_count=5955 2461 423 11395 6382 537 1039 46 886187 42025 119316 156249 70239 7840 115 60574 1533 2321 42415 41977 106904 42287 363634 6466 848 67385 1988 2196 30324 226681 99658 10328 36 2304 50396 1180 44530 20731 15298 6909 12195 2035 1831 3092 164 1697 15546 46383 4475 1337 40867 192 724 113 1571 6973 845 437 134962 9794 389 2851 50212 24951 3300 105026 451683 7202 8203 16980 105 1339 127832 291 1305 105502 59 1352 996 310 13059 312 28490 54027 1594 10303 1232 1220 3135 1209 693 382 1983 9888 325718 36 1270 93 1496 902 3600 1917 15205 1218 845 235 13443 611 120 2008 8554 260 1975 241 575 86 753 384 135 36 365 45 226 141 435 16046
internal_value=0.0831014 0.0303144 0.104457 0.0522646 0.142363 0.095556 0.020534 0.0989171 0.0419608 0.103272 0.0704226 0.00454665 0.152469 0.0978034 0.0323179 -0.0665146 0.0853435 0.111657 -0.0873809 0.106339 0.113866 0.108666 0.00915904 -0.042961 -0.00797254 0.0399218 0.162182 -0.0114961 0.0426431 0.053841 0.0115484 0.0112405 -0.00592655 0.165831 0.151529 0.00895789 0.0357935 0.0556751 -0.0557556 -0.0413561 0.0280672 0.0808015 0.0192767 0.037846 0.00208876 -0.030855 0.122927 0.103187 -0.0920807 -0.0972942 0.12654 -0.0628662 0.0824917 -0.0931324 0.0815886 0.0853943 -0.0650757 0.0204699 0.0611768 0.0955842 0.0676953 -0.0683049 -0.0483966 0.0454291 -0.0702028 0.0829802 0.0272006 0.0373548 -0.0774303 0.12385 0.203268 -0.0961356 0.0272442 0.0908972 -0.10103 -0.0464548 0.0815567 0.161961 0.160948 -0.0531207 0.00903296 0.0496271 0.16911 -0.0343988 0.0335379 0.117628 -0.0274171 -0.0160084 0.190991 0.0510181 0.0415097 -0.0941207 -0.0716872 -0.102167 0.181377 0.019031 -0.0843804 0.178723 0.165799 0.147585 0.173934 0.177959 0.0559374 0.184527 0.228822 0.170369 -0.00232531 -0.101504 -0.0454458 -0.0987619 -0.0464272 0.101772 0.223068 0.033601 -0.0419145 0.202356 -0.0547411 -0.104816 -0.0643564 -0.0844595 -0.106195 -0.059139 0.221059 -0.124447 -0.106963
internal_weight=1.47228e+06 424067 1.04822e+06 345700 199329 848888 163691 817101 58040.9 759060 154345 54459.4 185065 36349.3 148185 78366.6 38415.9 604715 61837.4 99885.6 29675.5 570923 31787.4 19625 26528.8 19634.9 33792.3 8740.44 132635 88128.7 16529.2 14263.3 11670.3 148716 70502.6 13182.9 11479.3 9687.38 15549.4 15049.4 3559.91 182009 4866.36 10576.2 6036.6 4697.27 26839.7 6452.07 15505.8 7954.67 1619.06 11489.5 177143 60218.4 175127 4539.63 3687.11 44506.7 3692.75 5258.65 3702.85 14533.2 9085.18 1942.76 13606.6 170198 14569.5 12285.4 3511.1 285.809 944.778 15220 317.22 3212.69 45685.2 2367.57 2498.78 1555.8 2015.76 2312.1 158.745 10491.1 43662.9 1794.35 4928.88 1339.33 2284.02 602.457 846.888 403.762 245.488 3107.34 1791.96 45082.7 176.011 674.28 490.154 78213.6 16714.4 3352.64 1857.01 75764.8 431.176 1310.31 859.635 13361.8 485.246 5448 1763.09 14902.8 243.104 2013.54 148.318 520.934 27.693 2448.75 85.1428 1959.74 64.5944 58.2036 1895.14 30.4145 205.396 80.413 1864.73
internal_count=4280734 1918291 2362443 1281778 300310 2062133 782233 1919511 172371 1747140 452708 226488 246870 76893 643492 636513 86327 1294432 558507 226220 53682 1249821 142622 86044 129295 58833 44611 32645 521875 326339 78006 53440 44329 169977 102127 46518 46956 36029 121617 82339 14230 499545 21979 32948 20936 18007 47563 12315 138741 41715 5321 68109 477566 553186 474914 12012 20492 195536 10639 13327 10715 117260 66928 9682 111935 458656 59620 48615 20093 727 2150 138014 1628 7771 435926 14949 7030 2612 2652 14890 425 38818 54564 9797 16258 2929 11005 4706 1373 1130 771 18963 10927 431220 399 3171 2944 67850 18060 4502 2227 65601 1641 1841 1574 13558 1963 50332 9210 136386 1530 5067 277 1795 122 2249 576 18386 536 500 17850 271 187 540 17579
is_linear=0
shrinkage=0.0944097


Tree=7
num_leaves=127
num_cat=0
split_feature=42 5 39 5 56 51 35 29 29 56 35 39 35 55 19 35 56 29 35 29 35 35 56 51 56 29 56 29 56 35 55 29 19 6 35 56 35 35 29 29 35 29 29 35 35 29 29 6 19 11 29 21 11 21 19 6 11 6 35 11 35 29 29 21 19 13 55 35 35 29 29 11 19 35 21 35 39 35 6 19 21 6 29 56 29 51 29 29 51 56 6 35 29 35 29 35 19 29 6 29 21 35 29 35 21 35 35 11 56 35 35 35 29 35 55 56 19 29 29 35 29 21 29 55 19 35
